-0.031796373426914215
0.006591925863176584
-0.04316265136003494
-0.035767652094364166
0.024441806599497795
-0.043574921786785126
-0.025915246456861496
-0.0368952639400959
-0.013070102781057358
0.00712617626413703
-0.03072482720017433
-0.023903675377368927
-0.029098035767674446
-0.030484087765216827
0.036476049572229385
-0.04695148020982742
-0.055422618985176086
-0.052918948233127594
-0.001497806515544653
-0.02850175090134144
-0.017466144636273384
-0.01461529079824686
0.039334986358881
0.01218716986477375
-0.018923962488770485
-0.027449272572994232
-0.021248502656817436
0.01128192525357008
-0.03609183430671692
-0.048638276755809784
-0.027370454743504524
-0.028617586940526962
0.029199402779340744
-0.04695551097393036
-0.03028153069317341
0.042448729276657104
-0.021473821252584457
-0.03793090209364891
0.01641054078936577
-0.015824779868125916
-0.006658085621893406
-0.018233345821499825
0.03044278360903263
0.025509748607873917
-0.04288218170404434
-0.03366285189986229
-0.02789887972176075
-0.02098027430474758
0.025584202259778976
-0.02794273942708969
-0.029841845855116844
0.002958176890388131
-0.048758018761873245
-0.01794586144387722
-0.023822316899895668
0.017003612592816353
-0.03479648754000664
-0.033798448741436005
-0.009974412620067596
-0.035540755838155746
-0.04722019284963608
-0.01934935711324215
-0.03138420358300209
-0.01738465018570423
-0.015997979789972305
-0.042234186083078384
-0.0442495122551918
0.009532885625958443
-0.013916458003222942
-0.012268350459635258
0.009562170132994652
-0.030682573094964027
0.004331717733293772
-0.008337593637406826
-0.02367616631090641
0.010818337090313435
0.010516214184463024
-0.02735210582613945
-0.01157338172197342
-0.01534289214760065
-0.0273689404129982
0.04045049101114273
-0.028823399916291237
-0.012693990021944046
-0.030586281791329384
-0.02689214050769806
0.013857291080057621
-0.004009151365607977
0.009440317749977112
-0.01545382384210825
-0.04059356823563576
-0.04175696149468422
-0.05276557058095932
0.02426215074956417
-0.04022343456745148
0.015105281956493855
-0.019449548795819283
-0.02840578183531761
0.00770125538110733
0.0036024916917085648
0.01778215542435646
-0.025598866865038872
-0.020617883652448654
-0.0554981604218483
-0.03576789051294327
-0.013778967782855034
-0.013274123892188072
-0.04878324642777443
-0.01882782392203808
-0.05053136497735977
-0.018181724473834038
-0.004387781023979187
0.0060270712710917
-0.024751853197813034
-0.011021077632904053
-0.04184997081756592
-0.04866524040699005
-0.045257773250341415
-0.050566863268613815
-0.05442046746611595
0.00546273123472929
-0.040089935064315796
-0.01275707595050335
-0.03419108688831329
-0.03960513696074486
0.009443175047636032
0.028161946684122086
0.015039987862110138
-0.04186150059103966
-0.03545414283871651
-0.038653478026390076
-0.038277510553598404
-0.054475173354148865
-0.013484866358339787
-0.05607154965400696
-0.04350303113460541
-0.04357236996293068
-0.03715302050113678
-0.007908768020570278
-0.036735910922288895
0.020221827551722527
-0.029642855748534203
-0.01710447296500206
-0.032381922006607056
-0.03759898990392685
-0.03429481014609337
-0.004786193370819092
-0.0504416897892952
0.04596460610628128
0.035524118691682816
0.09180384129285812
-0.04976877197623253
-0.05030292645096779
-0.04488842934370041
-0.00045278985635377467
-0.04188128560781479
-0.026860995218157768
-0.019085461273789406
-0.018406076356768608
0.019688932225108147
-0.00775629747658968
-0.02933896705508232
0.04060104861855507
-0.023248903453350067
-0.0012569754617288709
0.027644099667668343
-0.05283764377236366
-0.020047085359692574
0.0179164819419384
0.04210025072097778
-0.016742689535021782
-0.04194628819823265
-0.0421607531607151
-0.045997634530067444
0.0188900213688612
-0.02612345479428768
-0.023082086816430092
0.02905193530023098
-0.02093801088631153
0.024861924350261688
-0.00591748021543026
-0.04767942801117897
0.011143798939883709
-0.013686701655387878
-0.03957658261060715
-0.015577554702758789
-0.03594313934445381
-0.01292405091226101
-0.02048002928495407
-0.0434575192630291
0.0012013191590085626
-0.0440249964594841
-0.03738972917199135
0.005858059972524643
-0.03148263320326805
-0.03575482219457626
-0.033073700964450836
-0.04586471617221832
0.021883148699998856
-0.04135424271225929
-0.010226503014564514
-0.04461675509810448
-0.030285067856311798
-0.040364671498537064
-0.025230567902326584
-0.026118915528059006
-0.04084380343556404
0.044003602117300034
-0.0370790958404541
-0.039657484740018845
-0.021137244999408722
-0.043122708797454834
-0.018351415172219276
-0.02073250338435173
-0.04328833892941475
-0.018886536359786987
-0.047411710023880005
-0.025892481207847595
-0.03741246834397316
-0.04384220018982887
0.03727481886744499
-0.027891112491488457
-0.02518543414771557
-0.022744381800293922
-0.04171634837985039
-0.037854984402656555
-0.036387309432029724
0.04197848588228226
-0.02984178625047207
-0.04509039968252182
-0.004642261657863855
0.03527630865573883
0.01343329343944788
-0.02516716532409191
0.05461506545543671
-0.03276703879237175
-0.03578527644276619
-0.030097277835011482
0.04168028011918068
-0.006579358596354723
0.028190216049551964
-0.04669497534632683
-0.032028838992118835
0.02108459733426571
-0.03139184042811394
0.006277154665440321
-0.0406099334359169
-0.029996035620570183
-0.04366545006632805
-0.035864025354385376
-0.014673292636871338
0.029348304495215416
0.0029852762818336487
-0.023179516196250916
-0.013990662060678005
-0.038498394191265106
-0.028274107724428177
-0.03310085088014603
-0.03901532664895058
-0.004941299092024565
-0.046238597482442856
-0.022814083844423294
-0.004068606533110142
-0.01083429716527462
0.05085769295692444
-0.004462053533643484
-0.030205532908439636
-0.01637452468276024
-0.043354909867048264
0.020830756053328514
0.03512934222817421
0.028761625289916992
0.013410261832177639
-0.051921259611845016
0.00599282281473279
-0.013656098395586014
-0.024713607504963875
-0.02779911458492279
-0.014012162573635578
-0.044242437928915024
-0.03693579137325287
-0.028013933449983597
-0.05124512314796448
-0.028574272990226746
0.011905824765563011
-0.02855062298476696
-0.03627371788024902
-0.030896179378032684
-0.04212871938943863
0.010247629135847092
-0.03149489313364029
-0.039745546877384186
-0.046549808233976364
-0.03310970589518547
-0.043950155377388
-0.04343848302960396
-0.025454077869653702
-0.03277776017785072
-0.03029746562242508
-0.04020601883530617
-0.03921201080083847
-0.030238816514611244
-0.00869892816990614
-0.0224960595369339
-0.033213112503290176
0.03969288989901543
-0.04091285914182663
-0.02650962583720684
0.0018259808421134949
0.0012346067233011127
-0.010417003184556961
-0.015227310359477997
-0.023305602371692657
-0.023296209052205086
-0.04540153220295906
-0.02593887783586979
0.005219444166868925
-0.03679893910884857
0.01703703962266445
-0.02502201311290264
0.028005022555589676
-0.017814958468079567
0.02611537277698517
-0.011515495367348194
0.011821242980659008
-0.017566809430718422
-0.03864729031920433
-0.03942924365401268
-0.007820209488272667
-0.021939948201179504
-0.04824385792016983
0.0012811862397938967
0.022944707423448563
-0.004964279010891914
0.056791845709085464
0.04020068421959877
-0.01206955499947071
0.023286011070013046
0.02822725474834442
-0.027046354487538338
-0.03632184863090515
-0.04838712140917778
-0.0032404649537056684
-0.02389542944729328
-0.022874770686030388
-0.024642325937747955
0.03147058188915253
0.027349747717380524
-0.02136772871017456
-0.023512622341513634
0.0021731145679950714
-0.03475357964634895
-0.015898622572422028
-0.025279004126787186
0.015424676239490509
-0.02899959124624729
0.04534575343132019
-0.03541073575615883
0.03353361785411835
-0.032126910984516144
-0.034364670515060425
-0.03961261361837387
-0.02573879435658455
-0.02068183571100235
-0.03189266473054886
-0.019488174468278885
-0.021091632544994354
-0.05076910927891731
-0.03588804602622986
0.0013390909880399704
-0.04716728627681732
0.021018894389271736
-0.032542839646339417
-0.031285449862480164
-0.05230925977230072
-0.03790796920657158
-0.003799734404310584
0.004012679681181908
0.0017570708878338337
-0.0025520639028400183
-0.01773054152727127
0.02598411589860916
-0.02030789665877819
-0.026971690356731415
-0.031598690897226334
-0.022962287068367004
0.016502464190125465
0.054676372557878494
0.006081670988351107
-0.04814945161342621
0.0668153241276741
-0.05489988625049591
-0.03388582542538643
0.04855719581246376
-0.04740877449512482
-0.02403397671878338
0.045926544815301895
-0.026269182562828064
-0.02138196863234043
-0.03575504943728447
-0.0021452861838042736
-0.009681735187768936
-0.03661239892244339
-0.016644177958369255
-0.04872862622141838
-0.03188231214880943
-0.05138657987117767
-0.03962758556008339
-0.011995707638561726
-0.04130804166197777
-0.024495147168636322
0.004131132736802101
-0.026488211005926132
-0.05381247028708458
-0.04579827934503555
-0.016194242984056473
-0.016199253499507904
-0.0025237880181521177
-0.016878757625818253
-0.03353530168533325
0.06257802993059158
-0.020638950169086456
0.004429055843502283
-0.026474621146917343
-0.04368317499756813
-0.0037625941913574934
-0.022903084754943848
-0.040985289961099625
-0.042676765471696854
-0.043234821408987045
0.0058999257162213326
-0.016090573742985725
-0.03234558552503586
-0.02306341379880905
-0.018847711384296417
0.0004810780519619584
-0.033897072076797485
-0.0225558802485466
0.04394405707716942
-0.04503097012639046
0.03189573436975479
-0.025941384956240654
-0.012930847704410553
-0.008345860987901688
-0.021298717707395554
-0.03741754963994026
0.01472531445324421
0.016609754413366318
0.0012032820377498865
-0.01846151612699032
-0.022880999371409416
-0.006768995895981789
-0.03444714471697807
-0.03733254224061966
-0.04599665477871895
-0.021568341180682182
-0.03819699585437775
0.003939762711524963
-0.019083909690380096
-0.008480953052639961
-0.017695436254143715
-0.02961093932390213
-0.00960952416062355
0.007395787630230188
0.047505900263786316
-0.05279449746012688
-0.028953423723578453
-0.04006936773657799
-0.03841770440340042
-0.0401463583111763
-0.013281386345624924
-0.022461198270320892
-0.025888729840517044
-0.021646374836564064
-0.029045777395367622
-0.026507847011089325
-0.024814823642373085
-0.013967836275696754
0.024033132940530777
-0.01040599588304758
0.023305226117372513
-0.001859621494077146
0.023969558998942375
0.006763980723917484
0.001868822262622416
-0.005885793827474117
-0.04661125689744949
0.0026747779920697212
-0.006585765164345503
-0.03769681230187416
-0.016563009470701218
-0.024510901421308517
-0.014807789586484432
-0.04716643691062927
-0.022503305226564407
-0.055879417806863785
-0.014400752261281013
0.05129791423678398
-0.032137420028448105
0.008568673394620419
-0.03814796358346939
-0.00777503801509738
-0.040025051683187485
-0.030055280774831772
-0.0370260551571846
0.02316344529390335
-0.02249007299542427
0.0005347909755073488
-0.0473017692565918
0.04546567425131798
-0.03605924919247627
0.05210604518651962
-0.045784641057252884
0.017595238983631134
-0.025156790390610695
-0.018743427470326424
0.008899782784283161
0.008409068919718266
0.04117430001497269
-0.04412476345896721
0.041118230670690536
-0.02529890462756157
-0.04995541274547577
-0.02964269556105137
-0.03826923295855522
-0.020680170506238937
-0.03669039160013199
-0.053347766399383545
-0.003795175114646554
0.0585966482758522
-0.04087549075484276
-0.023397838696837425
-0.0414944551885128
-0.027591979131102562
-0.03377266228199005
-0.024755533784627914
-0.029279079288244247
-0.0006958612357266247
-0.03373849019408226
-0.03151983767747879
-0.023876266553997993
-0.02726849354803562
-0.009219075553119183
-0.009001814760267735
-0.04798123612999916
-0.03001834824681282
-0.011228317394852638
0.041494954377412796
0.017443891614675522
-0.041886623948812485
-0.015890972688794136
0.02621927671134472
-0.04190543666481972
0.0025690721813589334
-0.026180822402238846
-0.0172351635992527
0.004740205593407154
-0.04039542376995087
-0.023628143593668938
-0.019253825768828392
-0.042427003383636475
-0.031458236277103424
0.004257334396243095
-0.0093767074868083
0.020942384377121925
-0.028678003698587418
-0.04109210893511772
-0.018294157460331917
-0.012841543182730675
-0.030732108280062675
-0.018822960555553436
-0.01863257959485054
-0.05099056288599968
-0.04939480125904083
0.06082821264863014
-0.03063737414777279
0.014325865544378757
-0.035317763686180115
0.027920963242650032
0.020935656502842903
-0.03483474627137184
-0.038979485630989075
-0.006439110264182091
-0.014553580433130264
-0.03080824762582779
-0.012400922365486622
0.01695401407778263
-0.02372647076845169
-0.05800657346844673
-0.023983245715498924
0.05185984820127487
-0.036674078553915024
-0.04793190211057663
-0.03331251069903374
0.014130434021353722
-0.03845776990056038
0.014909502118825912
-0.04208900406956673
0.010467283427715302
-0.023791495710611343
0.02310873195528984
-0.03661336377263069
-0.03650064766407013
-0.029820799827575684
-0.02956436015665531
-0.03470330312848091
-0.048071425408124924
-0.020484471693634987
0.040393490344285965
0.024708224460482597
-0.029916489496827126
-0.01599620282649994
-0.02733256295323372
0.014745124615728855
-0.04262107238173485
-0.021337928250432014
-0.01931627467274666
-0.006517622619867325
0.013104564510285854
-0.046969570219516754
-0.03634977713227272
0.023981181904673576
0.017205527052283287
-0.01291473675519228
0.022092826664447784
-0.019161175936460495
-0.0030324298422783613
-0.041571490466594696
0.03085552528500557
-0.019442405551671982
0.041546184569597244
-0.031505025923252106
-0.02811693586409092
-0.022938964888453484
0.026721935719251633
0.000888942857272923
-0.02583640068769455
-0.04135120287537575
-0.023777734488248825
-0.042817454785108566
0.02298560179769993
0.020607732236385345
0.0453466922044754
-0.04884251579642296
-0.02476292848587036
-0.02257128432393074
-0.044030316174030304
-0.0043154819868505
-0.012504487298429012
-0.009868897497653961
-0.047791969031095505
0.005381705239415169
-0.041383109986782074
-0.01959581859409809
-0.02966107241809368
-0.04177417233586311
-0.05103689432144165
-0.045312076807022095
-0.006296833045780659
-0.02696485072374344
-0.018128100782632828
-0.009343280456960201
-0.027326267212629318
0.029083453118801117
-0.04384057596325874
-0.027907980605959892
-0.05256085842847824
-0.023208141326904297
0.0038845494855195284
-0.04447847977280617
-0.027728211134672165
-0.026817750185728073
-0.051605649292469025
-0.0497826486825943
0.018954342231154442
-0.037412937730550766
-0.04000396281480789
-0.038346029818058014
-0.0093695605173707
-0.036898449063301086
-0.011929765343666077
-0.03367512673139572
-0.01874283328652382
-0.03481920063495636
-0.03515344858169556
-0.017962323501706123
-0.018368331715464592
-0.008343438617885113
-0.03064359538257122
-0.022328080609440804
-0.022405896335840225
-0.03142743557691574
-0.01855812780559063
-0.024735894054174423
-0.023178551346063614
0.04881870374083519
0.017694951966404915
-0.036592286080121994
-0.01032983511686325
-0.047522395849227905
0.008913402445614338
-0.0038715905975550413
0.005806073546409607
-0.019030269235372543
-0.04924997314810753
0.02765588089823723
-0.03698327764868736
-0.043153949081897736
-0.022086456418037415
-0.02485409565269947
-0.04800713434815407
0.01361936330795288
-0.022228723391890526
-0.020176703110337257
0.010130871087312698
-0.025031764060258865
-0.008673463016748428
0.031470056623220444
-0.05250624939799309
-0.047441285103559494
-0.01624247618019581
-0.01841994933784008
0.05850119888782501
0.022645454853773117
-0.011407429352402687
-0.008480853401124477
-0.021814381703734398
-0.040403544902801514
-0.03677551448345184
-0.03080803155899048
-0.001146057154983282
-0.03127329424023628
-0.026615431532263756
-0.019953638315200806
-0.025608861818909645
-0.013123530894517899
-0.04464316368103027
-0.029165057465434074
-0.02396128512918949
0.05521172285079956
-0.03949907422065735
-0.00775048416107893
-0.02948000095784664
-0.026138782501220703
-0.04278254508972168
0.0052484082989394665
-0.016728954389691353
-0.022338351234793663
-0.00936256442219019
-0.04116031900048256
-0.04189109057188034
-0.01254796702414751
-0.009854504838585854
-0.009946406818926334
0.014309710822999477
-0.05053779110312462
0.012353918515145779
0.020619764924049377
-0.027437061071395874
-0.009371534921228886
-0.03354863449931145
-0.03150104358792305
-0.03163871541619301
-0.03006131201982498
-0.04353957250714302
-0.022402355447411537
-0.02370666153728962
-0.04624113813042641
-0.028889648616313934
-0.029690099880099297
-0.0161457359790802
-0.02757864259183407
-0.04859112575650215
-0.036352310329675674
-0.03815850242972374
-0.027264727279543877
-0.026163659989833832
-0.02513645589351654
-0.03813936933875084
-0.036938466131687164
-0.04437097907066345
-0.02160177193582058
-0.0526236891746521
-0.01870972104370594
-0.02191793918609619
-0.021307721734046936
-0.04508180916309357
0.023884598165750504
-0.04467063397169113
-0.05264747887849808
0.009599028155207634
0.005611037835478783
-0.010518128052353859
0.04488101974129677
-0.026558328419923782
-0.027426427230238914
-0.009446847252547741
-0.04627828672528267
-0.029667232185602188
0.029779760167002678
-0.012746700085699558
0.02069387026131153
0.040210943669080734
0.003873175475746393
-0.04305807501077652
-0.028744926676154137
-0.04323713853955269
0.025919519364833832
-0.021900542080402374
0.034290507435798645
-0.004046278074383736
0.01789696328341961
-0.016562145203351974
-0.02763546258211136
-0.050749439746141434
-0.01931755803525448
-0.0032722721807658672
-0.027429699897766113
-0.008555784821510315
-0.019259821623563766
-0.036221712827682495
0.010209053754806519
-0.025273757055401802
-0.05297091603279114
0.042796213179826736
0.028477072715759277
-0.006639101076871157
0.026067299768328667
-0.016820024698972702
-0.03200030326843262
-0.02791472338140011
0.02700064890086651
-0.0441865473985672
-0.027037499472498894
-0.0421936959028244
-0.030674709007143974
-0.020608380436897278
0.03935999795794487
-0.011100403033196926
0.0145643949508667
-0.00970170833170414
-0.043069690465927124
-0.021931763738393784
0.04585622251033783
-0.028668759390711784
-0.037634048610925674
-0.013129004277288914
0.008671587333083153
-0.022899331524968147
0.033284153789281845
-0.03646251559257507
-0.00951941218227148
-0.04875871539115906
-0.029762255027890205
-0.054652322083711624
-0.009436454623937607
-0.016696413978934288
0.02464067004621029
-0.003217127872630954
-0.01325660478323698
-0.0313987210392952
0.016100510954856873
-0.02695000357925892
-0.010913305915892124
-0.0075765084475278854
-0.024253975600004196
-0.04558493196964264
-0.019956912845373154
-0.010069252923130989
-0.035672497004270554
-0.03700494393706322
-0.04944377392530441
0.02896745130419731
-0.008703040890395641
-0.008066433481872082
-0.04847531020641327
0.012650860473513603
0.02260029874742031
-0.007882588542997837
-0.04905201867222786
-0.04591500759124756
-0.0360722653567791
-0.0337824709713459
-0.026009632274508476
-0.012660589069128036
-0.04109635576605797
-0.011401843279600143
0.04009794816374779
-0.034845516085624695
-0.023541301488876343
-0.018390901386737823
0.028958071023225784
-0.01738555170595646
-0.013739303685724735
-0.04495936259627342
0.007096501067280769
0.02715075947344303
-0.025662235915660858
-0.02503187209367752
0.05779094621539116
0.005868176929652691
-0.03122451715171337
0.03379599750041962
-0.040339089930057526
-0.01734321191906929
-0.032437764108181
-0.05342292785644531
-0.02528197318315506
-0.00848482921719551
-0.015479005873203278
-0.022514281794428825
-0.03231436014175415
-0.03085443563759327
0.042781297117471695
-0.011681112460792065
-0.046869680285453796
0.009784185327589512
-0.020960895344614983
0.03439716249704361
-0.05601296201348305
-0.01918199099600315
-0.023818431422114372
-0.027194051072001457
-0.007013305090367794
-0.011141177266836166
-0.02653484046459198
-0.050505682826042175
-0.006988847628235817
-0.01670197583734989
-0.007318422663956881
-0.042103998363018036
-0.02706269547343254
-0.045387811958789825
0.0036401560064405203
-0.027658309787511826
-0.031149843707680702
-0.01659233309328556
-0.024839919060468674
-0.04646628350019455
-0.03962820768356323
-0.03936870023608208
-0.041106224060058594
-0.021222734823822975
0.029672794044017792
-0.02895333059132099
-0.021530427038669586
0.06447803974151611
0.0023681793827563524
-0.046320464462041855
-0.027208687737584114
0.0017471439205110073
-0.0006276462227106094
-0.0144715066999197
-0.03190982714295387
0.024489829316735268
-0.04282563552260399
-0.04398692399263382
-0.020800232887268066
-0.05779885873198509
-0.04499881714582443
-0.043852247297763824
-0.05023039132356644
-0.03468799591064453
-0.02185356616973877
-0.05517776310443878
-0.023738699033856392
-0.030683686956763268
-0.04413622245192528
-0.04761628061532974
-0.03582202270627022
-0.0395367257297039
-0.022900866344571114
-0.029730115085840225
0.04462771490216255
-0.01912994682788849
-0.05357734486460686
-0.03536820784211159
-0.04133244976401329
-0.009663666598498821
-0.0076818871311843395
-0.03842770308256149
-0.009252268821001053
0.04292657598853111
-0.013102490454912186
-0.04027290642261505
-0.017223145812749863
-0.012679758481681347
-0.02918434701859951
-0.0379737988114357
-0.013484607450664043
-0.04841625690460205
0.0021200308110564947
0.06281104683876038
-0.043072283267974854
-0.056558553129434586
0.002684033242985606
-0.028361249715089798
-0.025242840871214867
0.02736206166446209
-0.04522762820124626
-0.0356593020260334
-0.029078830033540726
0.0011961872223764658
-0.026455800980329514
-0.017437761649489403
0.0063552409410476685
-0.038248054683208466
0.02207997813820839
0.029035547748208046
-0.0192909836769104
-0.011950165033340454
-0.021533207967877388
0.0018326601712033153
-0.005804781336337328
-0.035566069185733795
-0.04678461700677872
0.033592548221349716
-0.047336407005786896
-0.027868958190083504
-0.023549802601337433
-0.00821124017238617
-0.015629861503839493
0.003767473855987191
0.021900402382016182
-0.047176532447338104
0.05196431279182434
-0.04010102152824402
-0.032757289707660675
-0.0013610522728413343
-0.054089274257421494
-0.027554916217923164
0.010398882441222668
-0.029694044962525368
-0.034344885498285294
0.03956710919737816
-0.03283214941620827
-0.0474613755941391
-0.029189882799983025
0.008321885019540787
-0.007661371026188135
-0.037451714277267456
-0.02787601575255394
-0.02423517405986786
0.004134447779506445
0.02725646272301674
-0.01901504583656788
-0.05335351452231407
0.0420667827129364
-0.03281663358211517
-0.03718181699514389
-0.04792312532663345
-0.0382317453622818
-0.031031344085931778
0.017493700608611107
-0.0159643292427063
-0.037416357547044754
0.00878170132637024
0.024111514911055565
0.020321540534496307
-0.03901589661836624
-0.02687176875770092
-0.032339103519916534
-0.01406395435333252
-0.0382332019507885
-0.034635160118341446
0.03013339638710022
-0.01117647159844637
-0.04521585628390312
-0.03617851436138153
-0.05498200282454491
-0.03592411056160927
0.03692885488271713
-0.0326748825609684
-0.05052149295806885
-0.018786784261465073
-0.0031235909555107355
-0.03884706646203995
-0.0019368852954357862
-0.01957039162516594
0.0037008621729910374
-0.028599603101611137
-0.006586854346096516
-0.013327115215361118
-0.025951646268367767
-0.025281788781285286
-0.04704320803284645
0.025329478085041046
-0.03828825801610947
-0.02945248782634735
-0.03710338845849037
-0.034332845360040665
-0.019977550953626633
0.018031036481261253
-0.026852842420339584
-0.006139471661299467
-0.03734685480594635
-0.04133089631795883
0.021835559979081154
-0.027177929878234863
0.003504204098135233
-0.019294077530503273
-0.007458966225385666
-0.027606254443526268
-0.022118940949440002
0.037853702902793884
-0.04241063818335533
-0.03342121094465256
-0.04004928097128868
-0.002352324081584811
0.03471008315682411
-0.045049142092466354
-0.02779984474182129
-0.011316384188830853
0.010413777083158493
-0.01426030695438385
-0.04804364591836929
-0.03629317507147789
-0.01751861907541752
-0.029468052089214325
-0.030656594783067703
-0.04184441640973091
-0.0193533543497324
0.020388983190059662
-0.011432094499468803
0.042111996561288834
-0.033723991364240646
-0.02855447120964527
-0.011854186654090881
0.005952071398496628
-0.03363027796149254
-0.034040290862321854
-0.02209710329771042
-0.02033926360309124
-0.001672006445005536
-0.005651791114360094
-0.030829722061753273
-0.03720410540699959
0.02509138360619545
0.06470663845539093
-0.029673662036657333
-0.04947932809591293
0.029421914368867874
-0.012073331512510777
-0.043593134731054306
0.013075940310955048
-0.0007998204091563821
-0.05031443014740944
-0.052603136748075485
-0.04760144650936127
-0.0198103915899992
-0.036772020161151886
0.008312158286571503
-0.03542790561914444
-0.02974233776330948
-0.026221757754683495
-0.03109201230108738
0.021365581080317497
-0.04209297522902489
0.03469957783818245
-0.014782306738197803
0.0464562363922596
-0.011167719028890133
-0.03374464809894562
-0.03212232142686844
-0.000951390597037971
-0.03835061937570572
-0.04253701493144035
-0.019066020846366882
-0.05293428152799606
-0.03749365359544754
-0.023832643404603004
-0.050906650722026825
-0.04249868541955948
0.01216681208461523
-0.04105067253112793
-0.004354211967438459
0.03151894733309746
-0.028263172134757042
-0.028936738148331642
0.0030860116239637136
-0.037422142922878265
0.021900001913309097
-0.02938184328377247
-0.048575665801763535
-0.02689318172633648
-0.03274904564023018
0.00012728686851914972
-0.030843328684568405
-0.02803986705839634
-0.020116044208407402
0.051323503255844116
-0.041485581547021866
-0.007149358745664358
0.05834454298019409
-0.04328703135251999
-0.04632209241390228
-0.04362090677022934
-0.013579548336565495
0.01440097764134407
-0.020135482773184776
-0.04169530048966408
-0.05574897304177284
-0.0199370626360178
-0.004509457387030125
-0.030007122084498405
0.029415851458907127
-0.03185423091053963
-0.027067789807915688
-0.01774381659924984
0.02873428910970688
-0.042368046939373016
-0.03010658174753189
-0.017209647223353386
-0.03834126889705658
-0.011720491573214531
-0.035621605813503265
-0.004288010764867067
0.0262858085334301
0.005235590972006321
-0.023955680429935455
-0.036015309393405914
-0.035782553255558014
0.026022955775260925
-0.03771262615919113
0.0008649088558740914
-0.052803102880716324
-0.022015465423464775
-0.043395813554525375
-0.039141323417425156
-0.03393959626555443
-0.03813733905553818
-0.02191300503909588
0.01971694640815258
-0.048498593270778656
-0.05029250308871269
0.03689325228333473
-0.020810652524232864
-0.0355071984231472
-0.0294515211135149
0.005945567972958088
-0.029723554849624634
-0.04654061421751976
0.011483338661491871
-0.029570259153842926
0.001628888538107276
-0.01197130512446165
-0.018799612298607826
-0.010842429473996162
0.02442123554646969
-0.029957806691527367
-0.034209273755550385
-0.0036195607390254736
0.007119177840650082
-0.051917318254709244
-0.027826877310872078
0.02645358256995678
-0.0199033934623003
-0.015025665052235126
-0.015279659070074558
-0.02307296358048916
0.005892601329833269
-0.04876558855175972
0.004807003773748875
-0.010357479564845562
0.01378084160387516
-0.0462544746696949
-0.036992572247982025
-0.030671726912260056
-0.027605736628174782
-0.032961759716272354
-0.00584968738257885
0.003980707842856646
-0.008576835505664349
0.025089045986533165
-0.028384830802679062
0.04973562806844711
-0.038258135318756104
0.03030221164226532
-0.03814135864377022
-0.0198239553719759
-0.04389062523841858
-0.04700779169797897
-0.023939799517393112
-0.027938388288021088
-0.031828247010707855
-0.022375596687197685
-0.03165914863348007
-0.016110578551888466
-0.015102558769285679
-0.03550673648715019
-0.04554755985736847
-0.032969824969768524
-0.0074621569365262985
0.03168761357665062
-0.04239756613969803
-0.019402923062443733
-0.05320420861244202
-0.014060844667255878
-0.035900458693504333
-0.009090044535696507
-0.024778878316283226
-0.03758620098233223
-0.019496841356158257
-0.028109360486268997
-0.009593963623046875
-0.025857796892523766
-0.01631760597229004
-0.02977672591805458
0.02333376742899418
-0.02774754725396633
-0.01067403145134449
0.027615711092948914
-0.04321560636162758
-0.028894683346152306
-0.041199732571840286
-0.030224068090319633
0.007379509508609772
-0.00339685520157218
-0.0560525618493557
-0.030403491109609604
-0.011554825119674206
-0.0418425053358078
0.028669189661741257
-0.008792041800916195
-0.04628901928663254
-0.03578028455376625
-0.05035081505775452
-0.03195398673415184
-0.04591475799679756
0.0250107292085886
-0.03146004304289818
-0.024154813960194588
-0.04691114276647568
0.020386092364788055
-0.018032019957900047
-0.021844495087862015
-0.040947940200567245
-0.03139961510896683
-0.019206611439585686
-0.05709159001708031
0.021299729123711586
0.008589887991547585
-0.034603603184223175
-0.0065709552727639675
-0.008140702731907368
-0.041201505810022354
-0.03845168650150299
-0.012518016621470451
-0.023094596341252327
-0.018559211865067482
-0.02215036191046238
-0.02995253913104534
-0.024778451770544052
-0.04299117997288704
-0.00749425170943141
0.041392307728528976
-0.02627783641219139
-0.012880414724349976
0.015453672036528587
0.01515667513012886
-0.025636259466409683
-0.04733743891119957
-0.0254815686494112
0.024250006303191185
0.00032248772913590074
0.019206827506422997
-0.026855600997805595
-0.011230157688260078
0.011958125978708267
-0.007911193184554577
0.002202620729804039
-0.033113859593868256
0.0049333032220602036
-0.015535022132098675
-0.041381873190402985
0.007081518415361643
-0.04602758213877678
-0.037343963980674744
-0.040737226605415344
-0.03163184970617294
-0.010106313973665237
-0.033920835703611374
-0.025912290439009666
-0.01836620271205902
-0.03580412268638611
-0.04426521807909012
-0.021148987114429474
-0.015441101975739002
-0.006178945302963257
-0.020224211737513542
-0.055207692086696625
-0.02007129229605198
0.02735149674117565
-0.02673487924039364
0.013129932805895805
-0.015470827929675579
0.0026125831063836813
-0.047779787331819534
-0.03553241863846779
0.003535177791491151
-0.04438725486397743
-0.04107832908630371
0.03402196615934372
-0.046542201191186905
-0.019054561853408813
0.0004146675346419215
-0.010624364949762821
-0.014293082989752293
-0.013412819243967533
-0.013184801675379276
-0.025230130180716515
-0.007929693907499313
-0.02238716557621956
0.016500266268849373
0.007579591125249863
0.0034337493125349283
-0.023848576471209526
-0.01730973646044731
-0.04053535312414169
-0.05189894512295723
-0.013654147274792194
-0.04471326246857643
-0.03903394192457199
-0.01979396492242813
-0.004710755776613951
0.010548473335802555
-0.02244403585791588
-0.025024356320500374
0.028392832726240158
-0.0398385189473629
-0.034746602177619934
-0.028551563620567322
-0.029105307534337044
-0.022403476759791374
-0.035933274775743484
0.015281697735190392
-0.045229051262140274
-0.03697805106639862
0.024556800723075867
-0.054393984377384186
-0.03482763469219208
-0.016940562054514885
-0.031224040314555168
-0.04843544587492943
0.03875655308365822
-0.020776374265551567
0.006741920951753855
-0.0487937331199646
-0.03218531608581543
-0.023469282314181328
-0.04200287535786629
0.006821663584560156
-0.022115252912044525
-0.05478047579526901
-0.0374029204249382
-0.0050302897579967976
-0.031598638743162155
-0.01790395937860012
-0.02246837504208088
-0.013788317330181599
-0.00815342366695404
-0.0232263021171093
-0.04522201046347618
-0.041847094893455505
-0.03480532020330429
-0.02597160078585148
-0.028620239347219467
-0.04076245427131653
-0.008329275995492935
-0.0287159513682127
-0.018979445099830627
0.00023502428666688502
-0.03510450944304466
-0.026923736557364464
-0.02215786650776863
0.0013964660465717316
-0.003458932274952531
0.016447443515062332
-0.023904960602521896
-0.0203241053968668
0.05822799727320671
0.0348493792116642
-0.021542556583881378
-0.042003653943538666
0.00013206186122260988
0.05107392370700836
0.009608682245016098
-0.025353096425533295
0.016615543514490128
0.001713740755803883
0.0008921376429498196
-0.04344924911856651
0.03331931680440903
-0.029002465307712555
-0.018606889992952347
-0.041114408522844315
-0.030114969238638878
-0.024379614740610123
-0.02491072192788124
-0.05033492669463158
0.05289974808692932
-0.023776119574904442
-0.024530239403247833
0.06857554614543915
0.023285536095499992
-0.02610396035015583
-0.014759913086891174
0.016907017678022385
0.02613941580057144
-0.025233807042241096
-0.04592790827155113
0.04149506986141205
-0.03040219657123089
0.031647730618715286
-0.019093725830316544
-0.02924308367073536
0.008188139647245407
-0.017548372969031334
-0.04374760389328003
-0.020729199051856995
-0.029552897438406944
-0.010247264988720417
-0.05440700054168701
-0.03200246021151543
-0.05478303134441376
-0.02385069988667965
0.005092278588563204
-0.048401542007923126
-0.04420483857393265
-0.02493358589708805
-0.0511668436229229
-0.010374106466770172
-0.038482047617435455
-0.053785353899002075
-0.04766836389899254
-0.03185353800654411
-0.023059092462062836
-0.036370016634464264
-0.011525970883667469
-0.019830629229545593
-0.01388616394251585
-0.04126504808664322
-0.021370060741901398
-0.045711539685726166
-0.02910405956208706
-0.039844002574682236
0.03498542681336403
-0.047316618263721466
0.058600619435310364
-0.04920447990298271
0.00665394589304924
-0.048087336122989655
0.020552197471261024
-0.026699252426624298
-0.02129596658051014
-0.023498808965086937
0.01336844265460968
-0.027564039453864098
-0.01976376213133335
0.03229731321334839
-0.018301604315638542
-0.04268358647823334
0.03192906081676483
-0.043012332171201706
0.011279754340648651
-0.0362914502620697
-0.0367564931511879
-0.0009192246943712234
0.0047568329609930515
-0.01803109422326088
-0.038508206605911255
-0.005030629225075245
-0.021400777623057365
0.06372083723545074
-0.04181288555264473
-0.02388220839202404
-0.025098027661442757
-0.04389580711722374
-0.0012739115627482533
-0.030901644378900528
-0.026653748005628586
-0.009985385462641716
0.007989726029336452
-0.005324112251400948
-0.02397121861577034
-0.027011213824152946
-0.020609930157661438
-0.04255315288901329
-0.04813605546951294
-0.001073551713488996
-0.037763822823762894
-0.046229295432567596
0.00203247694298625
0.013310721144080162
-0.0023862372618168592
0.061130449175834656
-0.016902513802051544
0.02843841165304184
-0.040471285581588745
-0.019556721672415733
-0.04279651120305061
-0.027242036536335945
0.04949663579463959
-0.014342798851430416
0.047737088054418564
-0.03495321795344353
-0.052016615867614746
-0.052026908844709396
-0.032263632863759995
-0.045007381588220596
-0.04879005253314972
-0.01562118623405695
-0.0272216759622097
0.003316412214189768
-0.03184586390852928
-0.038355883210897446
0.03825090080499649
0.015006085857748985
-0.03088102675974369
-0.003477653255686164
0.033352114260196686
0.016168300062417984
-0.04398730397224426
-0.013676417991518974
0.03290688246488571
-0.04253918305039406
-0.023928970098495483
-0.0412752702832222
-0.0007579767261631787
-0.027675539255142212
0.04000309482216835
-0.030031589791178703
0.007237691897898912
-0.027458980679512024
-0.04950884357094765
-0.02484428696334362
-0.014790610410273075
-0.003175050485879183
-0.03448819741606712
-0.046038996428251266
-0.04752105474472046
-0.01832948438823223
-0.040445394814014435
-0.012718909420073032
-0.03402206674218178
-0.01497793197631836
-0.03779149055480957
-0.05229780822992325
-0.02947544865310192
-0.04679210111498833
0.02010171115398407
-0.046932660043239594
0.02334888093173504
1.9070081179961562e-05
-0.029270300641655922
0.009180005639791489
-0.0021000176202505827
-0.01432205643504858
-0.05530621483922005
-0.022284381091594696
-0.01169062964618206
-0.00623490521684289
-0.026766808703541756
-0.0416702963411808
-0.018277708441019058
-0.023927077651023865
-0.021981557831168175
-0.02087266743183136
0.043630730360746384
-0.04908591881394386
-0.03318558260798454
-0.0372471883893013
-0.040552835911512375
-0.007281685713678598
-0.04258425161242485
0.0055527882650494576
0.0018610075348988175
-0.051031239330768585
0.06202651560306549
-0.016162613406777382
0.026203181594610214
-0.020517997443675995
0.007437312509864569
-0.0236168522387743
-0.01614970900118351
-0.025113163515925407
0.016869377344846725
-0.034856077283620834
-0.03206861391663551
0.019987590610980988
-0.029961084946990013
0.051028549671173096
-0.032548096030950546
-0.007882109843194485
0.006072252057492733
-0.022331858053803444
-0.040850620716810226
0.04056989401578903
-0.043139565736055374
-0.037036214023828506
-0.04204123467206955
-0.022450871765613556
-0.013676881790161133
-0.003819771111011505
0.016797678545117378
-0.008643790148198605
-0.028548255562782288
-0.02095038630068302
-0.02098405361175537
-0.03250133991241455
-0.01829291321337223
-0.03033868782222271
-0.028856078162789345
0.00410191947594285
-0.034078922122716904
-0.05353475362062454
-0.029149271547794342
-0.036284320056438446
0.03505061939358711
-0.029481446370482445
-0.024057548493146896
-0.006404101848602295
-0.02768879383802414
0.0012537679867818952
-0.02543860673904419
-0.015803946182131767
-0.01457974687218666
-0.025689294561743736
-0.023954542353749275
0.04210036247968674
0.022763265296816826
-0.027406953275203705
-0.031820911914110184
-0.030645566061139107
-0.035917144268751144
-0.023084763437509537
0.04841300845146179
-0.033203065395355225
-0.017140349373221397
0.024001820012927055
0.013077428564429283
-0.036852411925792694
0.031817033886909485
-0.033557601273059845
-0.046035122126340866
-0.0033500997815281153
-0.035287871956825256
-0.034905463457107544
0.00524272071197629
-0.026247713714838028
-0.03495822474360466
-0.03102944791316986
0.03928816691040993
-0.015050237998366356
-0.017784269526600838
-0.03261347860097885
-0.020134544000029564
-0.022991769015789032
-0.0016478186007589102
-0.030153632164001465
-0.04851513355970383
-0.031255416572093964
-0.04916898533701897
-0.034034594893455505
-0.04900097846984863
-0.011089656502008438
-0.03635738044977188
-0.05152431130409241
-0.0028454207349568605
-0.034424521028995514
-0.015409078449010849
-0.012276585213840008
-0.04082508012652397
-0.030106842517852783
0.010435095988214016
-0.03897435963153839
-0.02541780285537243
-0.04697459936141968
-0.021037373691797256
-0.011363614350557327
-0.01837819255888462
0.0023164357990026474
-0.03706441819667816
-0.007616287097334862
0.020233122631907463
-0.048536188900470734
-0.05233297869563103
0.04830488562583923
-0.05279592424631119
0.045261550694704056
-0.033155616372823715
-0.029243260622024536
0.018771441653370857
0.04140923544764519
-0.04875856265425682
-0.021410521119832993
-0.024840887635946274
-0.038472630083560944
0.008216196671128273
-0.03917396441102028
0.027226636186242104
0.030714286491274834
-0.04636618494987488
0.04231571778655052
-0.042430613189935684
-0.030600842088460922
-0.04765869677066803
-0.029962951317429543
-0.045397646725177765
-0.024295080453157425
-0.013660591095685959
-0.029142022132873535
-0.007177647203207016
-0.033531446009874344
-0.020632117986679077
0.02440224587917328
0.017565449699759483
-0.025496147572994232
-0.02703048661351204
0.01103424746543169
-0.020352991297841072
-0.01071346178650856
-0.05419815331697464
-0.024997131898999214
-0.0073553416877985
-0.019721055403351784
-0.025059852749109268
-0.04212545230984688
-0.04336204752326012
-0.05016174167394638
-0.043980926275253296
0.010625040158629417
-0.0164676271378994
0.00023173321096692234
-0.0054969461634755135
-0.041418205946683884
0.009751815348863602
-0.0199313722550869
0.009392496198415756
0.008734818547964096
0.007898321375250816
-0.01790737546980381
-0.04660985618829727
0.011715005151927471
0.0009071042877621949
-0.0140115050598979
-0.02014283649623394
-0.04392632469534874
-0.04776162654161453
0.04812899976968765
-0.05557086691260338
-0.0215296670794487
-0.005725199356675148
-0.03265867382287979
0.028609570115804672
-0.03493526205420494
-0.008226469159126282
-0.031176505610346794
-0.002150034997612238
-0.0402226448059082
-0.04136056452989578
-0.02222934179008007
-0.04403870180249214
-0.010356709361076355
-0.026809625327587128
-0.04579790309071541
-0.027447842061519623
-0.02688712254166603
-0.051933400332927704
-0.031434059143066406
-0.021260781213641167
-0.04156015068292618
0.03369039297103882
-0.0006458423449657857
-0.001531255547888577
-0.022381842136383057
-0.03788623586297035
-0.007390235085040331
-0.04824431985616684
-0.020406227558851242
0.000355154974386096
-0.026431724429130554
-0.026652779430150986
-0.005817931145429611
-0.031047916039824486
0.0014232546091079712
-0.022469881922006607
0.03777584433555603
-0.02874995395541191
0.008685102686285973
-0.0368669219315052
-0.03280344977974892
-0.03097047284245491
0.02024276740849018
-0.023296412080526352
-0.04753421992063522
0.01143678929656744
-0.038774553686380386
-0.04904104024171829
-0.028855131939053535
0.0275151114910841
0.002408295404165983
-0.0239644106477499
-0.04493289813399315
-0.051952753216028214
-0.008552211336791515
-0.04985043779015541
0.04797966033220291
-0.0014010075246915221
0.015576068311929703
-0.03967856988310814
0.017763720825314522
-0.03730713576078415
-0.05110004171729088
0.04268909618258476
-0.0002219116286141798
0.04691040515899658
-0.03085450455546379
-0.005053754895925522
-0.02409026026725769
-0.0362967774271965
-0.03867983818054199
-0.04620504006743431
0.036750663071870804
-0.0044676391407847404
-0.022383926436305046
-0.017553800716996193
-0.021723806858062744
0.016996845602989197
-0.04462451860308647
-0.0341791957616806
-0.0451926663517952
-0.047347623854875565
-0.01839095912873745
0.02583094872534275
-0.03472128510475159
-0.02752208709716797
-0.0436660461127758
-0.04488695412874222
-0.03618188574910164
-0.02572507970035076
-0.03076632134616375
-0.004380017053335905
-0.023209942504763603
-0.037432048469781876
-0.021038463339209557
-0.0217934288084507
0.0059513975866138935
0.0072088162414729595
-0.013529643416404724
-0.02629183419048786
-0.035890448838472366
-0.039222683757543564
-0.015481367707252502
-0.02314409241080284
-0.0042143999598920345
-0.03253280371427536
-0.050961799919605255
-0.03641212731599808
-0.046515051275491714
-0.010375145822763443
-0.03432656452059746
-0.04384099319577217
0.01879103109240532
0.015747107565402985
0.0670108050107956
-0.04028188809752464
0.033069126307964325
0.0035911554004997015
-0.034461118280887604
-0.019010363146662712
-0.02373136393725872
-0.044204168021678925
-0.031334321945905685
-0.011828545480966568
0.05325658619403839
-0.043085187673568726
-0.020342687144875526
-0.03757728636264801
-0.007936717942357063
-0.03605608642101288
-0.046602874994277954
-0.046370938420295715
-0.01735248789191246
0.006805742625147104
-0.009785061702132225
0.004128718748688698
-0.012342777103185654
-0.034388020634651184
-0.026888016611337662
-0.037806715816259384
-0.012213073670864105
-0.028939085081219673
-0.032301828265190125
-0.0159009899944067
-0.024035247042775154
-0.0404697060585022
0.01838803105056286
-0.033636704087257385
0.05478942021727562
-0.03697793185710907
-0.030499467626214027
-0.04400135949254036
-0.03385254740715027
-0.041213925927877426
0.013676879927515984
-0.020602203905582428
0.01851080171763897
-0.03585919365286827
-0.022158335894346237
-0.022310465574264526
-0.0063888500444591045
-0.02330855466425419
-0.03567921370267868
-0.028954118490219116
0.006558168679475784
-0.017281174659729004
0.013956853188574314
-0.04115141183137894
0.06652809679508209
-0.033967990428209305
-0.031095122918486595
-0.009906847029924393
-0.03194302320480347
0.020938094705343246
-0.03322479873895645
0.034302134066820145
0.03597499430179596
-0.04322334751486778
-0.03414807468652725
-0.04820244386792183
-0.023847589269280434
-0.04097597301006317
0.010218262672424316
0.03524288535118103
-0.027089610695838928
-0.03424917906522751
0.05181955173611641
-0.016000306233763695
-0.023436058312654495
-0.02737223543226719
-0.032920680940151215
0.010450371541082859
-0.03407185524702072
-0.04469690099358559
-0.016993490979075432
-0.04492884874343872
-0.02855546772480011
-0.023652711883187294
-0.04620249569416046
-0.01280831266194582
0.0448404997587204
0.03524342551827431
0.019050108268857002
-0.037365928292274475
-0.04151075705885887
-0.023371752351522446
0.033033717423677444
0.03306115046143532
-0.03882874175906181
0.020051592960953712
-0.02628169022500515
0.03980594128370285
-0.04430084303021431
0.028884360566735268
-0.045369330793619156
-0.025737926363945007
-0.024280337616801262
-0.003272096626460552
-0.007984084077179432
-0.04298200085759163
-0.04864686354994774
-0.005430508404970169
-0.046822573989629745
0.03640357032418251
-0.00314918695949018
-0.020705804228782654
-0.007064560428261757
-0.0032233609817922115
-0.027119647711515427
-0.03026939183473587
-0.05043128877878189
-0.02357216738164425
-0.01280476525425911
-0.023485690355300903
-0.022087831050157547
-0.020328756421804428
-0.031669892370700836
0.034460801631212234
-0.024427110329270363
-0.019649241119623184
-0.04801707714796066
-0.03370991721749306
-0.03853567689657211
0.044530633836984634
-0.020390136167407036
0.02939555235207081
0.007042966317385435
-0.039002709090709686
-0.016028279438614845
-0.0341012217104435
-0.0386936254799366
-0.011802764609456062
-0.016519753262400627
-0.03746172413229942
0.0019979202188551426
-0.02181132137775421
-0.02204885147511959
-0.01956986077129841
-0.019644834101200104
-0.04235197976231575
-0.02201189287006855
0.030215606093406677
-0.031239135190844536
-0.039204299449920654
0.04385973513126373
-0.008699500001966953
0.043649543076753616
-0.04084126651287079
-0.013001436367630959
-0.05425301194190979
0.0433901883661747
-0.0401381179690361
-0.025376055389642715
-0.016909871250391006
-0.03435242176055908
-0.032687339931726456
0.025064639747142792
-0.03272330015897751
-0.03648192435503006
0.01854891888797283
0.006513426546007395
-0.02415246143937111
-0.02045418508350849
-0.03326084837317467
-0.010954631492495537
-0.014096255414187908
0.017764529213309288
0.049870844930410385
-0.018650053068995476
-0.0447118915617466
0.01460293773561716
-0.031172316521406174
-0.025339338928461075
-0.05085411295294762
-0.0018690834986045957
-0.054131291806697845
-0.04184969887137413
-0.017314530909061432
-0.03055291250348091
0.03965013474225998
-0.04902111738920212
0.005415058694779873
0.04061803221702576
-0.04300595074892044
-0.020844552665948868
0.012846947647631168
-0.03281020373106003
-0.018796253949403763
-0.03848892077803612
0.011726914905011654
-0.03084673546254635
-0.01139977015554905
-0.029535911977291107
-0.04385225102305412
-0.02315913327038288
-0.0028917803429067135
0.009902956895530224
-0.010529236868023872
-0.022939516231417656
-0.035798776894807816
-0.04874071851372719
-0.02873236872255802
0.047408174723386765
-0.041856225579977036
-0.03260742500424385
0.017102422192692757
-0.013336464762687683
-0.02292676642537117
0.01866038888692856
-0.033771075308322906
-0.027978049591183662
0.018214138224720955
0.012018662877380848
-0.052292563021183014
0.01863425225019455
-0.02766413427889347
-0.029648158699274063
0.026503093540668488
-0.04323287680745125
-0.022056816145777702
-0.04183422774076462
-0.03462720662355423
-0.030928516760468483
-0.021382758393883705
-0.026599502190947533
-0.039222173392772675
-0.022409813478589058
0.010752233676612377
-0.028572121635079384
-0.03787970170378685
0.008829212747514248
-0.006511281244456768
0.0010658431565389037
-0.01779172569513321
-0.02230319194495678
-0.032946109771728516
-0.0492452010512352
-0.04240531846880913
0.05769403278827667
-0.05002456158399582
0.017810754477977753
-0.030087672173976898
0.03540446236729622
-0.03772534802556038
-0.03495778515934944
-0.054093364626169205
-0.031613580882549286
-0.028897607699036598
0.014470081776380539
-0.02200452797114849
-0.043659500777721405
0.021912425756454468
-0.005941563285887241
-0.023885952308773994
-0.005910680629312992
0.03392622247338295
-0.012510102242231369
0.003365751588717103
0.00859038345515728
-0.05466608703136444
-0.02456430345773697
-0.04491489753127098
0.022976607084274292
-0.010292189195752144
-0.035028569400310516
-0.055341120809316635
0.005440310575067997
-0.042331304401159286
-0.011243090033531189
0.023549040779471397
-0.041939470916986465
-0.04370011389255524
-0.03120001032948494
-0.018591105937957764
-0.035493697971105576
-0.04516642540693283
-0.023183101788163185
0.005127244628965855
-0.023811297491192818
-0.0427810437977314
-0.032310813665390015
-0.016906028613448143
-0.01958070881664753
0.027227044105529785
-0.04600444808602333
-0.020964650437235832
0.006943830754607916
-0.01567613147199154
-0.02768421359360218
-0.022427864372730255
0.0016401258762925863
-0.024196945130825043
-0.012792187742888927
0.00032718086731620133
-0.03772890195250511
0.0011975099332630634
0.03270227462053299
0.043577224016189575
-0.04954561963677406
0.021142693236470222
-0.052323270589113235
-0.00017429498257115483
-0.031192762777209282
-0.01755671389400959
-0.008185066282749176
-0.03514749929308891
-0.038102276623249054
-0.040513914078474045
-0.03302117437124252
-0.024750232696533203
-0.015997551381587982
-0.034789666533470154
-0.036664530634880066
-0.013013322837650776
-0.04779300466179848
-0.024684622883796692
-0.024442153051495552
-0.03455622121691704
-0.03845647722482681
-0.01369232963770628
-0.02509884163737297
-0.042616624385118484
-0.03296324983239174
-0.02707482874393463
-0.05259241908788681
-0.012482105754315853
0.016834694892168045
-0.04312329739332199
-0.011649529449641705
-0.04570427164435387
0.005239215679466724
-0.02938268706202507
0.0074066296219825745
0.014739753678441048
-0.0037958703469485044
-0.016958696767687798
-0.04340400546789169
-0.028704531490802765
-0.03101491369307041
0.009528189897537231
-0.027091603726148605
-0.037957772612571716
-0.03849172219634056
-0.03152281045913696
-0.02621494233608246
-0.0028179679065942764
-0.008611372672021389
-0.019185978919267654
-0.0436888225376606
-0.02471759356558323
-0.04848311468958855
-0.04082203656435013
-0.04336761683225632
-0.02591881901025772
-0.01014700811356306
-0.03548841550946236
-0.04005245119333267
-0.03729916363954544
-0.03811733424663544
0.03213317692279816
-0.007786716800183058
0.017110692337155342
0.0037096505984663963
-0.032756950706243515
-0.037213172763586044
-0.044228944927453995
-0.04012133553624153
-0.04892674461007118
0.02152317948639393
-0.032113492488861084
-0.03978700563311577
-0.01413485687226057
-0.03194499760866165
0.02521475963294506
-0.036610718816518784
-0.002510418649762869
0.028260137885808945
-0.016858063638210297
-0.04721721261739731
-0.03735073283314705
-0.022473402321338654
0.012239708565175533
-0.010458612814545631
-0.026166990399360657
-0.01552205253392458
0.015541395172476768
-0.008002382703125477
-0.04244093969464302
0.029912907630205154
-0.006276702042669058
-0.00872387271374464
0.02137111686170101
0.04989185929298401
-0.019762994721531868
0.03717776760458946
-0.039594266563653946
-0.04287366941571236
-0.03172040730714798
0.017946939915418625
-0.046447109431028366
-0.025157060474157333
-0.024445723742246628
-0.017410418018698692
-0.038967832922935486
0.028911065310239792
-0.010357432067394257
-0.039521973580121994
-0.028423523530364037
-0.02043989486992359
-0.04821695014834404
-0.00041896055336110294
-0.025251565501093864
0.03216613084077835
-0.018951240926980972
-0.051048845052719116
-0.03354128077626228
-0.04369760677218437
0.027772674337029457
-0.03225879371166229
-0.01943938620388508
-0.018724918365478516
0.048164110630750656
-0.03871270641684532
-0.026599112898111343
0.034371547400951385
-0.014071493409574032
0.006230861414223909
-0.044366758316755295
0.007837806828320026
0.00925863441079855
-0.025612015277147293
-0.005504361819475889
-0.04019027575850487
0.017346644774079323
-0.04762503504753113
-0.0482526570558548
-0.02407938987016678
-0.019346442073583603
-0.03277365490794182
-0.009646031074225903
0.0026698100846260786
-0.03021705336868763
-0.02977920137345791
-0.007372419815510511
0.0010326956398785114
-0.008470585569739342
-0.03436591476202011
-0.020861005410552025
-0.016701649874448776
-0.033497173339128494
-0.04980113357305527
-0.030374979600310326
0.02729995734989643
-0.03157329559326172
-0.03960362449288368
-0.042797766625881195
-0.03368188440799713
-0.04374731332063675
-0.001153673860244453
-0.028199516236782074
-0.016619719564914703
-0.03529465198516846
-0.025821933522820473
-0.01366962119936943
-0.050672147423028946
0.01342726405709982
0.038500141352415085
-0.013551942072808743
-0.015913285315036774
-0.04259878024458885
-0.02011794224381447
0.03737263008952141
-0.04206350818276405
-0.03295346722006798
-0.026928074657917023
-0.04866991937160492
-0.018081124871969223
-0.05623485520482063
0.0305364727973938
-0.041747964918613434
-0.02585410326719284
-0.03319001570343971
-0.03371835872530937
-0.03346271440386772
-0.023274121806025505
0.029255460947752
-0.033691175282001495
-0.015210423618555069
-0.03094874881207943
-0.030051782727241516
-0.02589009702205658
0.02556079998612404
0.01329884771257639
0.005508719012141228
-0.037959132343530655
0.03894312307238579
-0.051713354885578156
-0.030658211559057236
-0.03779452294111252
-0.035347070544958115
-0.045420628041028976
-0.04773823544383049
-0.021922416985034943
0.022304290905594826
-0.00848239753395319
-0.05022069811820984
0.02915024384856224
-0.022713245823979378
0.0009238607017323375
-0.023228641599416733
-0.00031365107861347497
-0.04978263005614281
-0.036034729331731796
-0.030610118061304092
0.0019285748712718487
-0.015096130780875683
-0.019635755568742752
0.002489461563527584
-0.0020543464925140142
-0.01168628316372633
0.09406042844057083
-0.007849296554923058
-0.02702237479388714
-0.04509234055876732
-0.02886960282921791
-0.004479549825191498
-0.020335158333182335
-0.039560772478580475
-0.004888766445219517
-0.04520425945520401
-0.04563283175230026
-0.03703230619430542
0.027634592726826668
0.009292920120060444
-0.025036802515387535
-0.03597612679004669
-0.009741886518895626
-0.022795289754867554
-0.021677231416106224
0.012196230702102184
0.01605471596121788
-0.023215260356664658
0.05650170519948006
-0.012168187648057938
-0.03245045989751816
-0.030338499695062637
-0.029239730909466743
0.011555854231119156
-0.014798089861869812
-0.02884325198829174
0.022970572113990784
-0.025523334741592407
-0.05538715422153473
-0.007040643598884344
-0.035975754261016846
-0.022133124992251396
-0.00853460468351841
-0.005300122778862715
-0.019625354558229446
-0.017205936834216118
-0.02865620329976082
-0.02176053263247013
0.02422253228724003
-0.009109468199312687
0.01343413908034563
0.019210923463106155
-0.02710805833339691
-0.03411643207073212
-0.039867106825113297
-0.019078634679317474
0.042169734835624695
-0.02439771220088005
-0.03679124265909195
-0.02558937668800354
-0.04170453920960426
-0.017264235764741898
-0.025245938450098038
0.006497799884527922
-0.018266363069415092
0.00902810413390398
-0.010248756036162376
-0.019672129303216934
0.02321329154074192
-0.02948939800262451
-0.04175807908177376
-0.023366451263427734
0.018062936142086983
-0.020981306210160255
0.03486129641532898
-0.029427452012896538
-0.012359365820884705
-0.021763375028967857
0.00301759853027761
-0.0030138210859149694
-0.017222581431269646
-0.04411820322275162
-0.034969013184309006
-0.02375171147286892
-0.02217049151659012
-0.03654855489730835
-0.032445140182971954
-0.0015445186290889978
-0.02286974899470806
0.04422697797417641
-0.027000773698091507
0.01490889210253954
-0.023432139307260513
-0.019647572189569473
0.07178624719381332
-0.036087509244680405
-0.02221880480647087
-0.0215675737708807
0.031704872846603394
0.027652248740196228
0.03176867961883545
-0.018071595579385757
-0.05087136849761009
0.026308458298444748
-0.04835788533091545
-0.03639189898967743
-0.008716855198144913
-0.01976104825735092
0.006514373235404491
0.001942435628734529
-0.034106407314538956
0.031176531687378883
-0.04839214310050011
-0.03469860926270485
0.05237717181444168
-0.033495236188173294
-0.02749936282634735
-0.01927277259528637
-0.03743361681699753
-0.02785923145711422
0.03965384140610695
0.02513645775616169
-0.03265712037682533
-0.0510624423623085
0.024232471361756325
0.0212552472949028
-0.025719385594129562
-0.022807009518146515
0.048715367913246155
-0.04432236775755882
-0.02446848526597023
-0.022529633715748787
-0.031316231936216354
-0.038400664925575256
-0.04418603330850601
0.04353984445333481
-0.004136012867093086
-0.0029367529787123203
-0.01724754087626934
0.05791112780570984
-0.03304389491677284
0.017182497307658195
0.011873183771967888
0.03567398712038994
-0.03204444795846939
-0.01728200539946556
0.021986549720168114
-0.005249240901321173
-0.03044268488883972
-0.019437316805124283
0.02413705736398697
-0.030555633828043938
-0.0421866737306118
-0.021491175517439842
-0.015224897302687168
-0.03064219281077385
-0.025868935510516167
-0.01133818831294775
-0.03257802873849869
-0.002422040794044733
-0.010237418115139008
0.03269106522202492
-0.034719906747341156
-0.012067336589097977
-0.022392654791474342
0.027158062905073166
-0.006235354579985142
-0.044583145529031754
-0.0386299267411232
-0.04456419125199318
-0.024574099108576775
-0.04171917587518692
-0.03308005630970001
-0.05002075433731079
-0.03546915575861931
-0.004450405947864056
0.02546742744743824
-0.05237693339586258
-0.023624124005436897
-0.04750688746571541
-0.024733707308769226
0.042097028344869614
-0.03897650167346001
-0.024984996765851974
0.022262100130319595
-0.032456886023283005
-0.014362377114593983
-0.028331514447927475
-0.0476163886487484
-0.02127986215054989
-0.040720898658037186
-0.0198060292750597
-0.015209429897367954
0.00978385005146265
0.013289766386151314
-0.0463474839925766
-0.01836799643933773
-0.03561215102672577
-0.03933316469192505
-0.036275286227464676
-0.007329279091209173
-0.011044936254620552
-0.045515403151512146
-0.03456323593854904
0.0023708906956017017
-0.021761979907751083
-0.04936543107032776
-0.02490110695362091
-0.04461555927991867
-0.018729927018284798
-0.03580814599990845
-0.04644191637635231
-0.024450758472085
-0.04686209559440613
-0.024988025426864624
-0.024679036810994148
-0.013343590311706066
-0.04800058528780937
-0.05194856971502304
-0.0011590004432946444
-0.042043305933475494
0.031947262585163116
-0.022715197876095772
-0.03008839301764965
-0.03507481515407562
-0.004059475380927324
0.028131118044257164
-0.03768053278326988
-0.033100757747888565
-0.041959699243307114
-0.03471273183822632
-0.03362015634775162
-0.040665119886398315
-0.04155511036515236
-0.03818771243095398
-0.03693652153015137
-0.021017249673604965
-0.034095827490091324
0.0037737577222287655
-0.027319731190800667
0.027389241382479668
-0.00382172130048275
0.0008943123393692076
-0.01490094419568777
-0.0017058770172297955
-0.005426629912108183
0.022721147164702415
0.03138133883476257
-0.02657046541571617
-0.03457797318696976
-0.01680346392095089
-0.026438351720571518
-0.019141986966133118
-0.004021261818706989
-0.01961466670036316
0.02787609212100506
-0.024327920749783516
-0.027956504374742508
-0.03010767698287964
-0.006994604133069515
-0.007296605966985226
-0.04227037727832794
-0.035764116793870926
0.030876480042934418
-0.035977862775325775
-0.0009276536293327808
-0.023982658982276917
-0.030663494020700455
0.03437638282775879
-0.03634694218635559
-0.036643557250499725
-0.03533283993601799
-0.005075749009847641
-0.020078299567103386
-0.03865296393632889
-0.02393389120697975
-0.025064533576369286
-0.0491165965795517
-0.033681996166706085
-0.03174072876572609
0.002508782781660557
0.008969254791736603
-0.03125797584652901
-0.04307672381401062
-0.019092898815870285
-0.04116254672408104
-0.04304001107811928
-0.028300484642386436
-0.022853245958685875
-0.04638277739286423
-0.0382084883749485
-0.002953889314085245
-0.014484897255897522
-0.03026590496301651
-0.050466444343328476
-0.037476081401109695
-0.02733389288187027
0.013398505747318268
0.048077747225761414
-0.04048848897218704
-0.053317923098802567
-0.0024006811436265707
-0.028827723115682602
-0.04798242822289467
0.02240823023021221
-0.03558213263750076
-0.04026922956109047
0.00047582859406247735
0.02602051943540573
-0.03983375430107117
0.03748977929353714
-0.020823325961828232
0.019239185377955437
-0.03150064870715141
-0.02252916619181633
-0.042353350669145584
-0.007846184074878693
-0.05719095841050148
-0.009531073272228241
-0.034066811203956604
-0.048579469323158264
0.04655900597572327
-0.05261295661330223
-0.01809008978307247
-0.04864849895238876
-0.04450609162449837
0.009513924829661846
-0.05039169639348984
-0.05000724270939827
-0.023566653952002525
-0.024301297962665558
0.06434150040149689
-0.04386783391237259
-0.005687118507921696
-0.030102217569947243
-0.016305938363075256
-0.03673218935728073
-0.039361611008644104
-0.0429808609187603
-0.024607354775071144
0.03173275291919708
-0.035926323384046555
-0.05001836270093918
-0.016718873754143715
0.009317045100033283
-0.00011598622950259596
-0.036694593727588654
0.03691289946436882
-0.05314948782324791
-0.021662680432200432
-0.0366520956158638
-0.02481744810938835
0.004564950708299875
-0.015191417187452316
-0.01292468048632145
-0.007738924585282803
0.06703854352235794
-0.03224906697869301
-0.013980369083583355
-0.0353919081389904
-0.009204481728374958
-0.035729438066482544
-0.024504952132701874
-0.025646254420280457
-0.042964667081832886
-0.05206843465566635
-0.029484326019883156
0.009040651842951775
-0.03460247442126274
-0.0008241483010351658
-0.0021470128558576107
-0.01949279010295868
0.037227462977170944
-0.026928404346108437
-0.04291648417711258
-0.04469316825270653
-0.04462601616978645
0.052496038377285004
-0.020307529717683792
-0.018477346748113632
-0.02525993436574936
-0.024531187489628792
-0.031590547412633896
-0.024471929296851158
-0.05344066396355629
-0.00896759144961834
-0.032633211463689804
-0.02257796749472618
0.03013346530497074
-0.016038881614804268
-0.028826551511883736
-0.03972252085804939
-0.02694890834391117
-0.0022247203160077333
-0.002559891203418374
-0.009560687467455864
-0.0014675387647002935
-0.020875249058008194
-0.009006660431623459
0.014863106422126293
0.06664054095745087
-0.025431226938962936
-0.034814272075891495
0.0029901638627052307
0.011687231250107288
-0.03160664066672325
-0.0049082753248512745
-0.029903383925557137
0.04504205659031868
-0.025909423828125
-0.045512471348047256
-0.04316480830311775
-0.027810491621494293
-0.04002280533313751
-0.0521676279604435
0.007948107086122036
-0.03190001845359802
-0.03334389999508858
-0.025007382035255432
-0.024598751217126846
-0.03784705698490143
-0.0022186096757650375
-0.04699595272541046
-0.04029165580868721
-0.030730823054909706
0.02998223528265953
-0.033691927790641785
-0.02020711824297905
-0.013527518138289452
-0.014643045142292976
-0.0360061340034008
0.03363781049847603
0.03803017735481262
-0.05178477615118027
-0.025923600420355797
0.01202536839991808
-0.03451147302985191
-0.04293214902281761
-0.029633456841111183
-0.03375977277755737
-0.02841111458837986
-0.04656074568629265
-0.016169695183634758
-0.03341240435838699
-0.01629054732620716
0.018112778663635254
-0.02750425599515438
-0.027551554143428802
-0.016258539631962776
-0.0409729890525341
-0.02548210509121418
-0.034054793417453766
-0.031171968206763268
0.034305140376091
-0.029775850474834442
-0.04004574939608574
0.04979243874549866
-0.036867719143629074
-0.015453942120075226
-0.016150396317243576
-0.0219715666025877
-0.03965476527810097
-0.04512237012386322
-0.026305699720978737
-0.004109152592718601
-0.004786923062056303
-0.036045242100954056
-0.03270373493432999
-0.03204462304711342
-0.025115368887782097
-0.006537442561239004
-0.006880865432322025
-0.04064692556858063
-0.02941424958407879
0.02670956589281559
-9.947107173502445e-07
-0.020052503794431686
-0.03297014907002449
-0.03112497739493847
-0.05416750907897949
-0.037434451282024384
-0.020066162571310997
-0.03016873635351658
-0.03112625703215599
-0.03401969000697136
-0.015358122996985912
-0.03376908600330353
-0.044366952031850815
-0.012983382679522038
-0.029619533568620682
-0.045582253485918045
-0.02242041938006878
-0.011792396195232868
-0.02166343852877617
-0.03899829089641571
-0.03416473791003227
0.05189439281821251
-0.006962129846215248
-0.02880687639117241
-0.03883514553308487
0.054440390318632126
-0.023707110434770584
-0.03383559733629227
-0.0451899878680706
-0.011357288807630539
-0.03213893622159958
0.005633281543850899
-0.046453025192022324
-0.012353508733212948
0.05243777856230736
-0.04381956905126572
-0.040589138865470886
-0.023237699642777443
-0.01598462089896202
0.010610183700919151
-0.006582239177078009
-0.04130518436431885
0.004088021349161863
-0.03256982937455177
0.005047684535384178
-0.018065432086586952
-0.021475544199347496
-0.03499653935432434
0.0334150493144989
-0.04570743441581726
-0.03563271090388298
-0.0009579549659974873
-0.018972575664520264
-0.018690910190343857
-0.0075841136276721954
-0.022618019953370094
-0.016138823702931404
-0.026792392134666443
-0.04987131059169769
-0.01293194480240345
0.004126786254346371
-0.03542377054691315
-0.024804478511214256
0.025451622903347015
-0.029780583456158638
-0.007353310473263264
-0.040979668498039246
0.0010724877938628197
-0.006312691140919924
-0.03201168403029442
0.0010770802618935704
-0.014294723980128765
-0.03039151430130005
-0.024186357855796814
-0.04163021594285965
-0.03578084707260132
0.0018502749735489488
-0.04506036266684532
-0.04787614196538925
0.028209134936332703
-0.041288118809461594
0.015607733279466629
-0.041966941207647324
-0.04670725390315056
-0.02537088841199875
-0.030659878626465797
-0.031728100031614304
-0.043545134365558624
-0.03634550794959068
-0.046867549419403076
-0.04897313192486763
-0.03554634377360344
0.03284367546439171
-0.044709157198667526
-0.00674669211730361
0.05108804628252983
-0.01627565734088421
-0.012118730694055557
-0.014324568212032318
-0.007135759573429823
-0.024889599531888962
-0.04783205687999725
-0.011154632084071636
0.057717833667993546
-0.01742640510201454
0.01246536523103714
-0.00916488841176033
-0.04729093611240387
0.03338364139199257
-0.009983193129301071
-0.033091362565755844
-0.051647160202264786
0.0019205433782190084
-0.0015358878299593925
0.0018127779476344585
0.0019272641511633992
-2.6577759854262695e-05
-0.019910849630832672
0.0015206207754090428
0.0019185999408364296
0.0009293481707572937
0.00182543124537915
-0.001842910423874855
-0.001486790250055492
0.0009387214668095112
0.0013028752291575074
5.259091267362237e-06
0.0008075572550296783
-0.0018160975305363536
0.00157693971414119
0.00042645022040233016
0.0017967511666938663
0.0019192376639693975
-0.0007106336997821927
-2.440590105834417e-05
0.001810224261134863
-0.0016105225076898932
0.016860516741871834
-0.0010632281191647053
0.0016336325788870454
-0.0018359738169237971
0.0010553790489211679
0.0016097016632556915
0.0018693851307034492
-0.0015359098324552178
-0.0013340413570404053
3.415786341065541e-05
0.0014604519819840789
-0.00023812281142454594
-0.0008009322918951511
0.0014539125841110945
-0.00022586181876249611
-0.001300803734920919
-0.0018921650480479002
-0.0016715503297746181
-0.0012709058355540037
-0.0018362835980951786
-0.0010678593534976244
-0.0013237573439255357
1.3313001545611769e-05
0.001388969481922686
0.0016755377873778343
-0.0016486829845234752
-0.0001992099278140813
-0.0018640033667907119
-3.395957264729077e-06
-0.001819120836444199
-0.020533204078674316
-0.0014363875379785895
-0.0009833680232986808
0.014309708029031754
-0.0017264059279114008
-0.0006355312652885914
-0.0012787017039954662
0.001341713941656053
-0.0018318518996238708
0.0018270055297762156
3.2501889108971227e-06
-6.718960503349081e-05
-0.0010905038798227906
1.2478207281674258e-05
-2.5811617888393812e-05
-0.0018700624350458384
-4.018653726234334e-06
0.000457877031294629
0.00014021003153175116
-0.0018304144032299519
0.0019273117650300264
0.0006751189357601106
7.054943853290752e-05
0.0019205755088478327
-0.001891067367978394
0.012477363459765911
-0.0016553704626858234
0.0017382371006533504
-0.001919952337630093
-0.0008249437087215483
0.001056328066624701
-0.0017268232768401504
5.2100403991062194e-05
0.0018250078428536654
0.0012930824887007475
-0.0016225302824750543
0.0012837322428822517
-0.0009868419729173183
-0.0018998229643329978
-0.0014536773087456822
-0.0019097962649539113
-0.001912497915327549
-0.00014834653120487928
-6.826986646046862e-05
-0.0005902135162614286
-0.004040774889290333
-0.0010086104739457369
0.0013462197966873646
-3.1969830160960555e-07
0.0014875000342726707
0.0015265574911609292
0.0018377702217549086
0.0014233181718736887
-0.0012721320381388068
-0.0014573518419638276
0.0017737518064677715
-0.0016720511484891176
0.00047684856690466404
0.0017491938779130578
-4.6300541725941e-05
-0.003403132315725088
4.3800537241622806e-07
-0.0018903686432167888
0.00181960454210639
-0.0016541141085326672
0.00028208247385919094
0.001850381726399064
0.0019260188564658165
-0.0014029134763404727
0.0018188761314377189
2.646419125085231e-05
-0.0019224828574806452
0.00015853720833547413
-0.00029033509781584144
-0.00035390601260587573
0.0015574628487229347
-0.0013267890317365527
-0.0018906788900494576
-0.0014925956493243575
0.0018929967191070318
0.0017579980194568634
-0.0010527860140427947
0.0008113580988720059
1.6370537196053192e-05
0.001831614994443953
-0.000413852627389133
-1.9079743651673198e-06
-0.0018010475905612111
0.0001893109001684934
-2.6120156690012664e-05
0.0013873117277398705
0.0005219592130742967
0.0002843622933141887
-0.0007598577649332583
0.0009601929341442883
-0.021929632872343063
-4.7808098315726966e-06
-0.0014391751028597355
-0.0018322465475648642
0.001276516355574131
-0.0014138184487819672
0.00041666065226309
-0.0010720364516600966
2.2884374629938975e-05
0.0018836210947483778
-0.0011352134170010686
-8.283571514766663e-05
0.0002544076996855438
-0.0006211167201399803
-0.00126663560513407
1.0079116691485979e-05
-1.0379751529399073e-06
0.0009222240187227726
-0.00012349095777608454
0.0012746932916343212
-0.0007526700501330197
0.0012830730993300676
-0.0019227764569222927
-0.00048615015111863613
-0.0019197468645870686
-0.0017283050110563636
0.0019178643124178052
-0.0014663120964542031
-0.0014511510962620378
0.0019266449380666018
-0.001888754079118371
-0.0005492768250405788
-0.0005014073103666306
-0.0010810972889885306
-0.0008935582591220737
0.0016582260141149163
1.682521542534232e-05
-0.0008984887972474098
0.0016239916440099478
0.0015893400413915515
-0.0018781843828037381
0.001716938684694469
-1.9188810256309807e-06
0.0008637612918391824
0.0013032410060986876
0.0008010956225916743
-3.158983599860221e-05
-0.0015912152593955398
-0.0001053614541888237
0.0008437361684627831
-0.0019197146175429225
0.0018561567412689328
0.0005063680582679808
-0.0018533753463998437
-0.0011871900642290711
-0.0019247123273089528
-0.0017101229168474674
-0.0018170950934290886
0.0013633647467941046
-0.0012494598049670458
-0.001030005980283022
-0.00030358025105670094
0.0014501812402158976
-0.0010623156558722258
0.0017260131426155567
-0.0001765982888173312
-0.001665893360041082
-0.0018261088989675045
0.0005508364993147552
-0.0011811897857114673
-3.4774064261000603e-05
0.0019206803990527987
0.001419496489688754
0.001315205474384129
0.0013891319977119565
0.0018444100860506296
0.000498829991556704
-0.0019273494835942984
-0.0005319557385519147
0.001638202928006649
-0.0018043076852336526
-0.0017841584049165249
-0.0014056586660444736
-0.0012424620799720287
-0.0011183826718479395
-0.0011256678262725472
0.0019032558193430305
-2.515051164664328e-06
0.001792147639207542
-0.0013134797336533666
0.0017221270827576518
-0.001619765069335699
-0.0018973634578287601
-0.0015915526309981942
0.0019207707373425364
0.00023687881184741855
0.01263614185154438
-0.004531712271273136
-0.00149630568921566
0.0013782173627987504
-0.0018855645321309566
0.0017261117463931441
-0.0008878422668203712
3.483866748865694e-06
0.0014345005620270967
-0.0019117468036711216
0.0013477954780682921
0.0018360806861892343
-0.020338499918580055
-2.437013972667046e-05
0.0015673080924898386
-0.0010237368987873197
-0.0001361976464977488
-0.0017086215084418654
2.4411703634541482e-05
-0.0017534695798531175
0.00029286055359989405
-0.00032884840038605034
0.00034657848300412297
-0.0019244555151090026
-0.001856675953604281
0.0017587690381333232
0.0017249416559934616
0.0003108284727204591
0.001366399577818811
-0.0014200583100318909
-3.2993557397276163e-06
0.0018357033841311932
-0.0015259493375197053
0.017010897397994995
-0.00045722327195107937
-0.0013624613638967276
-0.0004987198626622558
0.0012513273395597935
-6.327118171611801e-05
-0.0010037448955699801
0.001791668706573546
-0.0014313918072730303
-0.0014898141380399466
-0.0016347425989806652
-0.0005429623415693641
-0.0013847847003489733
0.0004925645771436393
2.0741317712236196e-05
-0.0002025470312219113
0.0013936833711341023
0.0014790308196097612
0.0015407217433676124
2.7688885893439874e-05
-5.286691475703265e-07
-0.0005993250524625182
-0.00190647691488266
0.0013152119936421514
-0.00043534694123081863
-1.943491952260956e-05
0.0017074629431590438
5.9376943681854755e-06
-5.929235339863226e-05
0.0012539573945105076
-0.001732925302349031
0.012745769694447517
-0.0019268511096015573
-0.0003481652238406241
-0.0012860100250691175
0.0019268749747425318
0.0019192601321265101
0.00018649701087269932
0.001682398491539061
-0.0018928509671241045
-0.0018030715873464942
2.39581277128309e-06
0.0001773479743860662
-0.00017623654275666922
0.0016875369474291801
-0.0014171268558129668
-0.0015042286831885576
0.0016000563045963645
0.0017546429298818111
0.0018210691632702947
0.0018152177799493074
9.966755897039548e-06
-0.0013605256099253893
-0.0007568140863440931
-0.0018860494019463658
-2.379841862421017e-05
0.0009954707929864526
-0.0008911124896258116
-0.0016643841518089175
-0.0008317532483488321
-9.302958642365411e-05
0.0018913315143436193
-0.001483242609538138
8.221879397751763e-05
0.0017492544138804078
0.00041623017750680447
6.033566023688763e-06
0.000807355041615665
0.00037634288310073316
0.0016882644267752767
4.96570355608128e-05
0.0014620075235143304
2.5385892513440922e-05
0.00011692243424477056
0.001912189181894064
2.7791884349426255e-05
0.020543139427900314
0.0018684021197259426
0.000853110512252897
0.0018275119364261627
-0.0014259850140661001
0.0018084101611748338
0.00022715846716891974
-1.3288055924931541e-05
2.677641350601334e-05
-0.00021244857634883374
0.0009781994158402085
-4.880399501416832e-06
-0.0014166178880259395
0.001743318629451096
5.392690218286589e-05
-0.0014660065062344074
-2.601626329123974e-05
-0.00043254561023786664
-0.0018879905110225081
-0.0002716357121244073
-0.0014827699633315206
-0.000993448426015675
0.0018937207059934735
-0.001814300543628633
0.00023137714015319943
-0.0012683685636147857
-0.009687141515314579
-8.82755484781228e-05
0.01269664615392685
0.0019200998358428478
-0.0010049274424090981
8.077285747276619e-05
0.0015545475762337446
-0.02177564986050129
-0.0005803624517284334
-0.020129753276705742
9.134647552855313e-05
-0.001665420364588499
-0.018799910321831703
0.0012810006737709045
0.0014517605304718018
-0.0017533943755552173
-0.0007458432810381055
0.0010080259526148438
-0.00017093583301175386
0.001846137223765254
0.0014940977562218904
-1.7679079974186607e-05
-0.0014009409351274371
-0.001528321416117251
0.0019259147811681032
0.0009825932793319225
0.00031917047454044223
-2.7254958695266396e-05
0.0007955272449180484
0.0018885779427364469
-0.018449710682034492
-0.0014773374423384666
0.001379787689074874
-0.0014874697662889957
-0.0018318028887733817
-4.142159741604701e-05
-0.0008897726074792445
0.0015488460194319487
-0.0017607584595680237
-4.9080513235821854e-06
-0.001530938781797886
0.000797830056399107
-0.0018054574029520154
0.0018851885106414557
-0.0018057140987366438
-0.0017859613290056586
-0.0018830668414011598
0.0019059674814343452
0.0014412965392693877
0.0019104387611150742
0.0018562956247478724
2.766478428384289e-05
0.0016729607013985515
0.0010522102238610387
0.0016350331716239452
-0.001690675737336278
0.0019268643809482455
2.756534013315104e-05
0.013475975953042507
-0.0013161918614059687
-0.0005309627740643919
0.0011063097044825554
0.0014936133520677686
0.0012752938782796264
-0.0018925952026620507
0.0019109474960714579
0.001036717789247632
0.0010355297708883882
-2.6968093152390793e-05
0.0014466659631580114
-0.0017945856088772416
-0.00012029555364279076
0.0010183063568547368
-0.0015830331249162555
5.801171937491745e-06
-0.0015251652803272009
0.00016606898861937225
-0.0012746212305501103
0.001751239295117557
0.00030884300940670073
-0.0019223315175622702
0.001522572129033506
0.00040246351272799075
-0.01531248539686203
-2.6956304282066412e-05
-0.00037531167617999017
0.0012152934214100242
0.0013262166175991297
-0.0018999199382960796
-0.0012646247632801533
0.0009393001673743129
-0.0019259931286796927
0.0017767352983355522
-0.0019272805657237768
0.0013318912824615836
-0.0011582127772271633
-0.0019232648191973567
0.00191445741802454
-0.001926787430420518
0.0003994464932475239
-0.0018768240697681904
2.4029435735428706e-05
-0.001689655240625143
0.0018890576902776957
-0.0005906529841013253
-0.001725166104733944
-0.021107157692313194
-0.0011738918256014585
0.00041958759538829327
0.0013815364800393581
0.001917676767334342
-0.0016502761282026768
-2.7274718377157114e-05
0.0018192207207903266
-0.001734865247271955
-0.0011598339769989252
0.0017449078150093555
0.0019271053606644273
0.0012621594360098243
0.001604718156158924
0.0019250796176493168
0.0004964560503140092
0.0014354559825733304
0.012477686628699303
-0.0017908008303493261
2.7770434826379642e-05
-0.0016735370736569166
-2.6328494641347788e-05
-0.0016992957098409534
-0.0018589291721582413
-5.785933171864599e-05
2.7010681151296012e-05
0.0015568037051707506
0.0017555886879563332
0.0004222602292429656
0.0019134238827973604
-0.0007480218773707747
0.0005756800528615713
2.4027911422308534e-05
-0.01731361262500286
-1.910030550789088e-05
0.0018706123810261488
0.001476496341638267
-0.0006860918365418911
0.0018444218439981341
-0.00010401582403574139
0.0014430297305807471
-0.0019268464529886842
-0.020624125376343727
0.0006913963588885963
-7.728624041192234e-05
-8.953215001383796e-06
0.0004461725475266576
-5.8522266044747084e-05
-0.001115647261030972
-0.0014197699492797256
0.0015132444677874446
-0.0018672060687094927
-0.001901021460071206
-0.0013298285193741322
-0.0017120420234277844
-0.000429628329584375
-0.0008678124286234379
0.0016557087656110525
0.0007644265424460173
0.0018534293631091714
0.0018805299187079072
0.0018970982637256384
-2.302420762134716e-05
-0.0011368845589458942
-0.00012277549831196666
0.00013459607725962996
0.0018933750689029694
0.000639530539046973
-0.0019148550927639008
2.792789018712938e-06
0.00048387073911726475
-0.0019037970341742039
0.0018398640677332878
-0.001913449726998806
0.0008216702844947577
-0.0016943211667239666
-0.0005807786947116256
0.0014726179651916027
-4.026827809866518e-06
-3.220602229703218e-05
0.0013181880349293351
-0.0018851038767024875
0.0009364028228446841
0.0013939733617007732
-1.337810044788057e-05
-0.0002133134548785165
9.051858796738088e-06
-0.0014440079685300589
-9.062358003575355e-06
-0.020084323361516
0.0019081581849604845
-0.0019056492019444704
-0.0017663807375356555
-2.739205774560105e-05
-0.0011960039846599102
-0.0015548865776509047
-1.3034805306233466e-05
-0.0015224519884213805
-0.0014628171920776367
0.0014468284789472818
0.0016291365027427673
0.0015721332747489214
0.018122464418411255
0.0016396408900618553
-0.0017224580515176058
0.0017314242431893945
-0.0004180727992206812
-0.0012277718633413315
-0.00041067309211939573
-0.019795125350356102
0.0017798030748963356
0.0019109166460111737
0.0015399194089695811
6.799805123591796e-05
0.0008005388081073761
-0.0010891688289120793
-0.0019252118654549122
-0.0018205533269792795
-0.0010283723240718246
-0.0016003355849534273
0.001643410068936646
0.0010967142879962921
-0.0017481808317825198
-0.0006551583646796644
-0.0015549990348517895
-2.915759523602901e-06
0.001825355226173997
0.00016495016461703926
-0.0018801615806296468
-0.0018931576050817966
0.0012763873673975468
-0.001539986813440919
-6.682076673314441e-06
0.001731967437081039
-0.001086653326638043
0.0015371497720479965
-0.001403327682055533
-0.0019271846394985914
-0.0018850188935175538
-0.0019149541622027755
-0.001123403781093657
-0.0019232920603826642
-0.0004233660292811692
0.0018472133670002222
-0.0015422372380271554
6.228006532182917e-05
-0.0003000610740855336
0.0012454392854124308
-0.020687706768512726
-0.0013545884285122156
-0.0012941109016537666
-0.0019217072986066341
0.0017004890833050013
-0.001628017402254045
-2.3513093765359372e-05
0.0019270965130999684
1.2446427717804909e-05
0.0015423039440065622
0.018783509731292725
-0.001171395881101489
-0.0017966707237064838
-0.0018725675763562322
0.001772126997821033
-0.0017230106750503182
-0.0014601789880543947
-0.0016079088672995567
0.0012515123235061765
-0.0019196817884221673
-0.0018266963306814432
0.0004690776695497334
0.01637953519821167
0.0015046622138470411
0.0008705869549885392
0.0018356165383011103
-9.478116407990456e-05
0.0005617074202746153
0.0019261990673840046
0.0018365783616900444
0.001697767642326653
-0.0016800856683403254
-0.00018575205467641354
0.0019155703485012054
-0.0017833352321758866
-0.0015775416977703571
0.0005674291751347482
0.0016238574171438813
-0.0018643123330548406
-0.015030564740300179
-0.00021969201043248177
-0.0018303320975974202
2.553570084273815e-05
-0.0017321263439953327
0.0019168902654200792
-3.58483657691977e-06
-5.994085950078443e-05
-0.001552375964820385
0.0018263624515384436
0.0016265036538243294
0.0014011869207024574
-0.001520833931863308
0.0014391931472346187
0.0017221689922735095
3.368712350493297e-05
-0.018269948661327362
0.0018574359128251672
-9.201397188007832e-05
0.0019207068253308535
-0.0016437297454103827
0.0006727076251991093
-0.0010348883224651217
0.0015698428032919765
-0.0019246438750997186
-2.055049299087841e-05
-0.001699398853816092
0.0019268251489847898
-0.0017973550129681826
-0.0019232671475037932
-0.020926831290125847
-1.1321524652885273e-05
-0.0018143177730962634
-0.0018357072258368134
-0.001670579076744616
0.0014030742458999157
0.001022640150040388
-0.02088628150522709
-2.357894481974654e-05
-0.022513849660754204
-0.0019242670387029648
0.00037064217031002045
-0.0019197867950424552
-0.019134169444441795
-0.0017719694878906012
0.0017569651827216148
-2.7786256396211684e-05
0.001922863768413663
-0.0017649023793637753
0.00015042259474284947
-0.0019261578563600779
-0.001524999737739563
-0.0011643243487924337
0.0018594388384371996
0.001541084609925747
0.001405848190188408
2.6144844014197588e-05
0.0008272352861240506
-0.0011811027070507407
-0.001138203893788159
-0.0003844469028990716
0.0003107561497017741
-0.017194494605064392
-0.0003690796729642898
0.0007734842947684228
2.41563466261141e-05
6.980029866099358e-06
0.0003631885629147291
-0.001542719081044197
-1.2649230484385043e-05
0.0017366340616717935
0.0003953831037506461
0.0009954010602086782
0.0013630451867356896
0.0018752627074718475
-0.0017200898146256804
0.0012264418182894588
0.001642613555304706
-0.0017876352649182081
0.0009339959360659122
-5.3263702284311876e-06
-0.0001151450487668626
-0.0008913665660656989
0.0018982189940288663
0.0018074826803058386
-3.8362195482477546e-06
0.0014515008078888059
2.891456097131595e-05
-1.8531925888964906e-05
0.0017464689444750547
-0.00159878795966506
3.2678377465344965e-05
-0.02002970688045025
-0.0003015535185113549
-0.00011248317605350167
-1.406175215379335e-05
0.001514424104243517
-0.0016950607532635331
0.0004098866484127939
0.0018627141835168004
-0.00023261232126969844
0.0018409969052299857
-0.0012373659992590547
0.00016881540068425238
-0.0019268402829766273
-0.00020732256234623492
0.0005862201796844602
0.0018234228482469916
-0.0016015397850424051
-0.0011201088782399893
-0.0012150362599641085
0.00029137765523046255
0.017489934340119362
1.76782559719868e-05
0.00048675682046450675
0.01677069440484047
-0.0007524724351242185
-0.0017944712890312076
-0.0016995822079479694
0.0007273206138052046
0.0019176396308466792
0.0019158405484631658
0.0005337021430023015
-0.0001482863153796643
-0.001926848548464477
-7.900546916062012e-05
-0.0018549590604379773
-0.019114317372441292
0.0019251219928264618
2.7409583708504215e-05
0.0016488070832565427
0.0013828857336193323
-0.001432840246707201
0.0017883020918816328
0.00027190352557227015
0.0019214588683098555
-0.0001768828951753676
-0.01933198980987072
0.00150724733248353
-0.0017868786817416549
0.0010134750045835972
0.00015582930063828826
-0.001532220165245235
0.001541014527902007
-0.001830075983889401
0.0006972227711230516
-2.3011529265204445e-05
0.0014460703823715448
-9.892466550809331e-06
4.082120722159743e-05
-0.00025789946084842086
0.0017418945208191872
0.0018225574167445302
0.0019052251009270549
9.945193596649915e-05
0.001619034563191235
-0.00019475806038826704
-0.0001132741235778667
0.0014463509432971478
0.001317925052717328
-0.0017208268400281668
-0.0010564965195953846
2.6219189749099314e-05
-0.001916817156597972
-7.746772462269291e-05
0.001869221800006926
0.00023997353855520487
0.001657524611800909
0.0009668005513958633
0.0013043282087892294
0.001794413197785616
-0.0013024081708863378
0.0010751818772405386
2.6752037229016423e-05
0.0009536240831948817
0.0019240023102611303
7.472888682968915e-05
-0.0016397866420447826
0.001196027733385563
-0.0018154974095523357
0.0004774507833644748
2.6450703444425017e-05
0.0012288361322134733
-0.0013119817012920976
0.0015460564754903316
0.0016292385989800096
0.0016765304608270526
0.0004575137863866985
-0.0005829498986713588
-0.001873754314146936
-0.001907232217490673
0.0018592780688777566
0.0012519534211605787
0.00019285804592072964
-0.000534554070327431
0.0015697366325184703
-0.0019000067841261625
-0.001484674634411931
-0.000930567504838109
-0.005241053178906441
0.001925669377669692
0.0014171218499541283
0.001378938090056181
-0.0019270903430879116
0.0013819551095366478
0.012041541747748852
-0.00037386646727100015
-0.0019114260794594884
0.0014025925192981958
-0.0019015988800674677
0.0019098797347396612
-0.0019249377073720098
-0.0016308994963765144
-0.0016364293405786157
0.0018027458572760224
-0.0013063123915344477
0.0003948627272620797
0.0019273152574896812
-0.0017840322107076645
0.001685295021161437
-0.0017312803538516164
-1.1728741810657084e-05
0.0014521564589813352
-0.0014910479076206684
-0.0019151156302541494
0.0005731650162488222
-0.001760462298989296
-0.0016229420434683561
-0.020058581605553627
-2.5765619284356944e-05
0.0017923763953149319
-0.0015163307543843985
0.0018987979274243116
-0.0019265649607405066
-0.0038890657015144825
-0.0018888884223997593
-0.0019238220993429422
-9.447207412449643e-05
-0.0016834426205605268
-0.0005284710205160081
1.596944457560312e-05
0.0016216578660532832
-0.006458955816924572
-0.0015869156923145056
-6.777145608793944e-05
-0.001923335250467062
9.079019946511835e-06
-4.3929081584792584e-05
-0.001466651912778616
1.8015933164861053e-05
-2.1061161532998085e-05
0.0007251495844684541
0.00040772202191874385
-0.0017146386671811342
0.0016566554550081491
0.0015678841155022383
-0.00014310984988696873
0.000640040379948914
-0.00025113392621278763
0.0018839308759197593
-0.003996129147708416
0.0019273017533123493
-0.019641898572444916
0.0010463133221492171
0.001849134685471654
-0.001816402655094862
-0.0005650318926200271
-0.017194394022226334
-0.00153410155326128
2.9666181944776326e-05
-0.0018524029292166233
0.0017469844315201044
0.0017937724478542805
0.0018272694433107972
-0.00030567299108952284
-0.0019183824770152569
0.001859139883890748
-0.0007357960566878319
-0.0019089470151811838
4.233079380355775e-06
-2.5626188289606944e-05
0.001248296583071351
-0.0008699718746356666
0.000983265577815473
0.0007834714488126338
0.0019128466956317425
-0.001661204150877893
-0.0004907308029942214
-0.0003789446782320738
-0.0001839197357185185
-0.015601331368088722
0.0018134437268599868
0.0010614768834784627
-4.5024768041912466e-05
0.0013358748983591795
-0.0010807898361235857
-0.0018333930056542158
-0.001807316904887557
0.0019154602196067572
0.00045454426435753703
0.0016619703965261579
0.0019267636816948652
-0.0019192354520782828
0.0018168541137129068
-0.0008980645216070116
-0.0015351834008470178
0.010897546075284481
3.2099524105433375e-06
-0.001875539543107152
0.0004738436546176672
7.367321813944727e-05
-0.0019021398620679975
1.4524837752105668e-05
0.0012655382743105292
-0.00048502854770049453
2.3254656298377085e-06
0.000711705768480897
-0.0006271152524277568
-0.0006316614453680813
-0.0014765489613637328
-0.00028312081121839583
-0.0016572840977460146
0.001921013928949833
0.012788821011781693
-0.0012406898895278573
0.0013209868920966983
0.015356394462287426
0.01271407026797533
2.4557077267672867e-05
-0.0019054532749578357
-0.0015743511030450463
-0.0018977043218910694
0.0018570239190012217
0.012057875283062458
-0.0014541049022227526
-0.0016451622359454632
3.9806924178265035e-05
-0.0018593992572277784
0.0014939141692593694
-0.0017851723823696375
0.0019094736780971289
-0.0011961859418079257
-0.0009639240452088416
-0.001163658918812871
-0.001916716224513948
-0.0018773237243294716
-0.001320457085967064
-0.0019270494813099504
-0.001478163874708116
0.00014757836470380425
0.0014525845181196928
0.0018051158403977752
0.0015886960318312049
-0.0017916695214807987
2.7593076083576307e-05
-0.0018330945167690516
0.000937598932068795
0.0007371027022600174
2.6092649932252243e-05
-0.0013202629052102566
0.0018805786967277527
0.0012985155917704105
0.010719439946115017
0.0013810393866151571
2.6061861717607826e-05
-0.0010581209789961576
2.5919460313161835e-05
-0.0013734502717852592
0.0017868704162538052
-5.491366027854383e-05
-0.00033054527011699975
8.608504685980733e-06
0.015587163157761097
-0.00191754219122231
0.0016794265247881413
-2.064989530481398e-05
0.00010881552589125931
-0.0019117386545985937
0.0016909585101529956
-0.0009594992734491825
-0.0018876012181863189
-0.00011434911721153185
0.0003496230929158628
0.0015566209331154823
0.0017259197775274515
-0.0006064922781661153
-0.0018977640429511666
0.0014924869174137712
-0.001894560526125133
0.0018753391923382878
0.0014570917701348662
0.000980254728347063
0.001922439900226891
-0.0016060741618275642
1.4327179087558761e-05
-0.001925759599544108
0.0013231536140665412
-0.0016201268881559372
0.001539579126983881
-0.0018429970368742943
-0.0014874209882691503
0.0015373455826193094
0.0019265066366642714
-0.02120470441877842
-0.0019239672692492604
-0.0019145486876368523
-8.91081799636595e-05
0.0018907295307144523
-8.98811558727175e-05
-0.0013063305523246527
0.0019138744100928307
0.00011528599861776456
0.0011189098004251719
0.0019144373945891857
0.0007231272174976766
0.0008195760892704129
-0.0008245124481618404
0.0013018404133617878
-7.815977005520836e-05
0.0018868003971874714
-1.228193286806345e-05
-0.0017489350866526365
0.0015891275834292173
0.0014924600254744291
-0.0019241146510466933
0.0012552834814414382
1.9105109458905645e-05
0.0017498459201306105
-0.0002969506604131311
0.0016949010314419866
0.0019103619270026684
0.011065722443163395
0.01268166583031416
-0.004534194245934486
-0.0016698525287210941
-0.0019270129268988967
-0.00121358223259449
-0.0006638916675001383
7.134585757739842e-07
-0.0018287970451638103
0.0018850804772228003
0.0013126330450177193
-0.0006768453167751431
0.00016070311539806426
0.0015428948681801558
0.0017369987908750772
0.0017200177535414696
0.0017420382937416434
0.0006706942804157734
0.0018544321646913886
0.0018276970367878675
-0.0018478244310244918
-9.939916708390228e-06
0.0019235059153288603
0.0019083793740719557
0.0017685166094452143
6.551360456796829e-06
0.00047595438081771135
-0.0017708959057927132
-0.0013893421273678541
-2.2502279534819536e-05
-0.0018920578295364976
0.0009856323013082147
0.0017840048531070352
-0.0001421156048309058
0.0012765504652634263
0.0018568899249657989
0.0002960318233817816
0.001772352959960699
2.1158670278964564e-05
0.001717329490929842
0.00048796902410686016
-2.779609349090606e-05
-0.0018900604918599129
-0.0019272235222160816
0.0019063035724684596
-2.5957597244996578e-05
-0.0008737964672036469
0.0018405199516564608
0.0004320094594731927
-0.0017049876041710377
-0.0004720972792711109
0.0005640339804813266
-5.0766866479534656e-05
-0.0015717442147433758
0.0007623957935720682
-0.0017083350103348494
-2.7379472157917917e-05
0.0017646047053858638
0.0014432074967771769
-0.0015764738200232387
0.0018479975406080484
0.0017703535268083215
0.001833145273849368
0.014216766692698002
-3.150054544676095e-05
2.0705771021312103e-05
-0.001259836833924055
-0.0019093099981546402
0.0019257718231528997
0.0004321453452575952
-0.0015999183524399996
-0.000840761698782444
-0.00020212009258102626
0.001331905135884881
-0.0019049197435379028
-0.001911840634420514
-0.00012179777695564553
0.0018589840037748218
-0.0008600186556577682
2.2764499590266496e-05
0.0018113700207322836
-0.0014540834818035364
0.001521990867331624
0.018548686057329178
0.0019154137698933482
0.0019227125449106097
0.001232497626915574
-4.6359418774954975e-06
-3.125327202724293e-05
-0.0015488199423998594
-0.0014910021563991904
2.411312198091764e-05
2.2424601411330514e-05
-0.0008972075884230435
0.0006320275133475661
-0.0018022770527750254
-0.0015445738099515438
0.0015754248015582561
-9.097676957026124e-05
-0.001902993768453598
0.001927221892401576
-0.001861024065874517
0.0013029288966208696
-0.0019273424986749887
-0.0014045770512893796
0.0019258946413174272
0.0017535550286993384
0.0012411305215209723
-0.00015757986693643034
-0.0017835807520896196
0.0017440139781683683
-0.0018889105413109064
-0.0018740398809313774
-0.0019273029174655676
0.0015480293659493327
-0.0019184090197086334
-0.0019249334000051022
-0.0017529608448967338
-0.0012775708455592394
8.786504622548819e-05
0.0018650756683200598
7.609749445691705e-05
-0.001329727005213499
0.0004750807420350611
-0.0007037183968350291
-0.000750263046938926
0.0010571189923211932
-1.4362842193804681e-05
0.000989478430710733
0.0002324522502021864
1.1258725862717256e-05
-0.0017175695393234491
-0.001362337963655591
0.0017744492506608367
-0.0014625941403210163
0.0008480139658786356
-0.0012396834790706635
0.0016666203737258911
-0.0004101319354958832
0.0006503212498500943
-0.0018763791304081678
0.0018600281327962875
0.0001465597888454795
-0.0018547425279393792
2.9182723665144295e-05
-0.00041104480624198914
1.3889784895582125e-05
-0.0019261487759649754
-0.0015986653743311763
-0.0010974343167617917
-0.0014281709445640445
-0.0010204771533608437
-0.0007415327709168196
0.0018400108674541116
-0.00039887570892460644
0.0014295524451881647
-0.0015567353693768382
0.00019543536473065615
0.0016790420049801469
-0.0013858918100595474
-0.0012558404123410583
-2.7587710064835846e-05
0.001923654694110155
0.00031047611264511943
-0.0015275889309123158
-0.0010179196251556277
-0.001357266097329557
-0.0013912515714764595
0.0005027635488659143
-3.4872384276241064e-05
0.0010965296532958746
0.0016117726918309927
-4.093052848475054e-05
0.012665409594774246
0.0007804458728060126
0.001623641699552536
-0.001127777504734695
0.0017483843257650733
0.001812382135540247
-0.001885817851871252
-0.0018340606475248933
-0.0005793235613964498
0.0019266499439254403
0.0006957533769309521
-0.017129508778452873
-0.0018353492487221956
-0.0018506960477679968
0.001173892873339355
0.0009874609531834722
-5.704329669242725e-05
0.001918914495036006
0.001305315294303
0.0018780402606353164
-0.0015902640298008919
0.00016649052849970758
-0.0014922090340405703
0.0018974031554535031
-0.00151464669033885
0.000468272075522691
0.0014129168121144176
-0.0013858722522854805
0.00048683828208595514
-0.001821360900066793
-0.005305823404341936
-5.559991404879838e-05
-0.0004484546952880919
-0.0018267204286530614
0.00012313222396187484
-0.0013367407955229282
0.0012219160562381148
-0.0019213116029277444
-0.019555149599909782
-8.990438800537959e-06
0.010984792374074459
-4.022773646283895e-05
-0.0015315351774916053
-0.001338666770607233
-0.001614901120774448
-0.001876192749477923
-0.0015295459888875484
2.086869062623009e-05
0.00053458905313164
0.001377239590510726
0.0017891502939164639
0.0014543008292093873
0.0017664047190919518
0.0008878102526068687
0.001542991609312594
-0.0019272693898528814
-0.0003735965583473444
-0.0018425739835947752
0.001777885714545846
-1.503265775681939e-05
-0.0005947071476839483
0.0017913724295794964
0.0002560081775300205
-0.015592368319630623
0.0018063418101519346
0.0009984346106648445
0.00010365384514443576
0.0017246796051040292
-2.650643727974966e-05
0.0016315678367391229
-0.0015637115575373173
0.0017121608834713697
-0.0018381901318207383
-0.0015775441424921155
-0.00038785976357758045
0.0015728817088529468
0.0019268422620370984
-0.0207477156072855
0.0017445031553506851
-0.00020970558398403227
-0.001391363563016057
0.001775661832652986
7.355511479545385e-05
0.0018356669461354613
0.0018210719572380185
0.0016079593915492296
-1.4846926205791533e-05
8.340832209796645e-06
-0.0019017483573406935
-0.0018297034548595548
-6.13293059359421e-06
-0.001258731703273952
-0.0018567165825515985
-0.00011905920109711587
0.0008177063427865505
0.00191690179053694
0.00017142368596978486
1.4049524907022715e-05
0.001918410649523139
3.0232193239498883e-05
0.0018724839901551604
-0.001850408618338406
0.0009013601811602712
0.0018427951727062464
0.016426390036940575
1.4843230019323528e-05
-0.0013797564897686243
0.0011263915803283453
0.0008541647111997008
-0.0006679225480183959
0.0014951415359973907
-2.0098746972507797e-05
0.0015523142646998167
0.0018672231817618012
-0.0017143737059086561
-0.001645876094698906
-0.0016256701201200485
-0.0019244598224759102
-0.0009063976467587054
-0.0008384622633457184
0.0019218603847548366
-0.00078070122981444
0.0019001152832061052
0.0019268569303676486
0.0018869586056098342
1.9861734472215176e-05
-4.4232212530914694e-05
0.0019273508805781603
-0.0012982242042198777
0.000705123005900532
0.0019267123425379395
0.000625742832198739
0.001316118286922574
0.0018596325535327196
0.0018969698576256633
-0.00024545867927372456
-0.0002016114885918796
-0.0007261972059495747
3.821127756964415e-05
-0.0019200454698875546
-0.0004087728448212147
0.0013216646621003747
0.00020054553169757128
-5.8517587604001164e-05
-0.00019446582882665098
0.0017720689065754414
-6.0851190937682986e-05
0.0009132238337770104
-2.68115836661309e-05
0.0017367800464853644
2.3402084480039775e-05
0.0007895954768173397
-0.0019256644882261753
2.743130607996136e-05
0.0008570322534069419
-0.0013285634340718389
0.001888998318463564
0.001375052030198276
0.0003065502387471497
-2.4700992071302608e-05
-0.0011749350233003497
-0.0013093182351440191
0.0016870734980329871
1.5458201232831925e-05
0.0004056490142829716
0.00018609427206683904
-0.001919431728310883
0.0014749451074749231
-0.001683429116383195
-0.0006799515685997903
0.0008738871547393501
-4.108552820980549e-05
-0.0010506215039640665
-0.0008649870287626982
-2.5182918761856854e-05
-0.00012018261622870341
0.001786000095307827
0.00150867342017591
-0.0015051630325615406
-0.001736001344397664
0.0016688946634531021
-2.061673512798734e-05
0.00018843545694835484
-0.0005041449330747128
-2.735772795858793e-05
0.0010670534102246165
-0.0013218296226114035
-0.001633567619137466
-0.0019265827722847462
-0.0017864690162241459
0.00025114876916632056
9.71205736277625e-06
-0.0016335733234882355
0.00024826318258419633
-0.0013559912331402302
-0.00116110616363585
0.015261329710483551
0.001331646228209138
0.0005987207987345755
0.00030766247073188424
0.001820670091547072
-0.0016611369792371988
0.01670108735561371
0.0012812870554625988
-0.009199938736855984
-0.0006223106174729764
-0.001774949487298727
0.0011689058737829328
-0.0017497556982561946
-0.00023097044322639704
0.0012156119337305427
0.00017233172548003495
2.2912572603672743e-05
0.000426257262006402
-0.0001628060854272917
0.0013425744837149978
0.001047475845552981
0.0012420107377693057
-0.0017369852866977453
0.0019156326306983829
0.0019231414189562201
-0.0008421152015216649
-0.0019214885542169213
0.0008338220650330186
0.0018424830632284284
-0.0013294569216668606
0.0006703282706439495
-0.00020470807794481516
0.0019017165759578347
0.001921917893923819
-9.45163264987059e-05
0.0018809093162417412
-0.000627974106464535
-0.0001615292567294091
-0.0008631424279883504
-0.0002995767572429031
2.776455585262738e-05
-0.0013339495053514838
0.0019200292881578207
5.5791460908949375e-06
0.0012664685491472483
0.001907536992803216
-0.0017460627714172006
-0.004443719983100891
0.013095997273921967
-0.0017976876115426421
0.0019240019610151649
0.0017151468200609088
0.001701694680377841
-0.0013119878713041544
0.0017594542587175965
-0.0016434488352388144
0.0019128010608255863
0.0011969845509156585
0.001784841762855649
-0.0019272591453045607
0.0009569920366629958
0.0019093150040134788
