0.009481437504291534
-0.015440762974321842
-0.010075626894831657
-0.0036846594884991646
0.0048270877450704575
-0.011107709258794785
0.013421550393104553
-0.0014911387115716934
0.011775601655244827
-0.013958986848592758
-0.004690861329436302
0.00269215926527977
0.00697895884513855
0.0024827346205711365
0.005014397203922272
-0.011149483732879162
-0.01768447458744049
-0.01612287014722824
-0.014823056757450104
0.006687777116894722
-0.007777166552841663
-0.005931146442890167
0.015508823096752167
-0.01462705247104168
-0.00039567798376083374
0.006923871114850044
0.011503122746944427
-0.004844320006668568
-0.000479942187666893
-0.012563774362206459
-0.01641092076897621
-0.017054004594683647
0.004198702052235603
-0.016914620995521545
-0.006403687410056591
-0.0029356488958001137
0.011632032692432404
-0.0015553068369626999
0.012273173779249191
0.017060931771993637
-0.010784558020532131
0.016301177442073822
0.015455082058906555
-0.0020296797156333923
-0.006369096226990223
-0.007862379774451256
0.015917956829071045
0.012368062511086464
0.001759333536028862
0.015091247856616974
0.0012271925806999207
-0.014286518096923828
-0.015572486445307732
0.005876652896404266
0.005494812503457069
-0.00488077849149704
0.002404250204563141
-0.007965348660945892
0.009260781109333038
-0.0043264273554086685
-0.004781011492013931
0.004557250067591667
0.0040298886597156525
0.017403189092874527
0.009960711002349854
-0.0072419242933392525
-0.009585894644260406
-0.012898256070911884
0.016161542385816574
0.017229698598384857
0.010860858485102654
0.007944859564304352
0.014345113188028336
0.015123091638088226
-0.015494780614972115
0.004239628091454506
0.009550275281071663
0.005093919113278389
0.002390718087553978
-0.012639055028557777
0.005050724372267723
-0.0016274172812700272
-0.01804160885512829
0.010365502908825874
0.008742038160562515
-0.0008357800543308258
0.011363610625267029
-0.006229001097381115
-0.016641361638903618
0.0057857949286699295
-0.01075037568807602
-0.010604510083794594
-0.01766214333474636
0.011404689401388168
-5.037523806095123e-05
0.015600811690092087
-0.011864565312862396
0.012921558693051338
0.006666947156190872
0.010956671088933945
0.008468316867947578
-0.016056129708886147
0.013435911387205124
-0.017975404858589172
-0.001117505133152008
-0.01654268614947796
-0.0006754621863365173
-0.01650341972708702
0.01194641925394535
-0.006966118700802326
0.0156736820936203
-0.0004596877843141556
0.0009685475379228592
-0.00824638083577156
-0.006351061165332794
-0.00574428029358387
-0.015848815441131592
-0.007368730381131172
-0.012147787027060986
-0.016460798680782318
-0.015937358140945435
-0.0018412452191114426
0.010787656530737877
-0.010313645005226135
-0.011619932018220425
-0.017679931595921516
-0.0007035434246063232
-0.011406028643250465
-0.004573395475745201
0.007967015728354454
-0.0009390953928232193
0.004892952740192413
-0.017931487411260605
-0.013745829463005066
-0.01596895605325699
-0.007715058512985706
-0.007963873445987701
-0.010357288643717766
-0.00017424114048480988
-0.006745554506778717
0.008533554151654243
-0.0024057142436504364
0.017782241106033325
-0.015143092721700668
-0.0020169969648122787
0.0033256765455007553
0.01643630489706993
-0.016816768795251846
0.008546344935894012
0.004895081743597984
0.017984408885240555
-0.017665861174464226
-0.01572868600487709
-0.009256943129003048
-0.005412900820374489
-0.006118428893387318
-0.0037708813324570656
0.013541366904973984
0.013828806579113007
0.005156820639967918
-0.007167370989918709
0.00665818527340889
0.01301795244216919
0.00436517596244812
0.017920605838298798
0.005065564066171646
-0.01492726244032383
0.001558743417263031
-0.009106622077524662
0.013310626149177551
-0.016505489125847816
-0.0036392416805028915
-0.0053647663444280624
-0.011043673381209373
0.017944134771823883
0.008764022961258888
0.00977824255824089
-0.015914127230644226
0.0017689205706119537
0.015482082962989807
-0.00850298348814249
-0.008438171818852425
-5.548447370529175e-05
0.016955126076936722
-0.008978985249996185
-0.013698449358344078
-0.002156214788556099
0.011995403096079826
-0.012572390958666801
-0.012912703678011894
-0.0030491771176457405
-0.007796134799718857
-0.001275649294257164
0.017371319234371185
0.0018198136240243912
-0.0020703747868537903
0.005577815696597099
-0.0075598349794745445
0.006953520700335503
-0.008590813726186752
0.017453745007514954
-0.013763634487986565
0.009576497599482536
-0.006544448435306549
-0.014517834410071373
0.010720709338784218
-0.014957502484321594
0.011186176910996437
-0.0020476430654525757
-0.00170036219060421
0.0022292248904705048
-0.009987106546759605
0.01726366952061653
0.005945956334471703
-0.012823626399040222
0.01656360924243927
-0.011262736283242702
0.00033582746982574463
-0.004648735746741295
-0.015038065612316132
0.013700101524591446
-0.008775876834988594
-0.016644030809402466
0.0033047422766685486
-0.01606595888733864
-0.003670148551464081
-0.00022354349493980408
0.007080962881445885
-0.015890365466475487
-0.012582862749695778
0.0038521774113178253
-0.000653538852930069
-0.0025838520377874374
-0.008081285282969475
0.004114363342523575
-0.0029597124084830284
-0.009216153994202614
-0.015322135761380196
-0.005878631956875324
0.013757262378931046
0.0031919237226247787
-0.006735703907907009
0.008507058024406433
0.005565132945775986
0.005279922857880592
0.00817006453871727
-0.004736533388495445
-0.004595841281116009
-0.00978883821517229
-0.01286857109516859
0.01676318794488907
-0.006930609233677387
0.01266813650727272
0.006424378603696823
0.0025345701724290848
-0.015211965888738632
0.009667972102761269
-0.0048581697046756744
-0.011152641847729683
0.002029193565249443
-0.008660742081701756
0.014570813626050949
-0.004893687553703785
-0.017846228554844856
0.004126071929931641
0.014003749936819077
-0.006343593820929527
0.01468217745423317
-0.005414810962975025
0.0004814267158508301
0.01329587772488594
-0.012813843786716461
0.006754927337169647
-0.015600709244608879
-0.0017049722373485565
0.017732448875904083
0.013324510306119919
0.007471669465303421
0.01158180646598339
-0.0066980039700865746
-0.004421043209731579
0.0034291520714759827
-0.01627124845981598
-0.003094010055065155
0.0003760252147912979
-0.012316418811678886
-0.01653207838535309
0.007428642362356186
-0.010386671870946884
0.012874532490968704
-0.005783207714557648
-0.013379305601119995
-0.014653672464191914
-0.0015745926648378372
-0.011095993220806122
-0.015224902890622616
0.00601770356297493
0.004304351285099983
0.002646481618285179
-0.013544956222176552
0.0010683611035346985
-0.014499770477414131
0.012587474659085274
0.014768648892641068
-0.0063961464911699295
0.0020812563598155975
-0.009920455515384674
-0.010515104047954082
0.011793497949838638
-0.013112221844494343
0.010634496808052063
0.011927749961614609
-0.009203513152897358
0.004981754347681999
-0.015442193485796452
0.009047411382198334
-0.015213856473565102
-0.0009278059005737305
0.01639512926340103
0.01283014751970768
0.012845475226640701
0.01349647343158722
0.007821246981620789
0.010244805365800858
-0.0071361735463142395
0.013774629682302475
-0.014124058187007904
0.0025929100811481476
0.009633691981434822
0.009402289986610413
-0.009974333457648754
0.014397405087947845
0.008181218057870865
-0.01543484814465046
0.017471078783273697
0.012250775471329689
0.015680618584156036
0.0013598166406154633
-0.005043679848313332
0.0036861933767795563
-0.00672984030097723
-0.012837162241339684
5.112960934638977e-06
0.0006693601608276367
0.010727761313319206
0.0067221056669950485
-0.0029832441359758377
-0.015283482149243355
-0.000541122630238533
-0.008219413459300995
0.007648831233382225
0.004545202478766441
0.017078589648008347
-0.010140858590602875
0.013179238885641098
-0.004792141728103161
0.017746884375810623
-0.008479335345327854
-0.008755792863667011
-0.006409605965018272
0.000611569732427597
-0.0016024298965930939
0.012088513001799583
-0.011245351284742355
0.009174628183245659
0.011566346511244774
0.01267261616885662
-0.009682143107056618
-0.0038900915533304214
-0.017069054767489433
-0.015603501349687576
-0.01736300252377987
-0.005400951020419598
0.001122117042541504
-0.01795719377696514
-0.0015102420002222061
0.0015729237347841263
0.008677622303366661
-0.014652476646006107
0.008424410596489906
0.005365403369069099
-0.012617669999599457
-0.007373548112809658
-0.01173480786383152
-0.004112234339118004
-0.015246187336742878
0.011429842561483383
0.014623831957578659
0.01753615215420723
-0.00445143599063158
-0.003413536585867405
-0.012033278122544289
-5.922093987464905e-05
-0.0003745555877685547
-0.005322773940861225
0.01689884066581726
0.004548348486423492
0.00362224318087101
0.009720727801322937
-0.008706065826117992
-0.011369351297616959
-0.000466836616396904
-0.0016436222940683365
-0.009823889471590519
-0.015418317168951035
-0.0004431474953889847
-0.016462618485093117
-0.01050981879234314
0.006095109507441521
-0.008403939194977283
0.005705034360289574
0.012123124673962593
0.004493556916713715
-0.014574011787772179
-0.008226070553064346
0.011819319799542427
0.006813999265432358
-0.010966043919324875
0.009751841425895691
0.00011190585792064667
0.007845202460885048
0.0031814221292734146
0.01742817834019661
0.015110734850168228
-0.007471263408660889
-0.015217133797705173
-0.004480267874896526
-0.007852902635931969
-0.0069694435223937035
-0.0033399835228919983
0.00451304018497467
0.014869209378957748
-0.0105415228754282
0.006941787898540497
-0.007237228564918041
0.011474845930933952
-0.016476808115839958
0.00920904241502285
0.011469747871160507
-0.010728256776928902
-0.0006630104035139084
-0.00846864003688097
0.007043788209557533
0.002565404400229454
0.007382676005363464
-0.0027532661333680153
0.0024662520736455917
0.0028473474085330963
0.015587136149406433
-0.01694054715335369
0.008866805583238602
-0.0020219702273607254
0.009037291631102562
-0.0004596542567014694
-0.016708223149180412
0.016006838530302048
-0.006940777413547039
0.01581152155995369
0.017248276621103287
0.006007278338074684
-0.002489117905497551
-0.011978233233094215
-0.011468539014458656
0.012808585539460182
0.008386470377445221
-0.015561889857053757
0.0018665455281734467
-0.017583144828677177
-0.0008384287357330322
0.006026260554790497
-0.004846217110753059
-0.0022668354213237762
0.008409900590777397
0.01446516439318657
0.006949098780751228
0.0025130100548267365
0.0016260109841823578
0.014679327607154846
-0.014750683680176735
0.016807369887828827
0.016035951673984528
0.011675484478473663
-0.01259748637676239
0.0015799589455127716
0.01126115396618843
-0.0026784613728523254
-0.015504999086260796
0.006791356950998306
0.017297562211751938
0.0019922535866498947
0.01768738403916359
-0.0006763394922018051
0.0028222501277923584
-0.012352224439382553
0.012198982760310173
-0.01383650116622448
0.002998568117618561
0.004517881199717522
0.006064796820282936
-0.012454243376851082
-0.01580527238547802
-0.0117518100887537
-0.008075353689491749
0.002018492668867111
0.003627428784966469
0.01121460273861885
0.01366148516535759
-0.009293762966990471
-0.007072160951793194
0.000522540882229805
-0.015413867309689522
0.013414494693279266
-0.007313639856874943
0.01560826227068901
0.005749767646193504
0.012949490919709206
0.013157304376363754
0.010318582877516747
0.01583363115787506
-0.015247475355863571
-0.0018492620438337326
0.011414512991905212
-0.017539232969284058
0.011395713314414024
-0.00904020294547081
0.010056085884571075
0.006886841729283333
-0.010386520996689796
0.0013245251029729843
0.00608019158244133
-0.005722256377339363
-0.016636010259389877
-0.005037272348999977
0.015988577157258987
-0.004674956202507019
-0.009285964071750641
0.005360625684261322
0.006430687382817268
0.008498448878526688
-0.016562245786190033
0.000696064904332161
0.006193147972226143
-0.004923708736896515
-0.008047075010836124
-0.012958323583006859
-0.014393668621778488
-0.0171514842659235
-0.001529879868030548
0.0028359368443489075
-0.013675848953425884
0.0006653089076280594
0.008824331685900688
-0.004990565590560436
0.008488528430461884
0.01249474473297596
0.014055240899324417
0.009337706491351128
-0.0012670941650867462
0.014762476086616516
0.015858948230743408
-0.00567194540053606
-0.0007818732410669327
-0.01189153641462326
-0.0037640007212758064
-0.011656669899821281
0.0013091079890727997
-0.004328051581978798
0.0051025450229644775
-0.017892951145768166
-0.0012146718800067902
-0.006658264435827732
-0.002968831919133663
-0.014429325237870216
-0.01725001633167267
0.017798345535993576
-0.0036943750455975533
-0.006224342621862888
0.0032672397792339325
-0.013255177065730095
0.01659238338470459
0.002843257039785385
-0.001622021198272705
0.012831930071115494
0.009457731619477272
0.004238827154040337
0.004155026748776436
0.015361681580543518
0.00868130661547184
-0.013721849769353867
0.01721581071615219
0.01600867509841919
-0.009084539487957954
-0.017327921465039253
-0.0141921890899539
0.005691396072506905
-0.011906517669558525
0.01036384329199791
-0.014190249145030975
-0.0027050087228417397
0.012010660022497177
0.0030414480715990067
-0.000395994633436203
0.003205271437764168
0.00617789663374424
-0.010101168416440487
0.0033263377845287323
-0.012281807139515877
0.0060000550001859665
-0.0035400744527578354
0.01705765351653099
0.004361456260085106
-0.014119844883680344
0.00794093869626522
0.011862009763717651
-0.0064407410100102425
-0.0026570437476038933
0.00420895591378212
0.015335891395807266
-0.012916825711727142
-0.014788396656513214
-0.007050087675452232
-0.01737275719642639
0.005863230675458908
-0.0016734693199396133
0.002273712307214737
-0.002977929078042507
0.012484600767493248
-0.005710603669285774
-0.010796867311000824
0.013596311211585999
0.0073109883815050125
0.0008044224232435226
-0.000490853562951088
-0.0025565456598997116
0.006049061194062233
0.009497346356511116
0.007520996034145355
-0.0032092351466417313
0.013231176882982254
-0.009765056893229485
-0.014974038116633892
0.0017637833952903748
0.017458241432905197
-0.010903880000114441
0.013721942901611328
0.015654727816581726
-0.009028274565935135
-0.0024978453293442726
0.00010113976895809174
-0.003696323372423649
-0.003985956311225891
0.016712971031665802
-0.004476125352084637
0.013768285512924194
0.014835592359304428
-0.0074031781405210495
-0.009569994173943996
-0.00997106172144413
0.006917087361216545
-0.013173171319067478
0.01619395986199379
0.0036695189774036407
-0.0018184278160333633
-0.00034719333052635193
-0.010920122265815735
0.006795108318328857
-0.012416524812579155
-0.0009965281933546066
-0.007087967358529568
-0.008153341710567474
0.003925329074263573
0.009663835167884827
-0.011966537684202194
-0.016484497115015984
0.0007995422929525375
-0.004563292488455772
-0.006636618636548519
-0.012968530878424644
0.0004983209073543549
-0.01271514780819416
0.017040282487869263
0.0029328055679798126
0.004288548603653908
-0.006312882527709007
-0.012629191391170025
0.01767401024699211
0.014044348150491714
0.017883673310279846
-0.0003614760935306549
-0.0006027873605489731
-0.010820293799042702
0.006396325305104256
0.015721119940280914
0.008516846224665642
0.016945593059062958
0.0016103088855743408
0.006199207156896591
-0.001013120636343956
0.015991829335689545
-0.014211197383701801
-0.002455339767038822
0.0007259659469127655
0.007895147427916527
0.004300758242607117
-0.011039231903851032
0.00015199556946754456
-0.0013966187834739685
-0.00241071917116642
0.004933858290314674
0.013853348791599274
-0.016332022845745087
0.0045777577906847
0.0010408777743577957
-0.005851822905242443
-0.004096068441867828
0.006087258458137512
0.009805658832192421
-0.006726272404193878
-0.015890032052993774
-0.014957978390157223
0.01011037826538086
0.0135243721306324
0.008990680798888206
0.0006601959466934204
0.01258840598165989
0.005382463335990906
0.016728848218917847
-0.01382603868842125
-0.002353319898247719
0.003232961520552635
-0.006549188867211342
0.00028305500745773315
0.009736362844705582
0.008406568318605423
0.0019723642617464066
-0.015925873070955276
-0.01768365502357483
0.0069504957646131516
0.012403173372149467
0.011951679363846779
-0.005733915604650974
-0.007944537326693535
0.004073861986398697
0.016757912933826447
-0.007544553838670254
0.008044011890888214
-0.006119852885603905
-0.011030877940356731
-0.0033170562237501144
-0.008143793791532516
0.0008995775133371353
0.01270798034965992
-0.01118355430662632
0.017207134515047073
0.0163709856569767
-0.009745840914547443
-0.00038724206387996674
0.0035430341958999634
0.007419964298605919
-0.010583501309156418
-0.010903481394052505
0.0059500802308321
-0.011378470808267593
0.006909359246492386
-0.013206547126173973
-0.0006823204457759857
-0.012042216956615448
-0.006319100968539715
0.01459548994898796
0.010292597115039825
-0.0015689413994550705
0.013703376054763794
-0.01426096260547638
0.002274077385663986
-0.017346717417240143
0.0006202273070812225
-0.006691917777061462
0.01567409560084343
-0.005137228406965733
-0.0022878069430589676
-0.013105321675539017
-0.004746883176267147
-0.017532821744680405
0.015766195952892303
0.00665539875626564
0.017786357551813126
-0.01028699055314064
0.011010084301233292
-0.007638255134224892
-0.01590372808277607
0.013324405997991562
0.015368614345788956
-0.012176183983683586
0.01687479391694069
0.005373472347855568
-0.006709554232656956
0.013680078089237213
-0.008198224008083344
0.004438148811459541
0.007050750777125359
0.013033874332904816
-0.005031906068325043
0.007454831153154373
0.0006428416818380356
-0.010997988283634186
-0.010519205592572689
-0.007096544839441776
-0.012484481558203697
-0.006606306880712509
0.016041278839111328
-0.010990404523909092
-0.0173675287514925
0.017248697578907013
-0.015454553999006748
-0.016605298966169357
0.01375073567032814
0.014216635376214981
-0.011157412081956863
0.005412934347987175
0.006663262844085693
-0.004987127147614956
-0.004882782697677612
-0.00786040909588337
-0.017371540889143944
0.008944503962993622
0.010771382600069046
-0.017762482166290283
0.0006657019257545471
-0.0027019158005714417
-0.01365501806139946
0.003653367981314659
-0.01407700777053833
-0.0032846610993146896
0.002960043027997017
-0.002848135307431221
0.00931665301322937
0.01160144992172718
-0.002625790424644947
-0.00017476268112659454
0.0036856550723314285
0.000512395054101944
-0.005064639262855053
0.014795616269111633
0.0029671508818864822
0.004115566611289978
-0.0034193331375718117
0.014310147613286972
0.01124403066933155
0.012649595737457275
-0.006178122013807297
-0.0014227069914340973
0.014611005783081055
-0.0163057129830122
-0.009161452762782574
-0.016758503392338753
0.0038386359810829163
0.009733511134982109
-0.01033601351082325
0.011932222172617912
-0.007855690084397793
0.0012221112847328186
0.011286972090601921
-0.005353715270757675
-0.0026711244136095047
0.01220102608203888
0.012029053643345833
-0.012537635862827301
0.010188344866037369
-0.016311291605234146
-0.0033921105787158012
-0.007630091160535812
-0.011530211195349693
0.009241025894880295
0.00808103196322918
0.0085789505392313
-0.009894170798361301
0.005134183913469315
-0.012414177879691124
-0.016283271834254265
-0.01499087456613779
-0.014977988786995411
-0.008433932438492775
0.01200190931558609
-0.01165379025042057
0.0034789517521858215
-0.01414244994521141
0.01021556369960308
-0.000672806054353714
-0.0035842331126332283
0.01445641741156578
-0.004144949838519096
0.016193091869354248
-0.0027158698067069054
0.006321266293525696
-0.01663081906735897
-0.015919575467705727
0.008465774357318878
0.007873820140957832
0.007442114874720573
0.016976501792669296
-0.014018397778272629
0.005632096901535988
-0.0062111373990774155
-0.00983196310698986
0.012801151722669601
0.008624393492937088
-0.012479186058044434
0.010542614385485649
-5.736015737056732e-05
0.01306198537349701
0.015631768852472305
0.0009734295308589935
0.005472669377923012
0.014579527080059052
0.00665673241019249
-0.014058168977499008
0.007285716012120247
0.017847854644060135
0.010662607848644257
-0.016001326963305473
0.012052271515130997
0.008723407983779907
0.01678192988038063
0.01717088744044304
0.007884718477725983
0.013210877776145935
-0.014517499133944511
-0.01155180111527443
0.014040827751159668
0.009867886081337929
-0.007230643182992935
0.006597330793738365
-0.009855798445641994
0.013125574216246605
0.010571321472525597
-0.011944834142923355
0.00599333830177784
0.013334482908248901
-0.013314149342477322
-0.00839060265570879
-0.004354515112936497
-0.00574351754039526
0.012409890070557594
0.016536418348550797
0.006467390805482864
-0.0036574872210621834
0.009233744814991951
0.006890730932354927
-0.015461163595318794
0.004613248631358147
0.0005715489387512207
-0.007840909995138645
0.011351071298122406
0.011800579726696014
0.014788411557674408
-0.011832470074295998
-0.007911951281130314
0.008113496005535126
-0.015457965433597565
-0.007162326946854591
-0.007386171258985996
-0.008740339428186417
-0.011372624896466732
0.012187875807285309
-0.01617852784693241
0.005946233868598938
-0.001194976270198822
-0.011283800937235355
-0.01077466830611229
-0.01136418990790844
-0.012601424008607864
0.005230270326137543
-0.005960986018180847
0.0039289966225624084
-0.0025777090340852737
-0.017163975164294243
-0.00679840799421072
-0.006848779506981373
-0.0039608655497431755
0.00691852904856205
-0.0017258990556001663
-0.008816399611532688
0.007622566074132919
0.017082761973142624
-0.015836797654628754
0.015594583004713058
0.009125063195824623
0.008076423779129982
-0.017327599227428436
0.014064185321331024
-0.011321166530251503
-0.0002023894339799881
0.016625061631202698
-0.01081661507487297
-0.015975266695022583
-0.012554616667330265
0.007711268961429596
-0.003185872919857502
0.0020131953060626984
-0.015139183029532433
-0.006101676262915134
-0.002680527977645397
-0.007023178972303867
0.010096294805407524
0.01738962158560753
-2.4784356355667114e-05
-0.017277995124459267
0.013297535479068756
0.004407905042171478
-0.012455781921744347
0.0007609091699123383
-0.0032932255417108536
-0.003507079556584358
0.005527837201952934
0.0033109281212091446
-0.006871077232062817
-0.00022863969206809998
-0.013153785839676857
0.004358787089586258
-0.009742791764438152
0.012896407395601273
0.016101665794849396
-0.008299094624817371
-0.001568041741847992
-0.007700452581048012
0.00868639349937439
-0.010468617081642151
0.009502969682216644
-0.012483101338148117
-0.017215607687830925
0.004797035828232765
-0.010631386190652847
0.00467660091817379
-0.0031353095546364784
-0.00877746194601059
-0.0004449654370546341
-0.005859817378222942
0.009723253548145294
-0.0020391270518302917
-0.004737819544970989
0.004135206341743469
0.005438819527626038
0.016239676624536514
-0.006824237294495106
0.002017475664615631
0.008119598031044006
-0.01133752427995205
0.014683153480291367
0.0038720108568668365
-0.01335342787206173
-0.008569507859647274
-0.00795780774205923
-0.00854403991252184
0.008934073150157928
0.014906790107488632
-0.004619407467544079
0.004275636747479439
0.007251013070344925
-0.01417829841375351
-0.017324037849903107
0.01190686970949173
0.005198793485760689
0.0009624622762203217
0.0012802127748727798
0.0019278284162282944
0.010148189961910248
0.017237551510334015
-0.011096185073256493
-0.0018688812851905823
-0.017208484932780266
0.010084107518196106
0.0005523338913917542
-0.0048799654468894005
-0.016561537981033325
0.01638934761285782
-0.013582050800323486
-0.005366837605834007
0.015999004244804382
0.015830278396606445
-0.006847110576927662
0.0028930045664310455
0.004150098189711571
0.015995554625988007
0.004882402718067169
0.004955632612109184
-0.009667756967246532
-0.005939418449997902
-0.003028254024684429
0.008210694417357445
-0.011896857991814613
-0.0012566540390253067
0.017119355499744415
0.009255900979042053
0.010749084874987602
0.0013415757566690445
-0.009313391521573067
-0.008596070110797882
0.00798863172531128
0.010423891246318817
0.015422847121953964
0.011322962120175362
0.001995844766497612
0.00018421001732349396
0.012173401191830635
-0.001768333837389946
-0.015442853793501854
-0.009050368331372738
0.0027345623821020126
0.0160185769200325
0.00542333722114563
-0.007001920603215694
-0.002396499738097191
0.017693601548671722
-0.001057663932442665
-0.015046495944261551
-0.01395401544868946
0.0005430784076452255
0.01173747144639492
-0.010452808812260628
-0.006477240473031998
-0.004113036207854748
0.015985116362571716
-0.017974887043237686
-0.006674419157207012
0.011654108762741089
-9.441561996936798e-05
-0.014725924469530582
-0.008789779618382454
-0.014635919593274593
-0.0016016550362110138
0.0006126072257757187
-0.0011573974043130875
0.01559373363852501
-0.013902824372053146
0.0013813339173793793
0.007304040715098381
-0.00020181946456432343
0.005021721124649048
0.01384773850440979
0.005993612110614777
-0.016639752313494682
0.007809726521372795
0.0028186850249767303
-0.011466257274150848
0.005725298076868057
0.01752275973558426
-0.01529003120958805
-0.016854146495461464
-0.011890506371855736
0.014025948941707611
0.006548337638378143
0.01038890890777111
-0.0024148859083652496
0.0028619933873414993
0.013035833835601807
0.009336870163679123
-0.00016786158084869385
-0.010618511587381363
0.017199832946062088
0.007050627842545509
0.00918995775282383
-0.011104317381978035
-0.017860928550362587
-0.017428196966648102
0.0013294313102960587
-0.006799175404012203
-0.01111949048936367
0.006573103368282318
-0.016185982152819633
0.0021462589502334595
-0.0010780058801174164
-0.017422758042812347
-0.0031452784314751625
-0.004846944473683834
-0.0062774112448096275
0.007969619706273079
-0.014622621238231659
0.014533564448356628
0.011796524748206139
0.005163729190826416
-0.0020702946931123734
8.105672895908356e-05
-0.004627182148396969
-0.008287639357149601
-2.5117769837379456e-05
-0.011161020025610924
-0.011737445369362831
-0.006548834033310413
0.005976483225822449
0.016981717199087143
0.0007249396294355392
-0.005489114671945572
0.012079013511538506
0.017865225672721863
-0.0036885077133774757
-0.016514942049980164
-0.008883846923708916
0.013277512043714523
0.015464715659618378
0.007910516113042831
0.0006935596466064453
-0.016915181651711464
0.004973370581865311
0.012568565085530281
0.0028425008058547974
0.002550613135099411
-0.011748295277357101
0.011252176016569138
-0.010194615460932255
-0.006667688488960266
-0.0017622392624616623
-0.011379234492778778
0.01761838048696518
-0.011649701744318008
0.003820730373263359
0.0036885514855384827
-0.010439995676279068
0.007767399773001671
-0.0009479746222496033
0.0095274168998003
0.0016241464763879776
0.00036076828837394714
0.0037360060960054398
0.0019560325890779495
-0.015564384870231152
-0.014229505322873592
0.014414593577384949
-0.010269483551383018
-0.012631045654416084
0.003946371376514435
-0.00470371451228857
0.011602681130170822
-0.0055040111765265465
-0.0128256157040596
-0.015997175127267838
-0.002847772091627121
0.00939146988093853
0.0038331281393766403
0.008475903421640396
-0.0037482911720871925
-0.011728530749678612
-0.016792191192507744
0.0033718347549438477
0.006003096699714661
0.010847430676221848
0.008468631654977798
0.012713273987174034
-0.0119831757619977
0.009329160675406456
0.0016011130064725876
0.0016604922711849213
-0.013738764449954033
0.010959303006529808
-0.014660349115729332
0.015446264296770096
0.00974627397954464
0.004540733993053436
-0.0046620722860097885
0.01745033636689186
0.01086009107530117
0.012749942019581795
-0.013228894211351871
-0.016576269641518593
-0.0062182024121284485
0.011215396225452423
-0.016858108341693878
-0.003504272550344467
-0.0009245052933692932
0.017921313643455505
-0.0012234468013048172
0.01542055606842041
0.017996426671743393
-0.01227244921028614
0.01585528627038002
0.0008931122720241547
0.005028195679187775
0.0016051176935434341
0.005149083212018013
-0.002198014408349991
0.015495799481868744
-0.007230428047478199
-0.01666252128779888
0.004624726250767708
-0.016108248382806778
-0.015650156885385513
0.007750906050205231
0.00419226661324501
0.013399079442024231
0.014137610793113708
-0.01753981038928032
-0.012326249852776527
-0.006492833606898785
0.0032721515744924545
0.0027365274727344513
-0.008685127831995487
0.006643978878855705
-0.01746019721031189
0.014642003923654556
-0.006211003288626671
-0.006741977296769619
0.007504906505346298
-0.0003266967833042145
0.014530085027217865
0.0007953159511089325
0.010712880641222
0.00576445460319519
0.01750824972987175
-0.0009435117244720459
-0.0048055630177259445
-0.006107141263782978
0.00380883552134037
-0.011336852796375751
-0.01355520449578762
-0.009509578347206116
-0.005538857541978359
-0.0004447605460882187
-0.0025711748749017715
0.017616689205169678
-0.01669371873140335
-0.017413467168807983
0.0014491751790046692
-0.0097337756305933
-0.010219188407063484
0.003810333088040352
-0.002976682037115097
-0.006675306707620621
-0.013456519693136215
-0.0030844006687402725
-0.008998402394354343
0.013380993157625198
0.009554896503686905
0.010644271969795227
-0.013252012431621552
0.001322716474533081
0.013443663716316223
0.010584233328700066
-0.0010480061173439026
0.006749877706170082
0.01590576022863388
-0.017560092732310295
0.010944396257400513
0.002084987238049507
0.0022465381771326065
-0.010343575850129128
0.001693282276391983
-0.0049968138337135315
-4.643946886062622e-05
0.0008214600384235382
-0.007207057438790798
-0.015613691881299019
-0.012750410474836826
-0.0014277510344982147
0.01587614417076111
-0.0042495643720030785
0.0003048218786716461
0.004191992804408073
0.007222440093755722
-0.0005759205669164658
0.01434292271733284
0.009205807000398636
0.006745705381035805
-0.017359348013997078
0.013299617916345596
-0.010138207115232944
0.0032377932220697403
-0.0005820672959089279
0.010320132598280907
0.007304539903998375
0.012674130499362946
0.0002347417175769806
-0.013814418576657772
0.0029026325792074203
0.017328456044197083
0.016344398260116577
-0.010664230212569237
0.009693130850791931
-0.0014021899551153183
-0.007894531823694706
-0.006176318041980267
-0.0040250299498438835
-0.013831134885549545
-0.002368226647377014
-0.00968668982386589
-0.00728986319154501
0.0018033944070339203
-0.006552337668836117
0.01612827181816101
0.012129237875342369
0.0018665958195924759
0.015151388943195343
-0.015796761959791183
0.01272125169634819
-0.0037948451936244965
0.016345154494047165
-0.00292081106454134
-0.007069156505167484
-0.017041746526956558
-0.01141237560659647
0.0025756750255823135
-0.014571812935173512
0.0001754574477672577
0.0009680129587650299
0.0035465825349092484
-0.01716523803770542
0.010764546692371368
-0.016188841313123703
-0.01802838407456875
-0.01456367876380682
0.002712707966566086
-0.01032017357647419
0.004680320620536804
-0.014756360091269016
0.000166282057762146
0.0072834789752960205
0.0025645550340414047
-0.013578856363892555
0.015823982656002045
0.0025932341814041138
-0.009049253538250923
-0.01667885109782219
-0.013401501812040806
-0.014181587845087051
-0.009168657474219799
0.017400190234184265
0.014335565268993378
-0.005383176729083061
0.014838911592960358
0.005457470193505287
0.006259692832827568
-0.002269374206662178
-0.00269460491836071
-0.0054562631994485855
0.006019098684191704
0.01521071046590805
-0.010363023728132248
0.002380097284913063
-0.0006037354469299316
-0.015658242627978325
-0.0008889120072126389
-0.017087828367948532
-0.0041289543733000755
-0.010323802009224892
0.010717261582612991
-0.01458303164690733
-0.0002579428255558014
0.00904809683561325
0.015258729457855225
-0.009881759062409401
0.008044969290494919
0.012336943298578262
-0.016975224018096924
0.014616239815950394
-0.015107286162674427
-0.015736183151602745
0.0006741248071193695
0.018040895462036133
0.007872948423027992
0.0010327734053134918
0.008301345631480217
0.01775364577770233
-0.011525576934218407
0.014301776885986328
-0.011665627360343933
-0.006404089741408825
0.001170014962553978
0.016607854515314102
0.010158723220229149
-0.006599504500627518
0.01595437526702881
0.010845363140106201
-0.0006630923599004745
0.014759238809347153
0.0016042739152908325
-0.0031093284487724304
0.016213402152061462
0.010277045890688896
0.0034560132771730423
0.015542957931756973
0.017595112323760986
0.007213916629552841
0.012044673785567284
0.007394876331090927
-0.01332113891839981
-0.01416647806763649
0.004277532920241356
0.014291349798440933
-0.013602478429675102
0.00670134462416172
-0.01121680997312069
0.017958130687475204
0.013518135994672775
-0.014562781900167465
-0.0011715143918991089
0.0044183265417814255
-0.0070854127407073975
-0.004626326262950897
0.00555725023150444
0.007283546030521393
0.012290598824620247
-0.014561842195689678
0.01556771993637085
0.009800724685192108
-0.01784147322177887
0.008407814428210258
-0.006196917966008186
0.01232561282813549
-0.008533783257007599
-0.008943413384258747
0.0034635141491889954
0.002121247351169586
-0.011828608810901642
0.006644139066338539
-0.009135193191468716
0.014619220048189163
0.013834122568368912
-0.01160396821796894
0.016296181827783585
0.0028542373329401016
-0.004461044445633888
0.01643320545554161
0.01564076915383339
0.016114577651023865
-0.016321072354912758
-0.00689485389739275
-0.018020009621977806
-0.010262198746204376
-0.016916906461119652
-0.013411127030849457
-0.01725536212325096
0.002032395452260971
-0.01522564236074686
0.015079580247402191
-0.0017171446233987808
-0.01161135919392109
-0.008341358043253422
0.00032198987901210785
0.016860608011484146
-0.0036238636821508408
0.013562925159931183
0.012208489701151848
0.017107728868722916
-0.01596929505467415
-0.018019551411271095
-0.008859628811478615
0.001629916951060295
-0.00894978828728199
-0.0002920124679803848
-0.011207187548279762
0.007548442110419273
-0.012465186417102814
0.016805734485387802
-0.012634146958589554
-0.014186005108058453
0.011059535667300224
0.012686263769865036
0.014782480895519257
-0.01802825555205345
0.0022458769381046295
0.014975141733884811
-0.0022646449506282806
0.017602931708097458
-0.007724633440375328
0.017342504113912582
-0.011517106555402279
-0.0009877737611532211
-0.010563407093286514
0.00041753798723220825
0.0020181871950626373
-0.001077922061085701
-0.0019934140145778656
-0.015214585699141026
0.013768579810857773
0.01233631744980812
0.01726478710770607
-0.006992725655436516
-0.003984362818300724
0.007723001763224602
-0.0106065534055233
0.010569794103503227
0.00799638219177723
-0.0024822717532515526
0.017163950949907303
-0.006048743613064289
0.013184674084186554
0.012499867007136345
0.007383754476904869
0.012408792972564697
-0.006821907125413418
-0.01431899145245552
-0.015986403450369835
-0.014638992957770824
-0.015726184472441673
-0.008757995441555977
-0.00831159483641386
-0.009836585260927677
0.014171667397022247
-0.007792297750711441
0.003156103193759918
-0.00868528988212347
-0.0052328938618302345
-0.007787002250552177
0.004963932558894157
0.0035550594329833984
0.0009523201733827591
0.010932689532637596
0.0027957800775766373
-0.01246458850800991
-0.012359663844108582
-0.012773387134075165
-0.012877137400209904
-0.004887362010776997
-0.005814738571643829
0.004203666001558304
0.003536636009812355
-0.011350875720381737
-0.00015704333782196045
-0.007329684682190418
-0.010723583400249481
-0.0018380042165517807
-0.004338003695011139
-0.0177653506398201
-0.009966181591153145
-0.010585230775177479
0.014788337051868439
0.01729453355073929
-0.004615649580955505
0.003791557624936104
-0.011150423437356949
0.014188088476657867
0.012475667521357536
-0.007125389762222767
-0.004191910848021507
0.004139989614486694
0.009828105568885803
-0.01617484912276268
0.002520723268389702
0.003071950748562813
0.010057864710688591
0.00505509227514267
-0.011798080056905746
-0.011021342128515244
-0.005156149156391621
-0.0015473607927560806
-0.003013959154486656
0.0031303949654102325
-0.0004279371351003647
-0.014597397297620773
-0.015479069203138351
0.0027546994388103485
-0.016195023432374
0.017120905220508575
-0.01017164345830679
0.013002779334783554
0.001983949914574623
-0.00032875314354896545
0.01777482032775879
0.006570925936102867
0.012785186991095543
-0.015860917046666145
0.014580760151147842
0.00910063274204731
0.004465596750378609
0.009799418970942497
-0.016518812626600266
-0.011014703661203384
0.017679363489151
-0.0004052184522151947
0.01592661812901497
0.0013708136975765228
-0.012695670127868652
-0.006088928319513798
-0.000244753435254097
0.00024490244686603546
-0.002145262435078621
-0.006193739362061024
0.003065621480345726
-0.010503796860575676
-0.011851239949464798
0.010055728256702423
0.016429539769887924
-0.01676650159060955
0.0015694648027420044
-0.014139814302325249
-0.01673131436109543
-0.014206773601472378
0.007329365238547325
0.0029658079147338867
0.003884159028530121
-0.002132197842001915
-0.013197172433137894
0.010310117155313492
0.010753661394119263
-0.004260570742189884
0.0014172308146953583
0.0038764607161283493
0.01599658653140068
-0.007767221890389919
0.013681352138519287
-0.0099956588819623
0.007199380546808243
-0.005758821964263916
-0.0009165816009044647
0.01634160429239273
-0.004073646850883961
0.0036885663866996765
-0.004329436458647251
0.00022570975124835968
0.01363169401884079
0.014111515134572983
0.0013055149465799332
0.014647610485553741
-0.01048209797590971
0.007565848529338837
0.01698819175362587
0.0065964628010988235
-0.015036352910101414
0.014216478914022446
-0.001414632424712181
0.014103066176176071
0.0049685705453157425
-0.017153935506939888
0.01660136878490448
0.008038381114602089
-0.01389320008456707
0.006182916462421417
0.01624884456396103
0.01130138523876667
-0.002391783520579338
0.0162137933075428
0.0007389988750219345
-0.015024235472083092
0.010160056874155998
-0.005068007856607437
0.0032746661454439163
-0.004237201996147633
-0.009334303438663483
0.008546313270926476
0.004470301792025566
0.008440598845481873
0.01151328906416893
0.005757400766015053
0.0006419233977794647
-0.0024601267650723457
-0.0002513062208890915
-0.017371032387018204
0.007169714197516441
0.0039602164179086685
-0.006860077381134033
0.014435924589633942
-0.011187614873051643
-0.009216315113008022
0.006261168047785759
0.005905095487833023
0.017044082283973694
-0.0014583952724933624
-0.008855441585183144
-0.015118289738893509
0.011672483757138252
0.00786764919757843
0.007192652672529221
-0.01780048757791519
0.006305322051048279
-0.009917836636304855
0.0012149065732955933
-0.015720799565315247
0.017971273511648178
-0.0017275996506214142
-0.009817667305469513
-0.002846870571374893
-0.004685684107244015
-0.01621837727725506
-0.01675841398537159
-0.007855946198105812
-0.008938032202422619
-0.0020480453968048096
-0.016294769942760468
0.006594037637114525
-0.013272043317556381
0.014508843421936035
0.007210513576865196
-0.008796509355306625
-0.006689715199172497
-0.003789941780269146
0.007096588611602783
0.002721533179283142
-0.014669511467218399
-0.01697598583996296
0.0034856870770454407
-0.014379121363162994
0.012126591056585312
0.004766393452882767
0.009083503857254982
0.014784283936023712
0.014737371355295181
-0.010557344183325768
0.014593508094549179
0.00936058908700943
-0.011883493512868881
-0.015691284090280533
-0.006775319576263428
-0.012558918446302414
0.012582628056406975
-0.010031449608504772
0.002020476385951042
-0.013806028291583061
0.008089389652013779
-0.017198637127876282
-0.006919620558619499
-0.007165383547544479
0.016191311180591583
0.010652810335159302
0.0166105255484581
0.004047367721796036
9.451061487197876e-05
0.011126110330224037
-0.013442306779325008
-0.0031401794403791428
0.011372024193406105
0.007661664858460426
0.005154157057404518
-0.010784115642309189
-0.012569263577461243
-0.01583574153482914
0.011665090918540955
-0.0023731496185064316
0.010082576423883438
0.016339313238859177
-0.005858763121068478
-0.006726347841322422
-0.017162557691335678
-0.008453164249658585
0.01414940133690834
0.01343061774969101
0.013911884278059006
0.002909235656261444
-0.011658571660518646
0.0071844980120658875
0.01410435140132904
0.01675346866250038
-0.011689779348671436
-0.005712803453207016
0.014326192438602448
-0.005245276726782322
0.013795450329780579
0.016751453280448914
-0.0029284246265888214
0.017109256237745285
-0.003450545482337475
-0.013975502923130989
0.010082287713885307
-0.016296634450554848
-0.008481564000248909
-0.005327832885086536
0.01102965883910656
0.008328435942530632
0.0013690423220396042
0.014348819851875305
0.006912063807249069
0.016395065933465958
-0.013495933264493942
-0.004490586929023266
0.014117401093244553
-0.00626030657440424
0.011653982102870941
0.016697697341442108
-0.0117380041629076
0.01642109453678131
0.014015868306159973
-0.0142067214474082
-0.013006843626499176
-0.01635940559208393
-0.0020613186061382294
-0.005316067487001419
-0.00995983462780714
0.004943929612636566
-0.014716998673975468
-0.012639104388654232
0.01653372496366501
-0.01133648119866848
0.016106847673654556
0.0023800451308488846
0.004062725231051445
0.014886550605297089
-0.005302377976477146
0.004198670387268066
-0.003548101522028446
-0.0035537322983145714
0.003850368782877922
0.008029922842979431
-0.01681501790881157
-0.0033866045996546745
0.0005147401243448257
-0.017056461423635483
-0.0021379347890615463
0.013187438249588013
-0.008139373734593391
0.007988039404153824
-0.004348092712461948
-0.015101954340934753
0.01385965570807457
0.014829110354185104
0.0081084705889225
0.005410538986325264
-0.008565524592995644
-0.016894200816750526
-0.0041930414736270905
-0.013501917943358421
0.008037086576223373
0.01392214372754097
-0.011242327280342579
-0.00917133130133152
0.015248771756887436
-0.016747642308473587
-0.016497476026415825
0.0032530780881643295
0.010882342234253883
0.00929492898285389
-0.016546281054615974
0.015977222472429276
0.016781818121671677
-0.01453264057636261
0.0018517374992370605
-0.00910164974629879
-0.017321500927209854
0.008941812440752983
0.007513541728258133
0.014650922268629074
-0.0032196640968322754
-0.005585521459579468
-0.008599827997386456
0.008288970217108727
-0.012397490441799164
-0.010422064922749996
-0.0027678851038217545
-0.01024505402892828
-0.0010782554745674133
-0.0032144393771886826
-0.004525152966380119
-0.01003965549170971
-0.0005843751132488251
0.00921303778886795
0.0010061804205179214
0.01765582337975502
-0.00895164255052805
0.0052665527909994125
0.0032150819897651672
-0.008102098479866982
0.008936289697885513
0.011039435863494873
0.01794121041893959
0.002667706459760666
-0.011504784226417542
-0.017617596313357353
0.01715496927499771
-0.007624703459441662
-0.01173999160528183
0.0014981180429458618
-0.014245341531932354
0.003046644851565361
-0.013430533930659294
0.01682104542851448
0.003103727474808693
-0.006093980744481087
-0.0030703386291861534
-0.008330440148711205
0.013296425342559814
-0.009870189242064953
-0.009115352295339108
0.007331071421504021
0.007042618468403816
0.005970783531665802
0.007209766656160355
-0.006523026153445244
-0.0013506878167390823
0.01738918572664261
0.010794555768370628
-0.0043538594618439674
0.013662058860063553
0.0037045907229185104
0.010932043194770813
0.004664730280637741
-0.008190498687326908
-0.006881820037961006
-0.007344689220190048
-0.012678328901529312
0.015919748693704605
-0.016444923356175423
0.010482288897037506
0.007928222417831421
0.009994739666581154
-0.0008133091032505035
-0.0024076029658317566
-0.0044308193027973175
-0.003021164797246456
0.017317596822977066
0.0017994772642850876
-0.0167903620749712
-0.010812817141413689
-0.015378295443952084
0.015107017010450363
-0.014154902659356594
8.655153214931488e-05
-0.005891014821827412
0.0055536869913339615
-0.006848884746432304
-0.010133933275938034
0.0073691196739673615
-0.007240958511829376
0.007243586704134941
0.0028241053223609924
-0.015345091000199318
0.014263670891523361
0.012898063287138939
-0.004528998397290707
0.0005879979580640793
0.0162162184715271
-0.0043267179280519485
-0.014602203853428364
-0.0008015725761651993
0.010792404413223267
-0.007953934371471405
-0.0010013598948717117
0.0011813659220933914
-0.0010244697332382202
-0.006296536885201931
-0.0007708743214607239
-0.00523392204195261
-0.008185628801584244
-0.005582151003181934
-0.0053144460543990135
-0.013679107651114464
0.010837364941835403
-0.005170054733753204
-0.016111306846141815
0.01800362393260002
0.008999966084957123
0.0023096632212400436
0.0117156021296978
0.016278784722089767
-0.015894385054707527
0.012657364830374718
0.007996777072548866
-0.014229937456548214
-0.010359812527894974
-0.008841969072818756
0.014982461929321289
-0.010655254125595093
0.010750636458396912
-0.005057932808995247
-0.01693631336092949
0.007397564128041267
0.0071157533675432205
0.0030190031975507736
-0.01770346239209175
0.001415131613612175
-0.017428983002901077
0.016160525381565094
0.016890782862901688
0.0019689910113811493
0.00034843944013118744
-0.00206579826772213
0.008053535595536232
-0.0026461780071258545
-0.009979895316064358
0.013155199587345123
-0.005651966668665409
0.009440869092941284
-0.000590270385146141
0.000573260709643364
0.015484128147363663
-0.009933538734912872
-0.013702222146093845
-0.002788594923913479
-0.014494025148451328
-0.0002768319100141525
-0.009887871332466602
-0.017738549038767815
0.0009607095271348953
-0.013719976879656315
0.01007978618144989
-0.0038048727437853813
-0.014912758022546768
0.0042981915175914764
0.013792470097541809
-0.004623048938810825
0.017044641077518463
0.013864543288946152
-0.011952942237257957
-0.010158575139939785
0.017032861709594727
0.015137214213609695
-0.009583640843629837
0.004245400428771973
-0.0018387772142887115
0.01676741987466812
0.0072501953691244125
0.01303950697183609
0.006910756230354309
-0.0038314089179039
0.017826631665229797
-0.002551705576479435
-0.004194596782326698
0.008067438378930092
0.01639441028237343
-0.007941718213260174
-0.00719734001904726
0.014661494642496109
0.005677642300724983
0.016707338392734528
-0.0006768107414245605
-0.008578523993492126
0.0075971148908138275
-0.009087538346648216
0.001301957294344902
-0.008307215757668018
0.005621252581477165
0.014042899012565613
0.008849699050188065
0.0037666913121938705
0.01793382316827774
-0.013820309191942215
-0.0011509004980325699
-0.01541601400822401
0.008004426956176758
0.01751430705189705
0.0032719671726226807
0.006976095959544182
-0.001788092777132988
0.003676239401102066
-0.0012405812740325928
0.0075927600264549255
0.0016230102628469467
0.011186344549059868
0.009638544172048569
0.002713402733206749
-0.011546357534825802
0.015659887343645096
-0.01723034493625164
0.009282948449254036
0.013878453522920609
-0.005801890045404434
0.007743235677480698
-0.0074544185772538185
0.00021569430828094482
-0.017181869596242905
-0.003765260800719261
-0.017360106110572815
-0.005743151530623436
0.017841961234807968
0.003939716145396233
-0.0012078844010829926
-0.012448739260435104
0.01473921537399292
0.0034629981964826584
-0.012330051511526108
0.017660360783338547
-1.9432976841926575e-05
-0.00967633631080389
0.003566017374396324
-0.001985495910048485
0.005432618781924248
0.0087148267775774
0.01618243008852005
0.005705066025257111
-0.007292981259524822
-0.016491832211613655
-0.01134817861020565
-0.00424901582300663
0.017595704644918442
0.01353740319609642
-0.015844987705349922
-0.011942178010940552
0.0017281416803598404
-0.0013665743172168732
-0.0004012230783700943
0.00690881535410881
0.007507013157010078
0.004428127780556679
-0.006095540709793568
-0.01679830253124237
0.0026557445526123047
-0.008010812103748322
0.00583704374730587
0.00999954342842102
-0.010918666608631611
-0.0065621258690953255
0.010096419602632523
0.005554322153329849
0.00898878276348114
-0.01232185773551464
0.014553960412740707
-0.006464722566306591
0.0029438622295856476
0.00321914441883564
-0.002238551154732704
0.000497007742524147
-0.01197292935103178
0.0045568495988845825
-1.6437843441963196e-05
-0.0042579760774970055
-0.001629577949643135
0.009606752544641495
0.016832605004310608
0.00960497185587883
-0.006869633682072163
-0.006241067312657833
-0.00244319811463356
-0.016686363145709038
-0.007913447916507721
0.010132070630788803
-0.0156448632478714
0.013571150600910187
-0.01502256840467453
-0.010142093524336815
4.3625012040138245e-05
0.0023422949016094208
-0.01681467518210411
-0.012491746805608273
0.005421001464128494
0.009981805458664894
-0.0015893280506134033
-0.007233337499201298
0.004789212718605995
-0.0012785494327545166
-0.009240620769560337
-0.0028383228927850723
-0.0035102004185318947
-0.006457414478063583
0.013849645853042603
0.006497953087091446
-0.011914363130927086
0.013368509709835052
-0.008942615240812302
-0.010180306620895863
-0.007231446914374828
0.002271011471748352
-0.015483415685594082
-0.0021350551396608353
-0.014564711600542068
0.008350349962711334
-0.0035662567242980003
-0.0018379967659711838
-0.00562954880297184
-0.0010355506092309952
0.011129910126328468
0.007353989407420158
-0.00947509240359068
0.004253361374139786
0.017000358551740646
0.0071310605853796005
-0.0105937160551548
0.0006645359098911285
0.015045665204524994
0.011192988604307175
0.01659996435046196
-0.01163819432258606
0.006824195384979248
0.005417998880147934
0.012610048055648804
-0.011232856661081314
0.006662620231509209
-0.004346748813986778
0.007597178220748901
0.015057798475027084
0.007959870621562004
-0.0072969431057572365
0.007745662704110146
0.012992775067687035
0.01715179905295372
-0.010536229237914085
0.014404881745576859
-0.01680639199912548
0.013514231890439987
0.006955239921808243
-0.003435106948018074
-0.014478174038231373
0.0006688814610242844
-0.0029074065387248993
0.0004709269851446152
0.005310453474521637
0.010208595544099808
0.014276184141635895
0.0072767604142427444
-0.002971373498439789
-0.0005489252507686615
-0.0058769891038537025
-0.0029863929376006126
-0.004464941099286079
-0.010053547099232674
-0.01433322113007307
0.004694394767284393
0.008942494168877602
-0.01794314756989479
0.005561081692576408
0.014370560646057129
-0.017556022852659225
0.015247918665409088
0.011951012536883354
-0.017245974391698837
-0.008103116415441036
-0.01244807243347168
0.008562089875340462
0.003968594595789909
0.005686316639184952
0.0030075907707214355
-0.008290045894682407
0.0166056789457798
-0.01158183440566063
0.00850851833820343
0.00799226388335228
-0.008992807939648628
0.009815642610192299
-0.0033165831118822098
0.0017980430275201797
0.002101147547364235
0.014202870428562164
0.017935238778591156
0.017198629677295685
-0.013268085196614265
-0.017297716811299324
-0.009123069234192371
-0.010148887522518635
-0.0029957685619592667
-0.011082325130701065
0.011471105739474297
-0.01725439913570881
0.0004724748432636261
-0.006246164441108704
-0.011236414313316345
-0.016171257942914963
0.0026205461472272873
0.01767890527844429
0.006965279579162598
0.0006359517574310303
0.0009902846068143845
-0.0008224397897720337
-0.010405678302049637
-0.0019986070692539215
-0.01342899352312088
0.011056594550609589
-0.005444074049592018
-0.005623752251267433
0.0011753607541322708
0.0011105295270681381
0.01683630421757698
0.000346500426530838
0.01512959972023964
0.007129913195967674
0.005762604996562004
-0.009462947025895119
-0.009158378466963768
0.017790134996175766
-0.0034463154152035713
-0.007337802089750767
0.012019354850053787
0.015726912766695023
0.003062186762690544
-0.004637635312974453
-0.00846988894045353
0.01457158476114273
0.001729784533381462
0.005710141733288765
0.009244533255696297
0.009320808574557304
0.008126940578222275
-0.0006740055978298187
-0.012815771624445915
-0.0005290135741233826
0.002413008362054825
0.004678800702095032
-0.0070242369547486305
0.008518589660525322
-0.011570840142667294
0.007752435281872749
-0.003148311749100685
-0.01545492373406887
-0.015454268082976341
-0.0026532085612416267
-0.009905757382512093
0.01738004758954048
-0.015327544882893562
-0.01428264006972313
0.0037447642534971237
0.01613340526819229
-0.011860638856887817
-0.015042612329125404
0.0063635557889938354
-0.003290829248726368
-0.0026980414986610413
0.004224447533488274
0.014117985963821411
-0.015151988714933395
0.010401077568531036
-0.00711169745773077
0.011565422639250755
0.011123724281787872
0.014173228293657303
-0.0037614842876791954
-0.010644925758242607
0.003557901829481125
0.009271474555134773
0.009673405438661575
-0.0052157072350382805
-0.013420366682112217
0.016284480690956116
-0.01131641585379839
-0.011750704608857632
-0.006989039480686188
0.012883663177490234
-0.016765441745519638
-0.0009093191474676132
-0.0022329408675432205
0.008292460814118385
0.007530130445957184
-0.014127183705568314
0.016453295946121216
0.01536313071846962
-0.007830620743334293
0.01578330248594284
0.013096382841467857
0.002147834748029709
-0.012508450075984001
-0.006450353190302849
0.0086858831346035
0.003907753154635429
-0.008912120945751667
-0.003293982706964016
0.002706112340092659
-0.008199145086109638
-0.016229776665568352
0.007268605753779411
0.01779632270336151
-0.007296246476471424
-0.01800479181110859
-0.010481500066816807
-0.01410877425223589
-0.006103044375777245
0.0036553889513015747
0.005929473787546158
0.015193257480859756
-0.00808720476925373
0.017889387905597687
-0.010061104781925678
0.003069832921028137
-0.004336289130151272
0.009683951735496521
-0.014954401180148125
-0.005564667284488678
-0.016509167850017548
0.01022166945040226
-0.003981299698352814
-7.953494787216187e-05
0.005984794348478317
-0.00041329674422740936
0.007190130650997162
0.016300465911626816
0.016291391104459763
0.004868527874350548
-0.008777900598943233
0.007376706227660179
-0.016392355784773827
0.009876713156700134
-0.005291862413287163
-7.440894842147827e-05
0.012181580066680908
-0.008818968199193478
0.006855908781290054
-0.0174646507948637
0.013586856424808502
-0.0028901128098368645
-0.01619059406220913
-0.010370088741183281
-0.010932792909443378
0.014127489179372787
0.005720881745219231
0.006689749658107758
-0.017918679863214493
0.01680116355419159
0.0062431953847408295
-0.0036031873896718025
0.010012459009885788
0.0018387697637081146
-0.01798466593027115
0.0013655312359333038
-0.01116445753723383
0.011987602338194847
-0.016557935625314713
0.014993596822023392
0.017696894705295563
-0.009248112328350544
0.00016647391021251678
0.009431624785065651
0.011717671528458595
0.0018179342150688171
-0.016021139919757843
-0.002993387170135975
0.014686983078718185
0.012969296425580978
-0.003816538490355015
0.0025414545089006424
-0.006498556584119797
-0.012486782856285572
-0.005402564071118832
0.0024804938584566116
-0.01077029388397932
0.01717687025666237
-0.008540184237062931
0.004739720374345779
0.012491581961512566
0.013339284807443619
-0.0015767645090818405
-0.015227225609123707
0.004541076719760895
0.007181841880083084
0.003206627443432808
0.013438910245895386
0.0022863559424877167
-0.0012703705579042435
0.0019139070063829422
0.01172686368227005
0.0003753490746021271
0.0045028384774923325
0.004538806155323982
-0.017214151099324226
0.017549924552440643
-0.0052926260977983475
-0.000424237921833992
0.0147181935608387
0.014561470597982407
0.017407391220331192
0.016008827835321426
-0.0028174947947263718
0.015985336154699326
-0.0060480739921331406
0.012478869408369064
0.007644427940249443
-0.006715099327266216
-0.003179512917995453
-0.011302908882498741
-0.009601122699677944
0.01596486195921898
-0.0004573129117488861
0.00435468927025795
-0.0025565577670931816
-0.012004328891634941
-0.0010729767382144928
-0.001461191102862358
-0.016396045684814453
-0.017589673399925232
0.00882069580256939
-0.000682806596159935
-0.00020642951130867004
-0.0072393473237752914
0.01402490958571434
-0.0029949164018034935
-0.011350167915225029
0.013409893959760666
-0.016655830666422844
0.004530755802989006
0.0036688540130853653
-0.01663053408265114
0.01619613543152809
-0.004629982635378838
0.013334576040506363
0.008181560784578323
-0.001924172043800354
-0.007234157063066959
-0.0031323395669460297
0.007281150668859482
0.014518048614263535
-0.014583690091967583
0.004147607833147049
0.002087613567709923
0.013595294207334518
0.011583749204874039
0.013230878859758377
-0.010528221726417542
0.015682630240917206
0.014081630855798721
0.009052976965904236
0.005001464858651161
0.013854403048753738
0.01596640795469284
0.01593046262860298
0.011465350165963173
0.013644114136695862
0.006820386275649071
-0.010922546498477459
-0.012926068156957626
-0.011158928275108337
0.004120523110032082
0.017379630357027054
0.015845298767089844
0.017339933663606644
0.003590395674109459
-0.000607827678322792
0.01716010645031929
-0.015612422488629818
-0.0034542791545391083
-0.012933026067912579
0.0027073509991168976
0.007628766819834709
0.01026664674282074
-0.011780123226344585
0.0059906356036663055
-0.0032646935433149338
-0.009576009586453438
0.003038216382265091
-0.017273344099521637
0.0032112672924995422
0.013235535472631454
-0.0001640506088733673
0.01519152894616127
0.009784882888197899
-0.015721237286925316
0.008445655927062035
0.016433924436569214
0.006955200806260109
-0.014202258549630642
-0.01293632760643959
0.006214447319507599
0.012578021734952927
0.002124220132827759
0.007445894181728363
0.01448560506105423
0.006529800593852997
-0.006385658867657185
-0.013683892786502838
0.014074422419071198
0.012071721255779266
-0.0020586252212524414
-0.009907439351081848
0.008272198960185051
-0.006782659329473972
0.014332327991724014
-0.01290544681251049
0.0027057547122240067
-0.003149242140352726
0.014652393758296967
0.01334374025464058
0.005613191053271294
0.004536125808954239
-0.010954611003398895
0.0038415323942899704
0.008618121966719627
-0.007435448467731476
0.017952434718608856
-0.01351939793676138
-0.011916715651750565
0.001693563535809517
0.012618279084563255
-0.006170677952468395
-0.012838638387620449
-0.007586176507174969
-0.005581848323345184
0.014723241329193115
-0.01665455847978592
-0.005225329659879208
-0.012447996065020561
0.006653657183051109
0.013441603630781174
-0.00825649593025446
-0.01210334524512291
0.011007927358150482
-0.010148470290005207
0.006738726049661636
0.015073060989379883
-0.0023561548441648483
-0.0029625361785292625
-0.012115759775042534
-0.0011671781539916992
-0.01438705064356327
0.010163333266973495
-0.0061908503994345665
0.013902053236961365
-0.012535147368907928
-0.004977579228579998
0.017737753689289093
-0.0033633261919021606
0.009238740429282188
-0.004824808798730373
0.010635051876306534
0.004537438973784447
-0.001752985641360283
-0.0006698351353406906
0.0019214712083339691
0.013144632801413536
-0.010803626850247383
-0.0009844694286584854
-0.008269689045846462
-0.01569809764623642
-0.006881583482027054
0.008967723697423935
-0.01497749611735344
0.014252420514822006
-0.013717450201511383
-0.01098831556737423
0.013346415013074875
-0.011406486853957176
0.014249514788389206
0.007059512659907341
0.013270720839500427
-0.014442208223044872
-0.012505176477134228
-0.004298805259168148
-0.007389991544187069
0.0068321917206048965
-0.006335425190627575
-0.008113080635666847
0.001803036779165268
0.009323181584477425
-0.009361306205391884
-0.005214754492044449
-0.00357934832572937
-0.017568212002515793
-0.003031228668987751
0.000848161056637764
-0.003987087868154049
-0.006409255787730217
-0.015966122969985008
0.0006390213966369629
0.010389246046543121
0.004577465355396271
-0.016785142943263054
0.014414753764867783
0.002644503489136696
0.013076739385724068
0.004851890727877617
0.016794152557849884
0.0031120330095291138
-0.012367574498057365
-0.01599270850419998
0.008823761716485023
-0.002589949406683445
-0.0055781276896595955
-0.016209792345762253
0.015173189342021942
0.008972220122814178
0.007533298805356026
-0.005578865297138691
0.005061548203229904
-0.016699478030204773
0.0130683034658432
0.015906520187854767
-0.005334802903234959
0.013883072882890701
-0.0058505842462182045
-0.0038958126679062843
0.01565343514084816
-0.0007607284933328629
0.0008958019316196442
0.009044621139764786
0.0006142780184745789
0.012708047404885292
-0.000500233843922615
0.007284097373485565
-0.002467820420861244
-0.015498865395784378
0.0009361058473587036
-0.0023779645562171936
0.009602673351764679
0.00932634063065052
-0.010765796527266502
0.0007094703614711761
-0.0002070832997560501
0.0025348085910081863
0.003160787746310234
0.007089916616678238
-0.008903649635612965
0.006828682497143745
-0.0025091972202062607
-0.005616291426122189
-0.01289624348282814
0.004326252266764641
-0.007568806409835815
-0.003817671909928322
-0.01482217013835907
0.015935469418764114
-0.008439098484814167
-0.01786278560757637
-0.001030581071972847
0.0017046034336090088
0.006325226277112961
0.014292877167463303
-0.010773278772830963
-0.010199648328125477
-0.008875645697116852
-7.293559610843658e-05
-0.014342265203595161
0.012708114460110664
0.0030036643147468567
-0.003950402140617371
0.002727912738919258
-0.002701990306377411
-0.0010036192834377289
0.0014293845742940903
0.016700774431228638
-0.011332381516695023
0.007514491677284241
0.015293378382921219
-0.016109388321638107
0.013854801654815674
-0.017007432878017426
0.016099940985441208
-0.01130734197795391
-0.016807425767183304
-0.006837900727987289
-0.016751648858189583
0.013952445238828659
-0.013011088594794273
-0.011748358607292175
0.0006415843963623047
-0.012972344644367695
-0.013123111799359322
-0.002127237617969513
0.008571753278374672
0.011760778725147247
-0.006903713569045067
0.003017168492078781
0.006941424682736397
0.017195075750350952
-0.008287368342280388
-0.0027443869039416313
-0.014199408702552319
-0.0003840569406747818
0.0024886373430490494
-0.0024225888773798943
-0.01433141902089119
0.01717112585902214
-0.004466257989406586
0.0035880208015441895
-0.0049490537494421005
-0.012118514627218246
-0.014960797503590584
0.0069708433002233505
0.005853166803717613
-0.004499003291130066
0.013767700642347336
0.0062926094979047775
0.0025891680270433426
-0.01583246700465679
0.013596422970294952
0.004868552088737488
0.017870213836431503
0.009672589600086212
0.006806397810578346
-0.0007835216820240021
0.00047878921031951904
0.012589028105139732
-0.008560233749449253
-0.017957773059606552
0.00712178461253643
0.01492888480424881
-0.004637773148715496
-0.0027971137315034866
0.007959384471178055
0.013925652951002121
0.011777637526392937
-0.0033834921196103096
-0.01110896933823824
-0.011596236377954483
-0.001521458849310875
0.0004984773695468903
0.01640283316373825
-0.00992246251553297
0.003027690574526787
0.01166670024394989
-0.005057621747255325
0.009419353678822517
-0.01657520793378353
0.013756856322288513
-0.014815911650657654
0.0095584187656641
0.010842882096767426
0.013963613659143448
-0.0003748517483472824
-0.0015585105866193771
-0.010546030476689339
0.0014342889189720154
-0.002694441005587578
-0.01732146181166172
0.014478471130132675
0.016446281224489212
0.007888052612543106
0.0020979996770620346
0.016786914318799973
-0.008277341723442078
-0.0066468846052885056
-0.0021356791257858276
0.004274275153875351
0.004004465416073799
0.017575476318597794
0.0020974911749362946
-0.009379805997014046
0.015033472329378128
-0.01615694910287857
-0.0012625735253095627
-0.0015162136405706406
-0.013173621147871017
-0.01717587187886238
0.012953583151102066
0.014861863106489182
0.005475420504808426
0.009773435071110725
0.004615398123860359
0.0022351928055286407
0.013295840471982956
-0.011587923392653465
0.003289390355348587
0.0033485256135463715
-0.0021680593490600586
-0.012650912627577782
0.01269625686109066
0.00919375754892826
0.01795535907149315
-0.004166316241025925
0.01604773849248886
0.01752711459994316
-0.015026880428195
0.00960608758032322
0.002011096104979515
-0.015667248517274857
-0.008208992891013622
0.0048303790390491486
0.0014596916735172272
0.01089528575539589
-0.009469655342400074
0.015485629439353943
-0.01000049989670515
0.017685003578662872
0.012434937059879303
0.006723051890730858
9.819865226745605e-05
0.005016345530748367
-0.002601473592221737
0.013071049004793167
-0.016070490702986717
0.010928228497505188
0.016623202711343765
0.004033297300338745
-0.0064379023388028145
0.0015173442661762238
-0.0002933647483587265
0.016292493790388107
0.01505015417933464
0.005381504073739052
-0.01776162162423134
-0.008967947214841843
0.012612653896212578
0.003674495965242386
-0.010547906160354614
0.0006891433149576187
-0.0008417088538408279
-0.0034447144716978073
0.01160123385488987
0.006125802174210548
0.005407389253377914
-0.011861473321914673
-0.007959062233567238
0.007154177874326706
0.014979701489210129
0.015262138098478317
0.0061446744948625565
-0.0025787632912397385
-0.014929475262761116
-0.016873175278306007
-0.008644631132483482
0.012803750112652779
0.006253810599446297
-0.01640363782644272
0.002670964226126671
-0.0019076298922300339
-0.015531608834862709
0.003913756459951401
0.008069535717368126
-0.00662282295525074
0.011617515236139297
0.016168367117643356
0.01704644411802292
-0.008996976539492607
0.00043084099888801575
0.011599157005548477
0.013593856245279312
0.01280994527041912
-0.004438219591975212
0.012891458347439766
-0.011693906038999557
0.005055258050560951
-0.01727285049855709
-0.006116153672337532
0.000682588666677475
0.0038695447146892548
-0.006542779505252838
0.010649414733052254
0.017844729125499725
-0.01574038155376911
-0.010068708099424839
0.006991442292928696
0.017772439867258072
-0.010803211480379105
-0.01504063792526722
-0.0037347236648201942
0.003876306116580963
0.0003086905926465988
-0.007673202082514763
0.0126351248472929
-0.007789411582052708
-0.011626863852143288
0.01510249450802803
-0.0169171541929245
0.0025449078530073166
0.00029963813722133636
0.01465713232755661
0.017533738166093826
0.016362778842449188
-0.015237708576023579
0.0034410227090120316
0.009735586121678352
-0.00976958591490984
0.00045831501483917236
-0.005388766527175903
0.005981450900435448
0.0017128493636846542
0.015113979578018188
0.0009430777281522751
-0.0031678788363933563
0.00222945399582386
-0.013354234397411346
0.011708205565810204
0.0019532646983861923
-0.013429593294858932
0.0013445932418107986
0.0037187784910202026
-0.0006892494857311249
-0.012470899149775505
-0.00882204994559288
-0.0019728224724531174
-0.008540826849639416
-0.012977439910173416
-0.01685352250933647
-0.00464512687176466
0.014306992292404175
-0.008141247555613518
-0.014426631852984428
0.010222025215625763
0.008746149018406868
0.003478115424513817
-0.017255160957574844
-0.0014117229729890823
-0.0027327127754688263
-0.015922918915748596
-0.012057597748935223
0.014086827635765076
-0.008663258515298367
-0.0028658853843808174
0.013929128646850586
-0.01562829129397869
0.011400260031223297
-0.012817618437111378
-0.005458534695208073
0.012543663382530212
-0.014878624118864536
0.013470318168401718
0.011395933106541634
0.016942698508501053
0.008003097027540207
-0.003478032536804676
-0.017777733504772186
0.014457888901233673
0.015102043747901917
-0.0051573412492871284
-0.011671407148241997
0.012506214901804924
-0.009138399735093117
0.015029221773147583
0.012945035472512245
0.0010087136179208755
-0.014293953776359558
0.009059235453605652
0.013561107218265533
0.006487105041742325
0.011071106418967247
-0.014741266146302223
-0.00888791587203741
0.006524417549371719
0.008030526340007782
-0.0015845857560634613
0.006003187969326973
-0.010983308777213097
0.009357769042253494
0.00442173145711422
0.010811848565936089
0.012460753321647644
-0.005615871399641037
0.0011247768998146057
0.01505180075764656
-0.016389448195695877
0.012130048125982285
-0.007023916579782963
0.009679367765784264
-0.014811551198363304
0.00699213519692421
0.016393903642892838
0.014442328363656998
-0.016774481162428856
-0.017671283334493637
0.0020854193717241287
0.017130214720964432
-0.0035041244700551033
-0.005976831540465355
0.008726263418793678
-0.0034372173249721527
-0.008021409623324871
-0.014123739674687386
-0.009909682907164097
-0.00789085403084755
-0.01117820292711258
-0.0070426929742097855
-0.008122974075376987
-0.0014351066201925278
0.01744338497519493
0.016017023473978043
-0.01617584377527237
-0.0032871942967176437
-0.014507857151329517
5.315430462360382e-05
-0.014972037635743618
-0.013079170137643814
-0.008641840890049934
-0.006702570244669914
-0.017537442967295647
-0.010271872393786907
-0.005311504006385803
-0.007924717850983143
0.017640043050050735
-0.014852060005068779
0.014898616820573807
-5.080178380012512e-05
-0.002390936017036438
-0.007134777493774891
-0.00021647848188877106
0.0006123688071966171
-0.011558939702808857
6.328150629997253e-05
0.004561323672533035
0.002926573157310486
-0.014865988865494728
0.01303919218480587
0.005472561344504356
0.00241900235414505
0.012507406994700432
-0.011855310760438442
-0.005517293699085712
-0.016137005761265755
0.010355662554502487
-0.012485146522521973
-0.006072309799492359
0.006995974108576775
-0.010274788364768028
0.0022588148713111877
0.011067047715187073
0.017835069447755814
-0.009614427573978901
0.017871785908937454
-0.006716469302773476
-0.01200383435934782
-0.008725124411284924
-0.013794101774692535
-0.012269429862499237
-0.0029791593551635742
-0.002400008961558342
-0.005124992690980434
-0.010108599439263344
-0.006803703494369984
0.017621610313653946
-0.001672983169555664
0.017006009817123413
0.016820203512907028
0.014793608337640762
0.01729544997215271
-0.007896174676716328
-0.00874296948313713
0.01535123959183693
-0.016038091853260994
0.004644341766834259
0.010435445234179497
-0.002204975113272667
-0.013992957770824432
-0.001661514863371849
-0.011844257824122906
0.01496761292219162
-0.009802036918699741
0.003734847530722618
0.014662295579910278
0.013219762593507767
-0.008483615703880787
0.011009065434336662
-0.0006524287164211273
-0.012582710012793541
0.0030435845255851746
-0.0037767570465803146
-0.004087559878826141
0.01666710525751114
-0.017700646072626114
-0.011849161237478256
-0.016982218250632286
0.01188638061285019
0.010501209646463394
-0.006981644779443741
0.006018303334712982
-0.00030111148953437805
0.011131420731544495
-0.004364978522062302
0.0016388166695833206
-0.015131005086004734
0.003229685127735138
0.0010387152433395386
0.008411118760704994
0.004838468506932259
0.0037464648485183716
-0.0058131106197834015
0.006609996780753136
-0.014250901527702808
0.0015925560146570206
-0.008655195124447346
-0.011137682944536209
0.017899956554174423
-0.017336813732981682
0.004377670586109161
-0.007059645839035511
-0.0011838879436254501
0.011742454022169113
-0.007318081334233284
-0.002518082968890667
0.003591170534491539
-0.00525245163589716
-0.007872357033193111
-0.00016954727470874786
1.5895813703536987e-05
0.006458761170506477
-0.0028149439021945
0.01790705695748329
-0.005784390494227409
0.007943760603666306
-0.012595544569194317
-0.004684731364250183
-0.013523155823349953
-0.01028516422957182
0.013584166765213013
-0.008786708116531372
-0.008712884038686752
0.012841880321502686
-0.011819127947092056
-0.004954071715474129
-0.004750560969114304
-0.007096467539668083
-0.006344819441437721
0.009827140718698502
0.0018933936953544617
-0.006364408880472183
0.016315527260303497
0.016502745449543
-0.01166592724621296
0.015755265951156616
0.0016386453062295914
0.006226487457752228
0.008032137528061867
0.0059774816036224365
-0.0020587556064128876
-0.016492847353219986
-0.002687610685825348
0.0061469655483961105
-0.012476910836994648
0.014598626643419266
0.00477185845375061
-0.014629596844315529
-0.007534172385931015
-0.012693214230239391
-0.01579996570944786
-0.014990474097430706
0.017550870776176453
-0.007798311300575733
-0.006889717653393745
-0.0038432013243436813
0.01717650517821312
-0.007020219229161739
0.010269124060869217
-0.0031542284414172173
-0.00987441185861826
-0.014907109551131725
0.004960633814334869
-0.007509039714932442
-0.0020917393267154694
0.013490088284015656
0.017312131822109222
0.008084993809461594
0.008419537916779518
0.011262476444244385
0.00473947636783123
-0.013011426664888859
-0.0048809293657541275
0.016235820949077606
-0.010877279564738274
-0.015269727446138859
-0.008496451191604137
-0.007768301293253899
-0.007248825393617153
-0.007278762757778168
0.012068375945091248
0.0016292575746774673
0.010772868990898132
-0.008077347651124
0.015720773488283157
-0.0163388904184103
-0.011960013769567013
-0.009438406676054
0.013486754149198532
0.003497391939163208
-0.01749330945312977
0.001145893707871437
-0.008935562334954739
0.017488796263933182
-0.01177093107253313
0.010269813239574432
-0.006322115659713745
0.0017193201929330826
0.00863281823694706
-0.01374875195324421
0.017615146934986115
0.01117614470422268
0.0020015686750411987
0.0011263024061918259
0.016617082059383392
-0.006864484399557114
-0.002900238148868084
-0.010150042362511158
-0.001124529168009758
-0.01046719029545784
0.003789501264691353
-0.0039673903957009315
0.0040527042001485825
-0.01267855055630207
-0.011397643014788628
0.015464004129171371
0.0102616585791111
0.0038791578263044357
0.017538245767354965
-0.008564180694520473
-0.0017166826874017715
0.011172328144311905
-0.009086727164685726
-0.01074457447975874
-0.004558446817100048
-0.008297146297991276
-0.004739002324640751
0.0078063346445560455
-0.002357620745897293
-0.006784182973206043
0.010768845677375793
-0.01726001501083374
-0.016995219513773918
-0.016255401074886322
-0.004927468486130238
-0.017461106181144714
0.0047124698758125305
0.0019395239651203156
-0.003306351602077484
0.008440634235739708
0.008849358186125755
0.00916372425854206
-0.0007817186415195465
8.059665560722351e-06
-0.00516270287334919
-0.012133215554058552
0.008085019886493683
-0.004461527802050114
0.00037844106554985046
0.010142263025045395
-0.0015731323510408401
-0.0023231077939271927
0.017987146973609924
-0.010317757725715637
-0.005581110715866089
-0.013135125860571861
-0.004060271196067333
-0.01786286197602749
0.01313190720975399
0.012461487203836441
0.003213142976164818
0.015975166112184525
-0.014112740755081177
-0.010866453871130943
0.0017036553472280502
0.003158731386065483
-0.00315205380320549
0.010011279955506325
-0.00855033565312624
-0.008975550532341003
0.009486012160778046
0.010475961491465569
0.01495414599776268
0.010975217446684837
-0.0015012044459581375
-0.008288342505693436
-0.005800952203571796
-0.014217452146112919
0.00051930733025074
0.0067510176450014114
-0.006335104815661907
-0.01608392968773842
-0.006099366582930088
-0.002596554346382618
0.014136966317892075
-0.008870253339409828
0.002513231709599495
0.010435888543725014
0.004375725984573364
0.0017550233751535416
0.006002383306622505
0.004192929714918137
0.01593892276287079
0.002236362546682358
0.008765654638409615
-0.0010792985558509827
0.0027696285396814346
0.012261845171451569
-0.0008499324321746826
-0.010052572935819626
0.014454513788223267
0.00618419423699379
0.011091204360127449
-0.008592259138822556
0.0150676928460598
0.0034443512558937073
0.0014356262981891632
-0.0006751064211130142
-0.003362545743584633
0.006681904196739197
-0.0017390437424182892
-0.008547935634851456
0.015575278550386429
0.002275388687849045
-0.008785211481153965
0.0010449308902025223
-0.004449021071195602
-0.014188508503139019
-0.003681199625134468
-0.008867907337844372
-0.006742917001247406
0.011898253113031387
-0.010966815054416656
0.0034674666821956635
-0.017931602895259857
-0.0030993549153208733
-0.0025603454560041428
-0.009037379175424576
0.012490319088101387
-0.006788925267755985
0.00250181183218956
0.016681794077157974
0.009055003523826599
-0.005084093660116196
-0.004609111696481705
0.002583809196949005
-0.00987147819250822
-0.010863369330763817
0.017882470041513443
0.017169419676065445
-0.010466629639267921
-0.005757090635597706
0.006801357492804527
-0.003119995817542076
0.014707598835229874
0.008924469351768494
0.00033269450068473816
-0.008474407717585564
-0.009099012240767479
0.0132281593978405
0.006699472665786743
0.003920203074812889
0.0009509194642305374
0.005955319851636887
0.011816414073109627
0.002212008461356163
-0.01705307886004448
0.01748219132423401
-0.017006149515509605
-0.014852544292807579
-0.002158135175704956
-0.006329783238470554
0.009206578135490417
-0.015449319034814835
7.797218859195709e-05
-0.016798848286271095
0.005964485928416252
-0.015093307942152023
0.014230061322450638
-0.015091088600456715
-0.015255323611199856
-0.014260622672736645
0.013876274228096008
0.008665375411510468
0.01222020573914051
0.011393290013074875
-0.0007763262838125229
0.009918531402945518
0.006979316473007202
0.016253761947155
-0.01592390611767769
0.013133419677615166
-0.000758027657866478
0.012912703678011894
-0.017743267118930817
-0.0048767197877168655
0.0071993377059698105
0.008922040462493896
0.017904717475175858
-0.014116857200860977
0.012232070788741112
0.006916763260960579
0.006911974400281906
0.000978264957666397
0.008691217750310898
-0.010793430730700493
-0.0027930084615945816
0.00684264674782753
-0.016535822302103043
0.001751825213432312
-0.009082673117518425
0.0030902475118637085
-0.017907334491610527
0.010450586676597595
0.003869336098432541
-0.013425309211015701
0.009069286286830902
0.004313241690397263
-0.003420264460146427
0.0006897766143083572
-0.004188129678368568
0.007652599364519119
0.00813392922282219
-0.012005606666207314
-0.01794608123600483
0.006526721641421318
-0.013221858069300652
0.010646698996424675
-0.012950638309121132
0.00815926305949688
-0.00741326529532671
-0.012617841362953186
0.013680770993232727
-0.01314341090619564
0.00429946556687355
-0.011647425591945648
-0.0011404640972614288
-0.010024964809417725
0.01182381808757782
-0.005126814357936382
-0.010263224132359028
0.0013690497726202011
-0.007478541694581509
0.00439087487757206
0.008384471759200096
0.012410923838615417
-0.009778750129044056
0.0007202588021755219
0.01497112587094307
-0.010331542231142521
-0.00741999875754118
0.01040397398173809
0.012907139956951141
0.01795559749007225
0.016420837491750717
0.012715429067611694
0.004729254171252251
0.008637387305498123
-0.003254181705415249
-0.010761579498648643
-0.0008068028837442398
-0.009922150522470474
0.0006434060633182526
-0.010087955743074417
-0.011423686519265175
-0.0023104995489120483
-0.0006945114582777023
0.016670431941747665
0.015487302094697952
0.004402907565236092
0.012292677536606789
-0.0057658059522509575
0.005064604803919792
-0.0011405255645513535
0.017340727150440216
0.0012995358556509018
0.011565940454602242
0.01705695316195488
-0.005516945384442806
0.011262604966759682
-0.0026778634637594223
0.00867370329797268
-0.012866486795246601
0.0030520353466272354
0.005538366734981537
-0.0024739867076277733
0.00014859996736049652
0.00450965017080307
-0.002316344529390335
-0.007237598299980164
-0.017310943454504013
0.009021416306495667
-0.014469207264482975
-0.012025892734527588
-0.017688361927866936
-0.010173114016652107
-0.004435974173247814
-0.006242573261260986
0.009811751544475555
0.0058313533663749695
0.011360829696059227
0.01169840432703495
0.011955399066209793
0.0011788755655288696
-0.007324974983930588
-0.0028100507333874702
0.0028896499425172806
0.014104273170232773
0.005327846854925156
-0.012330170720815659
-0.0016248486936092377
0.004674851894378662
-0.012078952975571156
0.011214865371584892
-0.012293349020183086
0.0060593001544475555
-0.010055304504930973
-0.005085824988782406
0.017074771225452423
0.0016049575060606003
-0.002065202221274376
0.008098218590021133
-0.011764124035835266
0.006515186280012131
0.017422102391719818
0.00023500435054302216
-0.003367409110069275
-0.0015181861817836761
-0.017204109579324722
-0.0017957799136638641
0.0012229066342115402
0.01383025199174881
-0.013882766477763653
-0.01540735736489296
0.0007337909191846848
-0.007571185007691383
-0.016680091619491577
0.0014408715069293976
-0.016840122640132904
-0.008769611828029156
0.008692000061273575
0.009652944281697273
0.016592327505350113
-0.0019741207361221313
0.009714951738715172
-0.015718553215265274
0.015657883137464523
-0.004384043626487255
-0.007705586031079292
-0.004350576549768448
-0.010895328596234322
0.015304192900657654
0.012231353670358658
0.016754716634750366
0.0023977309465408325
0.005975265055894852
-0.007129333913326263
-0.013278191909193993
-0.014958903193473816
-0.006883140653371811
-0.0164443701505661
0.009737445041537285
0.007160114124417305
-0.010427973233163357
-0.005391547456383705
-0.009239285252988338
4.542991518974304e-05
0.014914214611053467
0.0030833650380373
-0.011693255044519901
-0.014107789844274521
0.007914653047919273
-0.016754381358623505
0.00010812841355800629
0.01031096838414669
-0.007119085639715195
0.009144999086856842
-0.01738208532333374
-0.01307869516313076
-0.01176287792623043
-0.013667555525898933
-0.007269452325999737
-0.013382630422711372
-0.004407880827784538
0.014696229249238968
-0.01674325205385685
0.0023490898311138153
-0.003825642168521881
0.018019728362560272
0.0033303052186965942
-0.017587197944521904
-0.007992020808160305
-0.013450901955366135
0.015862006694078445
-0.009646397083997726
0.0011607557535171509
0.012905403971672058
0.0018394440412521362
0.016742918640375137
-0.006202389486134052
-0.007468127645552158
-0.010811161249876022
-0.011591104790568352
0.010610170662403107
-0.010248241946101189
-0.008756734430789948
-0.016403615474700928
0.017996519804000854
-0.012475772760808468
-0.014901547692716122
0.004610443487763405
0.004748690873384476
0.016925353556871414
0.0062535908073186874
0.014815092086791992
-0.002609732560813427
0.005006248131394386
0.013204460963606834
0.011181190609931946
0.010077890008687973
-0.015989337116479874
-0.003208748996257782
0.013650808483362198
-0.01069994829595089
-0.016564391553401947
0.005030181258916855
0.009622139856219292
-0.014504164457321167
-0.0106760673224926
-0.003403068520128727
-0.014866777695715427
-0.001071583479642868
-0.015653079375624657
0.012387372553348541
5.621276795864105e-05
-0.00232878141105175
-0.01669270545244217
0.014904707670211792
0.009637553244829178
0.00847555510699749
-0.016847945749759674
0.008655279874801636
0.010242413729429245
0.0020805709064006805
-0.007672999985516071
0.011406384408473969
-0.002588873729109764
0.01348910853266716
-0.009739360772073269
0.005462793633341789
-0.0069093890488147736
0.016604095697402954
-0.012689219787716866
0.00041002407670021057
-0.01586894318461418
0.01313856616616249
-0.015162080526351929
-0.012617936357855797
0.004733240231871605
0.0014752503484487534
-0.010966971516609192
-0.011172366328537464
-0.009903602302074432
0.01738317683339119
0.006860073655843735
-1.5769153833389282e-05
0.0011582393199205399
0.007188420742750168
-0.012668199837207794
0.004166344180703163
-0.013521784916520119
0.017484143376350403
-0.01060892827808857
0.015477240085601807
0.0008539352566003799
0.012599432840943336
-0.0154184615239501
0.0029924102127552032
-0.012794129550457
-0.009081817232072353
-0.007438669912517071
0.011429622769355774
0.016748957335948944
0.017371248453855515
-0.0006318353116512299
0.006081415340304375
-0.0075086746364831924
-0.0073304204270243645
-0.0042305151000618935
0.0038788001984357834
0.008013179525732994
-0.004159035161137581
0.005867494270205498
-0.0005337502807378769
0.0017679426819086075
0.004131395369768143
-0.016740864142775536
0.0014487728476524353
0.015622012317180634
0.004280863329768181
0.006750738248229027
0.017552196979522705
0.011626511812210083
-0.010228062979876995
0.00769992358982563
0.016210708767175674
-0.01524185761809349
0.0065056029707193375
8.497759699821472e-05
-0.002757212147116661
-0.006336113438010216
0.011975044384598732
0.010905338451266289
0.0016080625355243683
0.008714577183127403
0.0020303893834352493
0.00035437755286693573
0.01555296778678894
-0.016452642157673836
0.002070123329758644
0.0010671243071556091
-0.003833097405731678
-0.002738489769399166
0.0014193151146173477
0.016878794878721237
-0.010060139000415802
0.004347009584307671
0.014523133635520935
-0.0034742066636681557
0.014760930091142654
-0.0077465008944272995
0.0031070727854967117
-0.013136617839336395
-0.0033335722982883453
0.005108430981636047
0.014932315796613693
-0.009494371712207794
-0.007255912758409977
-0.0076515087857842445
0.0037820227444171906
-0.010668713599443436
-0.0003326740115880966
0.004687359556555748
-0.016898363828659058
-0.00578360166400671
-0.010792458429932594
-0.010089844465255737
0.005682893097400665
0.012409796938300133
0.012357233092188835
0.004888327792286873
-0.002978774718940258
-0.013135600835084915
-0.0024877581745386124
-0.014612031169235706
-0.0014012157917022705
0.013283871114253998
-0.0009330864995718002
0.009769875556230545
0.017469126731157303
-0.008624890819191933
0.010740779340267181
0.0036825835704803467
0.012540755793452263
-0.0031559383496642113
-0.006386476568877697
0.016913071274757385
-0.01072901114821434
0.006823234260082245
0.0030266139656305313
-0.009119266644120216
0.0167493037879467
-0.014869248494505882
0.005561869591474533
0.0011793337762355804
0.008688343688845634
0.00016603060066699982
0.0021522659808397293
-0.0036095818504691124
0.015585307031869888
0.014940373599529266
0.012107472866773605
0.0026444680988788605
0.016342904418706894
-0.003261459991335869
-0.0027440693229436874
0.01719365268945694
0.017736319452524185
-0.015729453414678574
-0.006996655836701393
-0.0006364379078149796
-0.013615470379590988
-0.002475445158779621
0.014444362372159958
0.003514118492603302
0.01612440124154091
0.006636368110775948
0.01779058575630188
0.015186522156000137
-0.008028469979763031
0.0070724207907915115
-0.0009958278387784958
0.006583798676729202
0.013347670435905457
0.002453308552503586
-0.01622682809829712
0.007571283727884293
-0.015004897490143776
0.004646962508559227
-0.0010175351053476334
0.007710115984082222
-0.008070716634392738
0.016724281013011932
0.01628631353378296
0.009941017255187035
0.004559725522994995
-0.00509484950453043
-0.011606588959693909
-0.013850027695298195
0.014563139528036118
0.017994828522205353
0.00325041264295578
-0.004891934804618359
0.009318539872765541
-0.013990751467645168
-0.008877377025783062
-0.006491958163678646
0.010508531704545021
0.013246815651655197
0.017322469502687454
0.008372515439987183
-0.013098003342747688
0.01747305691242218
-0.0020073428750038147
-0.004181395284831524
-0.013756411150097847
0.008482115343213081
-0.01396151352673769
0.013792209327220917
-0.013295333832502365
-0.009663284756243229
-0.009695891290903091
0.01511656865477562
-0.017782699316740036
0.004278477281332016
0.013037361204624176
-0.015270737931132317
0.015957321971654892
-0.015658870339393616
0.0014672446995973587
0.01716764271259308
-0.008909185416996479
-0.012337235733866692
0.00505412183701992
-0.010519900359213352
-0.016321344301104546
-0.007415732368826866
0.0006098132580518723
0.01077478937804699
-0.009037206880748272
0.011985339224338531
-0.012833096086978912
-0.011128818616271019
-0.014174874871969223
-0.012644956819713116
-0.0026074135676026344
-0.015968745574355125
-0.00486614927649498
-0.0002917926758527756
0.009609369561076164
0.016901254653930664
-0.00941266119480133
-0.0023958291858434677
-0.01338058989495039
0.0017959997057914734
-0.00218239426612854
-0.017102045938372612
0.0019076187163591385
0.0012436751276254654
0.005674183368682861
0.004337180405855179
-0.01019074022769928
0.009817531332373619
0.009308503940701485
-0.0029454370960593224
0.005329929292201996
-0.003573829308152199
0.011746952310204506
-0.010417848825454712
0.012958770617842674
-0.008819224312901497
0.006955485790967941
0.011313311755657196
-0.014996741898357868
-0.005020161159336567
0.017619680613279343
-0.009129074402153492
0.002038421109318733
-0.014640292152762413
0.010419175028800964
0.015191815793514252
0.011088849976658821
-0.003853611648082733
-0.012432912364602089
0.01456473022699356
-0.005716866813600063
-0.012186361476778984
-0.001601584255695343
0.0006022397428750992
0.00779331661760807
-0.006251147948205471
0.0067021604627370834
0.00590730644762516
0.012278107926249504
-0.016102749854326248
-0.004704548977315426
-0.004205022007226944
-0.003197913058102131
-0.014037137851119041
0.010958993807435036
0.0070168208330869675
-0.002192869782447815
0.017663832753896713
-0.007095217704772949
-0.014837008900940418
-0.015077213756740093
0.013653822243213654
0.004546646028757095
0.009850149974226952
0.013146443292498589
-0.013540415093302727
0.01499265432357788
-0.006362723186612129
-0.00913472194224596
0.016840357333421707
-5.015358328819275e-05
-0.01436357107013464
0.004631251096725464
0.002444704994559288
-0.012046916410326958
-0.0014093350619077682
0.017942551523447037
-0.004679870791733265
-3.6032870411872864e-05
0.005620183423161507
-0.005277054384350777
-0.005295673385262489
-0.008837082423269749
-0.003740142099559307
-0.009821376763284206
0.013477709144353867
-0.006070958450436592
-0.018037820234894753
0.017724022269248962
-0.00910022109746933
-0.012382332235574722
-0.0005507860332727432
-0.013886751607060432
-0.00934363342821598
-0.011965982615947723
0.014588840305805206
0.003747418522834778
-0.008727197535336018
-0.0097479447722435
0.002142295241355896
-0.014561740681529045
0.008923549205064774
-0.015261640772223473
0.012198155745863914
-0.007571948692202568
-0.006624885834753513
-0.007435902021825314
-0.013618409633636475
-0.011654196307063103
-0.017726154997944832
-0.012896992266178131
-0.0170492734760046
0.0029742401093244553
0.017165716737508774
0.015096254646778107
0.009422533214092255
-0.01076885312795639
-0.0009063947945833206
-0.014839937910437584
0.006519947201013565
0.005722101777791977
-0.0010403785854578018
-0.01772693172097206
0.014295555651187897
0.008011352270841599
0.011179117485880852
0.00838218443095684
-0.001042226329445839
-0.007003230042755604
-0.0006184782832860947
-0.01750880293548107
0.010728936642408371
-0.0022842716425657272
-0.003975617699325085
-0.00014230981469154358
0.01098567247390747
-0.012406825087964535
0.009959371760487556
-0.0019384678453207016
0.002712434157729149
-0.012250924482941628
0.01592213660478592
-0.006607229821383953
-0.014194360934197903
-0.0027516307309269905
0.004067214205861092
0.00924794189631939
0.01569528505206108
-0.005192287266254425
-0.01196701917797327
0.016982726752758026
-0.01191218663007021
0.011627525091171265
0.008741704747080803
0.0066901203244924545
0.012580865994095802
-0.016413530334830284
-0.001413615420460701
-0.012762026861310005
0.01771530508995056
-0.016336893662810326
0.01675640046596527
-0.011247549206018448
-0.008891062811017036
0.016767412424087524
0.01282694935798645
-0.017256872728466988
-0.012652374804019928
-0.013678350485861301
-0.0025667352601885796
0.01414642482995987
-0.0025726482272148132
-0.017782628536224365
0.013695947825908661
0.0027581993490457535
0.007250988855957985
0.013681303709745407
0.005666067823767662
0.006050975993275642
-0.006070595234632492
0.008025970309972763
-0.002480996772646904
0.011789385229349136
-0.0018373634666204453
-0.015535376965999603
0.016503863036632538
0.008916256949305534
-0.012660045176744461
0.007823355495929718
-0.000369509682059288
0.0155288465321064
-0.003810066729784012
0.010059095919132233
0.013781234622001648
0.014705479145050049
-0.00493443850427866
0.0010647624731063843
-0.009899062104523182
-0.01311142835766077
-0.007645352743566036
-0.005427038297057152
-0.0016573071479797363
-0.011103712022304535
0.014231637120246887
0.017757505178451538
-0.005479549989104271
0.0030570831149816513
0.016739986836910248
0.010346783325076103
0.015734847635030746
0.015584293752908707
0.005454633384943008
0.014617901295423508
0.011092998087406158
-0.011299068108201027
0.00016692280769348145
0.01262933574616909
0.012173859402537346
0.015391230583190918
-0.00010586529970169067
0.004640448838472366
-0.015373135916888714
-0.00842051301151514
0.0004717595875263214
-0.011871153488755226
0.006711628288030624
0.010705413296818733
-0.0029389848932623863
0.017899826169013977
0.014590360224246979
0.003805454820394516
0.015361994504928589
-0.0012406986206769943
0.010209105908870697
0.004692606627941132
0.0008230172097682953
-0.014156840741634369
-0.012933247722685337
0.012129610404372215
0.0006206799298524857
-0.006266335025429726
0.011221660301089287
0.004446625709533691
-0.010125708766281605
-0.004623633809387684
0.005015986040234566
-0.0022466015070676804
-0.016594329848885536
0.005823245272040367
-0.01014811359345913
0.0009368043392896652
0.010551607236266136
0.01720767468214035
-0.016569925472140312
0.01130094937980175
0.015377271920442581
0.01483944058418274
0.017618566751480103
-0.0020578186959028244
-0.0004146061837673187
-0.00784298125654459
-0.012194478884339333
0.013239182531833649
0.004447232931852341
-0.009485237300395966
-0.006135151721537113
-0.0033039068803191185
0.01767994835972786
-0.013897462747991085
-0.013746513053774834
-0.002803347073495388
0.011424319818615913
-0.006211625412106514
-0.00048086605966091156
0.015041697770357132
-0.01715897209942341
0.009066291153430939
-0.010181169025599957
0.01365508884191513
0.012592719867825508
0.00772571936249733
-0.001735622063279152
-0.002055220305919647
-0.01671050861477852
-0.01698967255651951
-0.0005319695919752121
-0.0004691053181886673
-0.006359318271279335
0.005297170951962471
-0.015120556578040123
-0.00918399728834629
0.009349491447210312
-0.0025809993967413902
-0.0139351487159729
0.013069473206996918
-0.0114482706412673
0.008030762895941734
-0.013019859790802002
-0.017376713454723358
0.013229761272668839
0.010467827320098877
0.007762599736452103
-0.0030375970527529716
-0.010701950639486313
0.010397452861070633
-0.01182154193520546
-0.011610332876443863
-0.012959320098161697
0.01671445369720459
-0.0135671840980649
-0.012706426903605461
-0.010463392361998558
-0.007919799536466599
0.0025571882724761963
0.011496908962726593
0.0024644043296575546
-0.008149590343236923
0.0046366434544324875
-0.005588040687143803
-0.005774768069386482
0.006999174132943153
-0.001863386482000351
0.006727021187543869
0.003473334014415741
-0.0014764759689569473
-0.010210751555860043
-0.008296584710478783
0.015345867723226547
-0.01712050288915634
0.006163954734802246
-0.018041640520095825
0.016070622950792313
-0.004348122514784336
0.005371857434511185
-0.014352481812238693
0.014554493129253387
0.0029677022248506546
-0.011375626549124718
0.0020332597196102142
-0.004352261312305927
-0.001422978937625885
-0.013208866119384766
-0.016453294083476067
-0.007163054309785366
-0.008602647110819817
-0.006851373240351677
-0.0057398416101932526
0.014770973473787308
-0.004296856001019478
0.017268110066652298
-0.016670774668455124
0.003265388309955597
0.015995711088180542
-0.008404558524489403
-0.007825753651559353
0.0009073130786418915
0.013365186750888824
0.003877416253089905
-0.009095216169953346
-0.006841092370450497
-0.008273540996015072
-0.017433688044548035
0.004756389185786247
-0.002092745155096054
0.0071593597531318665
0.009552473202347755
-0.002153337001800537
-0.01400733832269907
0.005895249545574188
0.016317471861839294
-0.007287443615496159
0.015539310872554779
0.01094934530556202
-0.011774690821766853
-0.014830458909273148
-0.00507977232336998
0.013159824535250664
0.005555944517254829
0.010667331516742706
-0.014817741699516773
-0.014658900909125805
0.007478546351194382
0.006718946620821953
-0.0023032762110233307
0.012450076639652252
0.008041275665163994
0.01433025673031807
-0.009431235492229462
0.0030928365886211395
-0.01698402687907219
0.011960716918110847
-0.009028584696352482
0.004606921225786209
0.008530505001544952
-0.008404468186199665
0.004687711596488953
-0.014951452612876892
0.010905701667070389
-0.0022904202342033386
-0.004519754089415073
-0.011083535850048065
0.0028124917298555374
-0.017660314217209816
0.007680688053369522
-0.013466378673911095
-0.004371979273855686
0.0015193112194538116
0.012585477903485298
-0.002146439626812935
-0.009115705266594887
-0.008189614862203598
-0.00957039650529623
-0.011638938449323177
-0.016805648803710938
0.0019409935921430588
0.0048920828849077225
0.017492905259132385
0.015229608863592148
0.00872814655303955
0.01056550070643425
0.006321988999843597
0.009175658226013184
-0.013055603951215744
-0.004180137068033218
-0.014744737185537815
0.010655902326107025
0.0002706162631511688
-0.00514360424131155
0.010766364634037018
0.0035996194928884506
0.017286237329244614
0.01508566364645958
0.006762892007827759
0.002675233408808708
0.010259835049510002
-0.0020043067634105682
0.009667212143540382
-0.01663542538881302
0.015786677598953247
-0.014789389446377754
-0.009361076168715954
-0.004246272146701813
0.009335629642009735
0.012865947559475899
-0.016275867819786072
0.010401017963886261
-0.0033470727503299713
-0.01743321493268013
0.010638143867254257
0.0024437401443719864
0.01117195188999176
0.01495412364602089
0.01640334352850914
0.001402292400598526
-0.00013746321201324463
-0.013958724215626717
-0.014872838743031025
9.866617619991302e-05
-0.017968803644180298
-0.014592308551073074
-0.002784467302262783
0.006043544039130211
0.012387704104185104
0.003122961148619652
0.001859508454799652
0.01356712356209755
0.002044437453150749
0.014403223991394043
-0.011327273212373257
0.006375817582011223
0.014742456376552582
0.00781739316880703
0.001869305968284607
-0.00837627798318863
0.007281739264726639
0.006188381463289261
-0.0054433951154351234
0.016970280557870865
0.0003969632089138031
0.01669301837682724
0.014468993991613388
-0.010188935324549675
-0.016192007809877396
-0.009632689878344536
-0.013323146849870682
-0.0063958363607525826
-0.006126019172370434
0.013444770127534866
-0.005896266549825668
0.013988792896270752
0.013134468346834183
0.0117917750030756
-0.0012786723673343658
-0.0021852999925613403
0.013007845729589462
-0.008010070770978928
0.0055936966091394424
0.013152573257684708
0.005271429196000099
0.008089037612080574
0.011431900784373283
0.011953171342611313
-0.003543582744896412
-0.003300991840660572
-0.005678386427462101
0.002126464620232582
-0.013512805104255676
-0.004341954365372658
0.017721299082040787
0.003294875845313072
-0.002316303551197052
-0.0032597631216049194
0.015364173799753189
-0.002336714416742325
0.0064229704439640045
0.0006778668612241745
0.015620999038219452
-0.001164957880973816
0.005931701511144638
-0.013247160241007805
-0.0009303130209445953
0.00619976781308651
-0.017693478614091873
0.011822892352938652
0.017502084374427795
0.0038579683750867844
0.0011118650436401367
-0.007482896558940411
-0.00805894285440445
0.015946317464113235
-0.0013886820524930954
0.004327753558754921
0.0032107681035995483
-0.012467262335121632
0.008829157799482346
-0.01596882753074169
-0.005492120981216431
0.006266694515943527
-0.002154853194952011
-0.006972893141210079
-0.006231354549527168
0.0005796477198600769
-0.002792229875922203
0.010721767321228981
0.008998110890388489
-0.008980286307632923
-0.015626391395926476
0.009893082082271576
0.0012569781392812729
0.003224547952413559
-0.004762320779263973
0.0007296521216630936
0.007039425894618034
-0.01772063598036766
-0.00967898778617382
-0.012834986671805382
-0.010725632309913635
0.0035739094018936157
-0.001505974680185318
-0.016261989250779152
0.0035585593432188034
-0.00826775748282671
-0.007425285875797272
-0.005696771666407585
0.008158164098858833
0.005160205066204071
0.0038634873926639557
0.011025864630937576
-0.016103144735097885
0.01133337989449501
0.017881348729133606
-0.008384141139686108
-0.005257351323962212
-0.015342004597187042
0.007457748055458069
-0.015529494732618332
-0.003465244546532631
0.0076539479196071625
0.003128472715616226
-0.0011828821152448654
0.004420865327119827
-0.0030701272189617157
0.0082071702927351
0.0069601815193891525
0.007766369730234146
-0.015619582496583462
0.013649072498083115
0.01338960975408554
-0.006140528246760368
-0.013459532521665096
0.00610758550465107
0.014745678752660751
-0.017689865082502365
0.005453150719404221
-0.003318697214126587
0.013959318399429321
0.012559071183204651
-0.0026077451184391975
0.01429096981883049
-0.005280574783682823
-0.0030622147023677826
-0.006224028766155243
-0.003823220729827881
-0.0008647684007883072
-0.017671657726168633
0.013513375073671341
0.0017487592995166779
0.01793895661830902
0.013843562453985214
-0.010412418283522129
-0.006692328490316868
-0.002261299639940262
-0.015159301459789276
0.012654159218072891
0.010194199159741402
0.010103816166520119
-0.017760079354047775
0.010512236505746841
-0.016205934807658195
0.01372307538986206
0.007575308904051781
0.015264280140399933
-0.013058770447969437
0.0065972283482551575
0.012194586917757988
-0.0084035973995924
-0.016515102237462997
-0.0034630177542567253
-0.010971135459840298
0.011482397094368935
0.005051320418715477
0.0054356399923563
-0.012921204790472984
-0.011202892288565636
0.015038199722766876
-0.0008318480104207993
-0.0061636148020625114
-0.004272934980690479
-0.016563167795538902
0.009128406643867493
-0.009001974947750568
0.01578054577112198
0.010608082637190819
-0.0030781347304582596
0.00607098825275898
-0.005472994409501553
-0.0022600311785936356
-0.012787184678018093
-0.006604356691241264
0.007077647373080254
-0.0022214073687791824
0.0070154014974832535
-0.00128861702978611
0.012434097006917
-0.011908533051609993
-0.012403734028339386
0.0006074681878089905
0.0011928025633096695
0.014440767467021942
-0.012448952533304691
0.01600709930062294
